{
  "type": "LSTM",
  "options": {
    "inputSize": 32,
    "inputRange": 32,
    "hiddenLayers": [
      20,
      20
    ],
    "outputSize": 32,
    "decayRate": 0.999,
    "smoothEps": 1e-8,
    "regc": 0.000001,
    "clipval": 5,
    "maxPredictionLength": 100,
    "dataFormatter": {
      "values": [
        "CPU",
        "I swapped the memory",
        "I tested the databse",
        "code",
        "compueter engineering",
        "drive",
        "he is nice",
        "it needs more memory",
        "power supply",
        "she is playing",
        "software engineering",
        "they added a new RAM",
        "you type"
      ],
      "indexTable": {
        "C": 0,
        "P": 1,
        "U": 2,
        "I": 3,
        " ": 4,
        "s": 5,
        "w": 6,
        "a": 7,
        "p": 8,
        "e": 9,
        "d": 10,
        "t": 11,
        "h": 12,
        "m": 13,
        "o": 14,
        "r": 15,
        "y": 16,
        "b": 17,
        "c": 18,
        "u": 19,
        "n": 20,
        "g": 21,
        "i": 22,
        "v": 23,
        "l": 24,
        "f": 25,
        "R": 26,
        "A": 27,
        "M": 28,
        "stop-input": 29,
        "start-output": 30,
        "unrecognized": 31
      },
      "characterTable": {
        "0": "C",
        "1": "P",
        "2": "U",
        "3": "I",
        "4": " ",
        "5": "s",
        "6": "w",
        "7": "a",
        "8": "p",
        "9": "e",
        "10": "d",
        "11": "t",
        "12": "h",
        "13": "m",
        "14": "o",
        "15": "r",
        "16": "y",
        "17": "b",
        "18": "c",
        "19": "u",
        "20": "n",
        "21": "g",
        "22": "i",
        "23": "v",
        "24": "l",
        "25": "f",
        "26": "R",
        "27": "A",
        "28": "M",
        "29": null,
        "30": null,
        "31": null
      },
      "characters": [
        "C",
        "P",
        "U",
        "I",
        " ",
        "s",
        "w",
        "a",
        "p",
        "e",
        "d",
        "t",
        "h",
        "m",
        "o",
        "r",
        "y",
        "b",
        "c",
        "u",
        "n",
        "g",
        "i",
        "v",
        "l",
        "f",
        "R",
        "A",
        "M",
        "stop-input",
        "start-output",
        "unrecognized"
      ],
      "specialIndexes": [
        29,
        30,
        31
      ]
    }
  },
  "input": {
    "rows": 33,
    "columns": 32,
    "weights": {
      "0": -0.7947471737861633,
      "1": 6.165785312652588,
      "2": 0.6123472452163696,
      "3": -1.1627638339996338,
      "4": 1.5924417972564697,
      "5": 1.4857876300811768,
      "6": 0.31897321343421936,
      "7": -0.049360230565071106,
      "8": -0.1106286346912384,
      "9": -1.1912370920181274,
      "10": -1.7349566221237183,
      "11": -1.0656530857086182,
      "12": -0.25726476311683655,
      "13": 0.07317536324262619,
      "14": -3.2754364013671875,
      "15": -1.1713411808013916,
      "16": 0.321246862411499,
      "17": -0.7908132076263428,
      "18": 1.7521406412124634,
      "19": 0.49580442905426025,
      "20": 0.2100328803062439,
      "21": -0.15736240148544312,
      "22": -0.9085718393325806,
      "23": 1.9730459451675415,
      "24": -2.1175858974456787,
      "25": -3.3990299701690674,
      "26": 1.33195960521698,
      "27": 5.334555149078369,
      "28": 1.6426937580108643,
      "29": 1.3617545366287231,
      "30": -2.796006202697754,
      "31": -0.4148557782173157,
      "32": -0.6156269311904907,
      "33": 7.516507148742676,
      "34": -3.142763614654541,
      "35": -14.934419631958008,
      "36": 5.433785915374756,
      "37": 11.888287544250488,
      "38": 3.1766324043273926,
      "39": 1.0176303386688232,
      "40": 5.695355415344238,
      "41": 2.6074514389038086,
      "42": -3.2385237216949463,
      "43": -10.459715843200684,
      "44": 3.9367034435272217,
      "45": 3.124340057373047,
      "46": -0.5086286067962646,
      "47": 5.433914661407471,
      "48": 1.2355990409851074,
      "49": 10.787549018859863,
      "50": -13.941913604736328,
      "51": 3.549607992172241,
      "52": -2.5069072246551514,
      "53": -1.070417046546936,
      "54": 6.690995216369629,
      "55": 3.9323110580444336,
      "56": 4.845489501953125,
      "57": -3.1104681491851807,
      "58": -8.74399185180664,
      "59": -0.3634757697582245,
      "60": -0.5336396098136902,
      "61": -0.8293346762657166,
      "62": 3.276641607284546,
      "63": -3.2056994438171387,
      "64": -2.1326682567596436,
      "65": -4.174802780151367,
      "66": -6.2005743980407715,
      "67": -17.042098999023438,
      "68": 6.48829984664917,
      "69": 3.656986713409424,
      "70": 1.9889169931411743,
      "71": -6.057699680328369,
      "72": 1.6165598630905151,
      "73": -3.2017080783843994,
      "74": 7.831679821014404,
      "75": 3.943239688873291,
      "76": 3.0077130794525146,
      "77": 5.728719711303711,
      "78": -0.6435394883155823,
      "79": -10.140681266784668,
      "80": 8.13953685760498,
      "81": 14.627226829528809,
      "82": 6.630593776702881,
      "83": 8.982736587524414,
      "84": -5.4800262451171875,
      "85": 6.527864456176758,
      "86": -3.2974934577941895,
      "87": 5.549569129943848,
      "88": -5.552577495574951,
      "89": -1.2940075397491455,
      "90": -0.026929734274744987,
      "91": 1.735819935798645,
      "92": 7.7741169929504395,
      "93": 5.091768264770508,
      "94": -6.256274700164795,
      "95": 2.4630239009857178,
      "96": -7.833136558532715,
      "97": 8.9181547164917,
      "98": -4.630518913269043,
      "99": -4.906940460205078,
      "100": -0.5444068312644958,
      "101": 2.2695772647857666,
      "102": 2.0537004470825195,
      "103": -9.109431266784668,
      "104": -5.1087212562561035,
      "105": -1.0048129558563232,
      "106": -4.860431671142578,
      "107": -5.1982831954956055,
      "108": 1.6722806692123413,
      "109": -10.508458137512207,
      "110": -9.172588348388672,
      "111": 0.5560263395309448,
      "112": -10.280876159667969,
      "113": 0.5937366485595703,
      "114": -5.041082859039307,
      "115": -11.114675521850586,
      "116": 8.859667778015137,
      "117": 4.753236293792725,
      "118": -5.29871129989624,
      "119": 3.862246513366699,
      "120": -4.686868190765381,
      "121": 3.00058650970459,
      "122": -3.787713050842285,
      "123": 17.946195602416992,
      "124": 2.94936466217041,
      "125": 9.19676399230957,
      "126": -17.244361877441406,
      "127": 3.6567904949188232,
      "128": -1.2864381074905396,
      "129": -3.7570607662200928,
      "130": 5.8214921951293945,
      "131": 0.8537628054618835,
      "132": -0.6770622134208679,
      "133": -1.9562076330184937,
      "134": -9.539458274841309,
      "135": -0.7487691044807434,
      "136": -0.08695720136165619,
      "137": -5.0900797843933105,
      "138": 1.5044316053390503,
      "139": -4.655928611755371,
      "140": -10.152477264404297,
      "141": 1.4497178792953491,
      "142": 0.6815919280052185,
      "143": -2.8475496768951416,
      "144": 0.026260819286108017,
      "145": 6.9026360511779785,
      "146": -3.5546274185180664,
      "147": -1.688774585723877,
      "148": 0.7641966938972473,
      "149": 5.339360237121582,
      "150": 4.508220195770264,
      "151": 6.4340901374816895,
      "152": -1.8420902490615845,
      "153": 4.246746063232422,
      "154": -4.222509384155273,
      "155": 5.620946884155273,
      "156": -0.09590372443199158,
      "157": -2.0392916202545166,
      "158": 2.019888162612915,
      "159": 5.60667610168457,
      "160": -1.1817477941513062,
      "161": -0.2332184910774231,
      "162": 1.1630325317382812,
      "163": 2.064469337463379,
      "164": -0.980672299861908,
      "165": 2.6086478233337402,
      "166": 1.6336148977279663,
      "167": 1.7232451438903809,
      "168": 2.895599126815796,
      "169": -0.04893015697598457,
      "170": -0.8472874164581299,
      "171": 1.5158071517944336,
      "172": -1.018201470375061,
      "173": 0.9337411522865295,
      "174": -1.3542503118515015,
      "175": 4.768465042114258,
      "176": 3.3850882053375244,
      "177": 0.6416670083999634,
      "178": -1.5835083723068237,
      "179": -1.308753490447998,
      "180": 1.091597557067871,
      "181": -2.2030258178710938,
      "182": 0.7842698097229004,
      "183": -3.8725757598876953,
      "184": 3.6059417724609375,
      "185": -1.532681941986084,
      "186": -2.0054104328155518,
      "187": -3.3166933059692383,
      "188": -0.46538951992988586,
      "189": 1.164620280265808,
      "190": 0.9191775321960449,
      "191": -4.0684356689453125,
      "192": -2.6359078884124756,
      "193": -0.4296242594718933,
      "194": -2.724757432937622,
      "195": -1.2627979516983032,
      "196": 1.0820950269699097,
      "197": -1.2783406972885132,
      "198": 2.7009389400482178,
      "199": -0.029724720865488052,
      "200": 0.6078996658325195,
      "201": 6.629260540008545,
      "202": -1.6662452220916748,
      "203": 2.096845865249634,
      "204": 1.1620256900787354,
      "205": -3.606458902359009,
      "206": -4.069625377655029,
      "207": -0.12562477588653564,
      "208": -1.2009615898132324,
      "209": -3.5362436771392822,
      "210": 2.390474319458008,
      "211": -2.071939706802368,
      "212": 0.45544353127479553,
      "213": -0.3330077826976776,
      "214": -5.523667335510254,
      "215": 2.4116077423095703,
      "216": 0.8462753891944885,
      "217": -1.346919298171997,
      "218": 0.6718680262565613,
      "219": 4.540746212005615,
      "220": 2.1299514770507812,
      "221": 0.16018103063106537,
      "222": -3.12351393699646,
      "223": -3.0572986602783203,
      "224": 0.08777919411659241,
      "225": -4.217534065246582,
      "226": 3.007566213607788,
      "227": -2.9598538875579834,
      "228": 0.4134330153465271,
      "229": -0.023593787103891373,
      "230": -4.558348655700684,
      "231": 3.885296583175659,
      "232": -7.2095112800598145,
      "233": 4.927571773529053,
      "234": 1.6188139915466309,
      "235": 0.18704824149608612,
      "236": 0.7982484698295593,
      "237": 4.000359535217285,
      "238": 4.928818702697754,
      "239": -0.6179373860359192,
      "240": -0.7547898888587952,
      "241": -0.47976499795913696,
      "242": -1.3843194246292114,
      "243": 1.60098397731781,
      "244": 2.424182891845703,
      "245": -4.625908851623535,
      "246": -2.418259620666504,
      "247": -2.9058001041412354,
      "248": -0.5112068057060242,
      "249": 0.09671754390001297,
      "250": 3.1528985500335693,
      "251": 0.43456995487213135,
      "252": 0.8037152290344238,
      "253": 1.787896990776062,
      "254": 3.448634147644043,
      "255": 2.061767578125,
      "256": -5.744154453277588,
      "257": 0.734573483467102,
      "258": 0.9092090725898743,
      "259": 0.5531708598136902,
      "260": 0.5226902961730957,
      "261": 1.6812618970870972,
      "262": -0.7478218078613281,
      "263": -1.574532151222229,
      "264": 3.2398386001586914,
      "265": 1.7659348249435425,
      "266": 8.122146606445312,
      "267": -2.808336019515991,
      "268": 0.04504865035414696,
      "269": -0.9708143472671509,
      "270": 1.8583958148956299,
      "271": 2.2026352882385254,
      "272": 4.692453384399414,
      "273": 4.727067470550537,
      "274": -0.8064016699790955,
      "275": 0.7723047733306885,
      "276": 2.403325080871582,
      "277": 1.2336008548736572,
      "278": -5.560686111450195,
      "279": -1.5463011264801025,
      "280": -4.667446136474609,
      "281": -3.436176061630249,
      "282": 0.338785320520401,
      "283": -1.2994462251663208,
      "284": 5.7229485511779785,
      "285": 1.9795750379562378,
      "286": 0.8769928812980652,
      "287": 2.192432403564453,
      "288": 2.431806802749634,
      "289": 0.3500523269176483,
      "290": 3.7357218265533447,
      "291": -2.1209216117858887,
      "292": 0.14264510571956635,
      "293": 1.2028024196624756,
      "294": 0.055200718343257904,
      "295": 0.5235556364059448,
      "296": 1.9206219911575317,
      "297": -1.0628846883773804,
      "298": 1.369461178779602,
      "299": -0.7187030911445618,
      "300": -1.2310465574264526,
      "301": 0.004278742242604494,
      "302": -0.4961090683937073,
      "303": -1.2252638339996338,
      "304": 1.7544920444488525,
      "305": 3.5184175968170166,
      "306": -0.2195703387260437,
      "307": -1.6267907619476318,
      "308": -1.3090708255767822,
      "309": 1.699676752090454,
      "310": 0.6475504636764526,
      "311": 0.1851862370967865,
      "312": -1.286061406135559,
      "313": 2.3635854721069336,
      "314": -0.6469740867614746,
      "315": -4.388312339782715,
      "316": -0.8745332360267639,
      "317": -0.5749907493591309,
      "318": 2.3010663986206055,
      "319": 4.022367477416992,
      "320": -2.707554340362549,
      "321": 1.0549044609069824,
      "322": -3.37286114692688,
      "323": -2.2415823936462402,
      "324": 2.2517383098602295,
      "325": 1.9591138362884521,
      "326": 1.2518322467803955,
      "327": -3.3125762939453125,
      "328": -1.991066813468933,
      "329": -0.7651869654655457,
      "330": 1.9478785991668701,
      "331": 1.2997585535049438,
      "332": 1.6847971677780151,
      "333": 2.7439053058624268,
      "334": 0.9772131443023682,
      "335": -0.5941497087478638,
      "336": 3.8016223907470703,
      "337": 1.6010702848434448,
      "338": -1.2731813192367554,
      "339": 0.8937872648239136,
      "340": -0.2891174256801605,
      "341": 1.116430640220642,
      "342": -1.3730697631835938,
      "343": -2.2051310539245605,
      "344": -1.6176280975341797,
      "345": 0.9689986109733582,
      "346": 1.836430549621582,
      "347": 1.1574015617370605,
      "348": 2.650547504425049,
      "349": 2.6214094161987305,
      "350": 1.233087420463562,
      "351": 1.0461845397949219,
      "352": -0.8100572824478149,
      "353": 0.3962591886520386,
      "354": 3.144073009490967,
      "355": 4.318212985992432,
      "356": -2.851468324661255,
      "357": -0.36257418990135193,
      "358": -0.5201742649078369,
      "359": 0.373390793800354,
      "360": -0.74477219581604,
      "361": -4.948434352874756,
      "362": 1.3941044807434082,
      "363": 1.9016354084014893,
      "364": -3.9609215259552,
      "365": 2.325085163116455,
      "366": 2.4696950912475586,
      "367": 2.659186363220215,
      "368": 0.7882765531539917,
      "369": 5.182175636291504,
      "370": -2.0474727153778076,
      "371": -2.7159831523895264,
      "372": -1.2249436378479004,
      "373": -1.8153313398361206,
      "374": 2.689608335494995,
      "375": 0.07450170814990997,
      "376": 1.4251891374588013,
      "377": 4.75770378112793,
      "378": 2.2338852882385254,
      "379": -6.674895763397217,
      "380": 4.353401184082031,
      "381": -1.8675251007080078,
      "382": 3.6913158893585205,
      "383": 2.5804502964019775,
      "384": 2.0853729248046875,
      "385": 1.5687873363494873,
      "386": -1.3449825048446655,
      "387": 1.689085602760315,
      "388": 2.6460490226745605,
      "389": 4.490274906158447,
      "390": 1.995631217956543,
      "391": 2.4996612071990967,
      "392": 0.09205809235572815,
      "393": 3.0057694911956787,
      "394": -0.6159940958023071,
      "395": 1.3514373302459717,
      "396": 2.264875888824463,
      "397": -0.9760556221008301,
      "398": -2.0061209201812744,
      "399": -0.4189717471599579,
      "400": -0.03531444072723389,
      "401": -1.435549259185791,
      "402": 0.08984686434268951,
      "403": 2.480329990386963,
      "404": -4.855800151824951,
      "405": 0.16834132373332977,
      "406": -3.1400058269500732,
      "407": 1.5569636821746826,
      "408": 2.7937114238739014,
      "409": -1.2981719970703125,
      "410": 1.6008520126342773,
      "411": 1.5508791208267212,
      "412": -0.8954730033874512,
      "413": -1.3523286581039429,
      "414": -0.7242240905761719,
      "415": -3.3004143238067627,
      "416": -1.0590049028396606,
      "417": -0.9625639319419861,
      "418": 0.10892290621995926,
      "419": -0.0849207267165184,
      "420": -2.9781744480133057,
      "421": -5.232922077178955,
      "422": -3.303227663040161,
      "423": -1.2292006015777588,
      "424": -0.40784046053886414,
      "425": -3.598389148712158,
      "426": -1.044406533241272,
      "427": -0.971025824546814,
      "428": -2.477616310119629,
      "429": 0.4802042245864868,
      "430": 0.7823294997215271,
      "431": -0.5820584893226624,
      "432": 0.38231390714645386,
      "433": -1.9852700233459473,
      "434": 0.0028452235274016857,
      "435": -3.3280866146087646,
      "436": 3.700124979019165,
      "437": 1.615583062171936,
      "438": 5.21694278717041,
      "439": 2.9480385780334473,
      "440": -1.7532709836959839,
      "441": 7.5871663093566895,
      "442": -2.2940354347229004,
      "443": -0.6766101717948914,
      "444": -4.590546131134033,
      "445": 0.40521493554115295,
      "446": -1.4774410724639893,
      "447": 2.562394142150879,
      "448": 3.0587496757507324,
      "449": -1.232354998588562,
      "450": 0.6602013111114502,
      "451": 3.037227153778076,
      "452": 2.975480794906616,
      "453": 3.4610283374786377,
      "454": -0.19464951753616333,
      "455": 6.253565788269043,
      "456": 0.9463850855827332,
      "457": 1.0549976825714111,
      "458": 3.79789662361145,
      "459": 5.729579448699951,
      "460": -0.6272175312042236,
      "461": 1.0182183980941772,
      "462": 5.957494735717773,
      "463": 0.434395968914032,
      "464": 3.5266730785369873,
      "465": 3.157809257507324,
      "466": 0.8890187740325928,
      "467": 2.5385444164276123,
      "468": -3.6760003566741943,
      "469": -3.8721988201141357,
      "470": -5.522299766540527,
      "471": -2.516660690307617,
      "472": 5.196547508239746,
      "473": -5.827450275421143,
      "474": 0.7059669494628906,
      "475": -4.074099540710449,
      "476": -1.5482515096664429,
      "477": -0.6705338954925537,
      "478": 1.482435941696167,
      "479": -2.0827250480651855,
      "480": 5.694674015045166,
      "481": -1.7662094831466675,
      "482": 0.08219986408948898,
      "483": 1.7452248334884644,
      "484": -0.09973067790269852,
      "485": 1.5645942687988281,
      "486": -0.9816499948501587,
      "487": -1.3358491659164429,
      "488": 1.5367885828018188,
      "489": 0.39541614055633545,
      "490": -1.3569000959396362,
      "491": 2.858550548553467,
      "492": 2.7116854190826416,
      "493": 0.9071089029312134,
      "494": 2.062199115753174,
      "495": 2.7884933948516846,
      "496": 0.29175621271133423,
      "497": -2.134286880493164,
      "498": -2.738163709640503,
      "499": 3.6519882678985596,
      "500": 1.798308253288269,
      "501": 0.2609557509422302,
      "502": -4.967653274536133,
      "503": -1.34717857837677,
      "504": -1.3818256855010986,
      "505": -2.259962797164917,
      "506": 0.4110134541988373,
      "507": 2.9982707500457764,
      "508": -0.12466488033533096,
      "509": -0.5135327577590942,
      "510": -1.1583192348480225,
      "511": -0.19065161049365997,
      "512": 1.0316342115402222,
      "513": -0.630840003490448,
      "514": 0.8300426006317139,
      "515": 0.12110310047864914,
      "516": -1.030107021331787,
      "517": 0.9219258427619934,
      "518": -0.2152220755815506,
      "519": 3.3670241832733154,
      "520": -4.0658392906188965,
      "521": 0.6387869119644165,
      "522": 1.9632834196090698,
      "523": -0.7150313854217529,
      "524": 0.7502014636993408,
      "525": -0.24460621178150177,
      "526": 1.3289930820465088,
      "527": -0.7213448882102966,
      "528": -1.7045799493789673,
      "529": -0.3585902452468872,
      "530": 0.9284746646881104,
      "531": -0.8555452227592468,
      "532": -0.15723086893558502,
      "533": -2.090358018875122,
      "534": -0.7643622756004333,
      "535": -1.7980427742004395,
      "536": 3.4742207527160645,
      "537": -1.587980031967163,
      "538": 1.084417700767517,
      "539": -0.5555299520492554,
      "540": 1.4411588907241821,
      "541": -0.629903256893158,
      "542": 0.929389238357544,
      "543": -2.6432249546051025,
      "544": -1.9902591705322266,
      "545": 0.05798390880227089,
      "546": -4.501376152038574,
      "547": -2.043259620666504,
      "548": 4.000127792358398,
      "549": -0.19415782392024994,
      "550": 5.241681098937988,
      "551": -2.132546901702881,
      "552": -2.2742536067962646,
      "553": -0.4334900379180908,
      "554": -0.3678107261657715,
      "555": 0.4198552966117859,
      "556": -0.3386738896369934,
      "557": 1.3733832836151123,
      "558": -0.011274888180196285,
      "559": -0.3360036015510559,
      "560": -0.1434992253780365,
      "561": 3.636443853378296,
      "562": 1.482824444770813,
      "563": 0.9838840961456299,
      "564": -5.238042831420898,
      "565": 2.9560022354125977,
      "566": -3.854802370071411,
      "567": 0.8338801264762878,
      "568": -2.5653398036956787,
      "569": 3.295325517654419,
      "570": 5.053579807281494,
      "571": 1.7733852863311768,
      "572": 3.4649477005004883,
      "573": 1.4243563413619995,
      "574": -4.7281975746154785,
      "575": 1.8905751705169678,
      "576": -3.9185638427734375,
      "577": -0.8063719868659973,
      "578": 1.5930123329162598,
      "579": 3.4161829948425293,
      "580": 3.1472489833831787,
      "581": 4.896759033203125,
      "582": 9.074576377868652,
      "583": 9.635154724121094,
      "584": -5.616514682769775,
      "585": 13.145316123962402,
      "586": 7.704232215881348,
      "587": 6.583868026733398,
      "588": 1.7074803113937378,
      "589": 2.034393310546875,
      "590": 1.878509759902954,
      "591": -5.810830593109131,
      "592": -6.573184967041016,
      "593": -2.0697567462921143,
      "594": 0.48114871978759766,
      "595": 10.94246768951416,
      "596": -8.642395973205566,
      "597": -3.974938154220581,
      "598": -1.2366406917572021,
      "599": 2.0322327613830566,
      "600": 8.389141082763672,
      "601": -9.889996528625488,
      "602": 1.3187451362609863,
      "603": 4.979005813598633,
      "604": 2.3507931232452393,
      "605": -5.344884872436523,
      "606": 0.8107364177703857,
      "607": -8.265100479125977,
      "608": -1.378441333770752,
      "609": 2.4337568283081055,
      "610": -2.282080888748169,
      "611": -2.258946418762207,
      "612": -3.0707685947418213,
      "613": 1.6610175371170044,
      "614": 1.888924241065979,
      "615": -7.115724086761475,
      "616": 4.634637832641602,
      "617": 3.2927823066711426,
      "618": 2.881492853164673,
      "619": -3.9898078441619873,
      "620": -0.8544415831565857,
      "621": -2.7688353061676025,
      "622": -2.5755679607391357,
      "623": -1.1983379125595093,
      "624": 3.911083936691284,
      "625": -2.1562516689300537,
      "626": -3.4240591526031494,
      "627": -1.6213546991348267,
      "628": -0.19145356118679047,
      "629": 5.810398578643799,
      "630": 2.5697898864746094,
      "631": -0.3073883354663849,
      "632": -2.0411150455474854,
      "633": 0.5097052454948425,
      "634": -2.8575332164764404,
      "635": 3.492924451828003,
      "636": 5.271686553955078,
      "637": -2.8432230949401855,
      "638": 0.2924339175224304,
      "639": 2.704244613647461,
      "640": 0.06691034883260727,
      "641": -5.237835884094238,
      "642": -3.406379461288452,
      "643": 1.3241239786148071,
      "644": -0.8812379837036133,
      "645": -0.7549225091934204,
      "646": -2.3438055515289307,
      "647": -1.544396162033081,
      "648": 1.096242904663086,
      "649": 0.2226281315088272,
      "650": -2.3149349689483643,
      "651": 5.164316654205322,
      "652": 2.316148519515991,
      "653": 0.7791637182235718,
      "654": 0.17080312967300415,
      "655": 0.8041915893554688,
      "656": -1.146330714225769,
      "657": 0.009488539770245552,
      "658": 0.3745696246623993,
      "659": 1.6100932359695435,
      "660": -0.7049823999404907,
      "661": 0.08176148682832718,
      "662": -2.858415365219116,
      "663": -0.35955536365509033,
      "664": -1.519087553024292,
      "665": -2.469344139099121,
      "666": 0.3896124064922333,
      "667": 0.8112276792526245,
      "668": 3.1874730587005615,
      "669": 0.3554859757423401,
      "670": -3.727097511291504,
      "671": -0.9136005640029907,
      "672": -0.19152718782424927,
      "673": -0.2261517196893692,
      "674": -1.2562052011489868,
      "675": 0.0075608291663229465,
      "676": -2.075604200363159,
      "677": -3.101698160171509,
      "678": 0.19227170944213867,
      "679": -2.822530746459961,
      "680": -1.0906041860580444,
      "681": 1.067811369895935,
      "682": -0.8982492089271545,
      "683": -0.10192360728979111,
      "684": -1.0424587726593018,
      "685": -0.6535307168960571,
      "686": -1.0265461206436157,
      "687": 0.496229350566864,
      "688": -3.112948417663574,
      "689": -3.2653069496154785,
      "690": 0.6755573153495789,
      "691": -1.3351926803588867,
      "692": 3.542729616165161,
      "693": 2.7508912086486816,
      "694": 0.4884961247444153,
      "695": 1.284938097000122,
      "696": -0.5455284118652344,
      "697": 0.9211084246635437,
      "698": -2.8787765502929688,
      "699": 3.6538186073303223,
      "700": -0.25347957015037537,
      "701": 1.377630352973938,
      "702": -2.2550816535949707,
      "703": 1.3168675899505615,
      "704": -0.7350752353668213,
      "705": 0.14486004412174225,
      "706": -0.1877015233039856,
      "707": -2.740283250808716,
      "708": -4.63368558883667,
      "709": -0.3830774128437042,
      "710": -3.6933541297912598,
      "711": -1.3829014301300049,
      "712": -0.7217987775802612,
      "713": 0.20436601340770721,
      "714": 0.30357012152671814,
      "715": -1.8145010471343994,
      "716": -1.5390890836715698,
      "717": 0.30016371607780457,
      "718": 1.7887020111083984,
      "719": 1.5550333261489868,
      "720": 1.1224403381347656,
      "721": -1.1418577432632446,
      "722": -0.5995588898658752,
      "723": 1.5479363203048706,
      "724": 4.032573223114014,
      "725": 0.37182876467704773,
      "726": 1.4077495336532593,
      "727": -1.4837943315505981,
      "728": 1.4529556035995483,
      "729": -2.2370502948760986,
      "730": -0.38191914558410645,
      "731": -0.6487824320793152,
      "732": -5.294762134552002,
      "733": 1.2630319595336914,
      "734": -0.1623738408088684,
      "735": 2.9592373371124268,
      "736": -2.7470273971557617,
      "737": 0.8427026271820068,
      "738": 2.7064316272735596,
      "739": 0.17614883184432983,
      "740": -4.226385593414307,
      "741": -1.8519325256347656,
      "742": -0.8879289031028748,
      "743": -0.30847710371017456,
      "744": -1.2644516229629517,
      "745": -1.1257203817367554,
      "746": 1.5824071168899536,
      "747": 1.3244186639785767,
      "748": 1.2109194993972778,
      "749": 1.1034382581710815,
      "750": 1.9135870933532715,
      "751": 0.18190380930900574,
      "752": -2.4509146213531494,
      "753": -2.9257941246032715,
      "754": 1.6259279251098633,
      "755": -2.580847978591919,
      "756": 1.235813856124878,
      "757": 0.5239565372467041,
      "758": 1.0277179479599,
      "759": -0.3806057572364807,
      "760": 1.2740285396575928,
      "761": 0.8934972882270813,
      "762": -0.928487241268158,
      "763": 0.5985704064369202,
      "764": -0.8322970271110535,
      "765": -1.89441978931427,
      "766": -1.1290744543075562,
      "767": 1.7852001190185547,
      "768": -3.5097877979278564,
      "769": -1.0310544967651367,
      "770": 6.498547077178955,
      "771": -1.7705376148223877,
      "772": 1.9796730279922485,
      "773": -12.105527877807617,
      "774": -0.156220942735672,
      "775": -6.096192359924316,
      "776": -11.273399353027344,
      "777": 0.1594555377960205,
      "778": 11.213380813598633,
      "779": 12.39086627960205,
      "780": 5.995049476623535,
      "781": 6.375326633453369,
      "782": -10.49260425567627,
      "783": 4.985390663146973,
      "784": -0.9544162154197693,
      "785": -6.675175189971924,
      "786": 3.6371426582336426,
      "787": -7.60103702545166,
      "788": 8.010112762451172,
      "789": -0.39003369212150574,
      "790": -1.9395841360092163,
      "791": -9.047710418701172,
      "792": 2.8665006160736084,
      "793": 8.513406753540039,
      "794": 0.8521511554718018,
      "795": 4.6661224365234375,
      "796": 6.258877277374268,
      "797": 6.934597015380859,
      "798": -9.377032279968262,
      "799": -4.210230350494385,
      "800": -5.56544828414917,
      "801": -9.666044235229492,
      "802": -12.158434867858887,
      "803": 11.480846405029297,
      "804": 0.5422907471656799,
      "805": -1.4031752347946167,
      "806": 0.45960870385169983,
      "807": 0.9112094640731812,
      "808": 2.0904457569122314,
      "809": 0.6980892419815063,
      "810": -3.214012384414673,
      "811": 5.640027046203613,
      "812": -5.539814472198486,
      "813": 1.3446885347366333,
      "814": 2.0159690380096436,
      "815": -0.5048317313194275,
      "816": 3.466008186340332,
      "817": 8.793517112731934,
      "818": -5.297664165496826,
      "819": 2.015272378921509,
      "820": 0.5411009788513184,
      "821": -1.9290904998779297,
      "822": -1.7388708591461182,
      "823": -12.754863739013672,
      "824": 5.4576005935668945,
      "825": 3.9841020107269287,
      "826": -1.25874924659729,
      "827": -6.751359462738037,
      "828": 7.766602993011475,
      "829": -3.3241562843322754,
      "830": 1.1561521291732788,
      "831": -2.7403600215911865,
      "832": -3.9993088245391846,
      "833": -0.6218488216400146,
      "834": 0.23873712122440338,
      "835": -1.2788145542144775,
      "836": -3.1016316413879395,
      "837": -3.0676605701446533,
      "838": 0.5801241993904114,
      "839": 3.746161699295044,
      "840": 0.7689402103424072,
      "841": 3.3335912227630615,
      "842": -2.6909916400909424,
      "843": -1.0575125217437744,
      "844": -1.1474974155426025,
      "845": -4.455331802368164,
      "846": 1.1833925247192383,
      "847": 2.2554948329925537,
      "848": -1.4248632192611694,
      "849": -2.937645435333252,
      "850": 3.4857559204101562,
      "851": -5.11538028717041,
      "852": 6.095870018005371,
      "853": -0.2561380863189697,
      "854": 5.744321346282959,
      "855": 1.1006293296813965,
      "856": 2.3794913291931152,
      "857": 3.337651491165161,
      "858": -3.2897720336914062,
      "859": -0.1375887393951416,
      "860": -0.044384703040122986,
      "861": 2.7493736743927,
      "862": -2.125652551651001,
      "863": 1.4952874183654785,
      "864": 12.891590118408203,
      "865": -7.883645534515381,
      "866": -0.6222311854362488,
      "867": 2.045421600341797,
      "868": 16.608551025390625,
      "869": 17.328857421875,
      "870": 11.669095039367676,
      "871": -2.950860023498535,
      "872": 0.20145189762115479,
      "873": 5.839603900909424,
      "874": -3.3735225200653076,
      "875": 0.4717696011066437,
      "876": 4.295207977294922,
      "877": 1.4645541906356812,
      "878": 3.031447410583496,
      "879": -3.2274889945983887,
      "880": 1.9328773021697998,
      "881": -1.2785545587539673,
      "882": -5.521203994750977,
      "883": 8.95018196105957,
      "884": -12.682698249816895,
      "885": 10.9498291015625,
      "886": 6.955718040466309,
      "887": -0.7324122190475464,
      "888": -8.16097640991211,
      "889": -8.168350219726562,
      "890": -3.159552574157715,
      "891": -5.138649940490723,
      "892": -4.371004581451416,
      "893": -4.704292297363281,
      "894": 5.429786205291748,
      "895": -1.7611185312271118,
      "896": -2.992260456085205,
      "897": 6.349552154541016,
      "898": 4.769890785217285,
      "899": 9.806266784667969,
      "900": -3.4501254558563232,
      "901": 1.9379444122314453,
      "902": -5.387076377868652,
      "903": 4.850204944610596,
      "904": -0.8662286400794983,
      "905": -3.4218668937683105,
      "906": -0.4884474575519562,
      "907": -5.0937604904174805,
      "908": 2.0512852668762207,
      "909": -1.2595161199569702,
      "910": 16.66338348388672,
      "911": -1.97097647190094,
      "912": -16.522762298583984,
      "913": 6.746735095977783,
      "914": 2.3344013690948486,
      "915": 0.8120302557945251,
      "916": -1.1993428468704224,
      "917": -5.109067916870117,
      "918": -2.4844484329223633,
      "919": 7.260472774505615,
      "920": 5.787325382232666,
      "921": -6.360296249389648,
      "922": -0.6455743908882141,
      "923": -18.99696922302246,
      "924": -14.155037879943848,
      "925": -13.366562843322754,
      "926": 10.958980560302734,
      "927": -5.031693935394287,
      "928": 7.931064128875732,
      "929": -2.183455228805542,
      "930": -10.295491218566895,
      "931": 10.34895133972168,
      "932": 2.575483798980713,
      "933": 1.110501766204834,
      "934": 9.419380187988281,
      "935": 6.737434387207031,
      "936": 2.4172520637512207,
      "937": 6.435479640960693,
      "938": -12.804948806762695,
      "939": 7.34952449798584,
      "940": 5.055793285369873,
      "941": -8.572067260742188,
      "942": -8.632401466369629,
      "943": 1.0675885677337646,
      "944": -0.5132132172584534,
      "945": -11.057557106018066,
      "946": 11.894219398498535,
      "947": 2.6163322925567627,
      "948": -6.194596767425537,
      "949": -4.934927463531494,
      "950": -6.298141956329346,
      "951": 13.77148151397705,
      "952": -9.804474830627441,
      "953": 0.607262909412384,
      "954": -0.06925047188997269,
      "955": 8.72944164276123,
      "956": 4.729905128479004,
      "957": -1.512911081314087,
      "958": -5.057894706726074,
      "959": 3.4896721839904785,
      "960": -1.2162290811538696,
      "961": -2.291934013366699,
      "962": -4.579583168029785,
      "963": -1.3326760530471802,
      "964": 1.6391443014144897,
      "965": -3.9385476112365723,
      "966": 2.233597755432129,
      "967": -3.5160748958587646,
      "968": 3.0890488624572754,
      "969": 1.7393485307693481,
      "970": -3.5779669284820557,
      "971": 3.6853504180908203,
      "972": 2.1653847694396973,
      "973": 0.2698664367198944,
      "974": -1.5805354118347168,
      "975": -2.563807964324951,
      "976": -1.911125659942627,
      "977": -0.44956713914871216,
      "978": 2.78344988822937,
      "979": 1.755361795425415,
      "980": -3.940765619277954,
      "981": 2.0583345890045166,
      "982": -0.1679345816373825,
      "983": 0.8513283729553223,
      "984": -2.1979928016662598,
      "985": 0.502274751663208,
      "986": 0.7139983773231506,
      "987": 1.9965593814849854,
      "988": -0.905202329158783,
      "989": -2.0616700649261475,
      "990": -3.4996275901794434,
      "991": -1.0736669301986694,
      "992": 3.026130199432373,
      "993": -1.379156231880188,
      "994": 0.9402231574058533,
      "995": 1.9807853698730469,
      "996": -0.8334474563598633,
      "997": -0.9806510806083679,
      "998": -3.41697096824646,
      "999": -0.17993132770061493,
      "1000": 1.4659086465835571,
      "1001": -1.3650496006011963,
      "1002": 2.8544580936431885,
      "1003": 0.5845217108726501,
      "1004": -1.1695287227630615,
      "1005": -1.6806645393371582,
      "1006": 0.15764230489730835,
      "1007": 0.20204265415668488,
      "1008": 3.442988157272339,
      "1009": 0.5064425468444824,
      "1010": -1.9476709365844727,
      "1011": -1.6695140600204468,
      "1012": 1.3694126605987549,
      "1013": 0.11625746637582779,
      "1014": -0.29219767451286316,
      "1015": -1.3078066110610962,
      "1016": -0.42351195216178894,
      "1017": 0.9213933348655701,
      "1018": 0.06929689645767212,
      "1019": -3.157780885696411,
      "1020": -0.4581504762172699,
      "1021": -2.343270778656006,
      "1022": 2.9942729473114014,
      "1023": 0.9828585386276245,
      "1024": 0.044698551297187805,
      "1025": 0.007002242375165224,
      "1026": 0.023236045613884926,
      "1027": 0.053299255669116974,
      "1028": -0.02896890416741371,
      "1029": -0.013486891053617,
      "1030": -0.05853407084941864,
      "1031": 0.01209660992026329,
      "1032": -0.019752956926822662,
      "1033": -0.057026784867048264,
      "1034": 0.006386216264218092,
      "1035": -0.06154613196849823,
      "1036": 0.015362363308668137,
      "1037": 0.05316717550158501,
      "1038": 0.045765362679958344,
      "1039": -0.0011706422083079815,
      "1040": 0.06035323441028595,
      "1041": 0.06282737851142883,
      "1042": 0.013325775973498821,
      "1043": -0.06227941811084747,
      "1044": 0.026040824130177498,
      "1045": 0.013633113354444504,
      "1046": -0.0037072477862238884,
      "1047": -0.014226854778826237,
      "1048": 0.008851468563079834,
      "1049": -0.023107171058654785,
      "1050": 0.01763147860765457,
      "1051": -0.01974807307124138,
      "1052": -0.03452317416667938,
      "1053": -0.028787529096007347,
      "1054": -0.014482652768492699,
      "1055": 0.036579594016075134
    }
  },
  "hiddenLayers": [
    {
      "inputMatrix": {
        "rows": 20,
        "columns": 32,
        "weights": {
          "0": -0.08261416107416153,
          "1": -1.348250389099121,
          "2": -0.3037360906600952,
          "3": 0.49944981932640076,
          "4": 1.45847749710083,
          "5": -1.0505467653274536,
          "6": 2.96858549118042,
          "7": -2.3370392322540283,
          "8": -1.1994761228561401,
          "9": -2.515340566635132,
          "10": -1.292088270187378,
          "11": 1.7143819332122803,
          "12": 0.3783409595489502,
          "13": 1.0738483667373657,
          "14": -1.4112975597381592,
          "15": -0.8081401586532593,
          "16": -2.1326489448547363,
          "17": 1.5800936222076416,
          "18": -1.133313775062561,
          "19": -0.3544944226741791,
          "20": -2.2822139263153076,
          "21": 2.8376729488372803,
          "22": 1.3368093967437744,
          "23": -1.5452182292938232,
          "24": -2.3209664821624756,
          "25": 3.1764535903930664,
          "26": -0.725207507610321,
          "27": 0.04233066365122795,
          "28": 0.9915400147438049,
          "29": -0.4484124481678009,
          "30": -0.6330532431602478,
          "31": 4.943627834320068,
          "32": -1.4849436283111572,
          "33": 0.9481639862060547,
          "34": -3.3918094635009766,
          "35": -2.0970065593719482,
          "36": 3.9927828311920166,
          "37": 3.3145411014556885,
          "38": 1.9826345443725586,
          "39": 0.7817725539207458,
          "40": 2.0877368450164795,
          "41": 1.4356220960617065,
          "42": 0.9588395357131958,
          "43": -2.0455949306488037,
          "44": 0.38625583052635193,
          "45": 0.02889615297317505,
          "46": -0.2727598249912262,
          "47": -2.5251572132110596,
          "48": 1.813600778579712,
          "49": 1.8231390714645386,
          "50": -0.02497304044663906,
          "51": 0.7592432498931885,
          "52": -2.9550249576568604,
          "53": 0.7289836406707764,
          "54": -0.19900792837142944,
          "55": 1.5222046375274658,
          "56": -0.13235731422901154,
          "57": -1.4179662466049194,
          "58": -0.3049432337284088,
          "59": -0.9177994132041931,
          "60": -1.7504702806472778,
          "61": -0.9827563166618347,
          "62": 1.0515583753585815,
          "63": 0.9063422679901123,
          "64": -0.6922886967658997,
          "65": 0.09464187920093536,
          "66": 1.2047984600067139,
          "67": 0.09772927314043045,
          "68": 0.3154662847518921,
          "69": 0.14603295922279358,
          "70": -0.7112394571304321,
          "71": 0.31786248087882996,
          "72": 1.551986575126648,
          "73": -0.8893471956253052,
          "74": 1.0331679582595825,
          "75": 0.11788783222436905,
          "76": 0.3130103647708893,
          "77": -0.3417624533176422,
          "78": 1.5304038524627686,
          "79": -0.18035835027694702,
          "80": 3.809112310409546,
          "81": 2.621699333190918,
          "82": -3.0805509090423584,
          "83": -0.143724724650383,
          "84": -0.12790991365909576,
          "85": 1.530943512916565,
          "86": 0.5896885991096497,
          "87": -2.21589994430542,
          "88": 0.09884808957576752,
          "89": -0.48210081458091736,
          "90": -0.8183322548866272,
          "91": -2.39227294921875,
          "92": 0.3416397273540497,
          "93": -1.49055016040802,
          "94": 2.2479422092437744,
          "95": 1.5892651081085205,
          "96": -1.0838192701339722,
          "97": 0.604753315448761,
          "98": -2.4797847270965576,
          "99": -1.5587235689163208,
          "100": 0.4631003439426422,
          "101": 0.6690224409103394,
          "102": 0.41679322719573975,
          "103": -5.210737228393555,
          "104": 0.2746240496635437,
          "105": -0.6595672369003296,
          "106": 0.9598156809806824,
          "107": -3.5695066452026367,
          "108": -2.0458791255950928,
          "109": 0.5357280373573303,
          "110": -1.1290156841278076,
          "111": -0.8124398589134216,
          "112": 0.6338603496551514,
          "113": 0.9669417142868042,
          "114": -1.6713656187057495,
          "115": 2.249724864959717,
          "116": 0.08761351555585861,
          "117": 1.9102904796600342,
          "118": 0.6739928722381592,
          "119": 2.165440797805786,
          "120": -5.4163079261779785,
          "121": 1.9698976278305054,
          "122": -0.5392355918884277,
          "123": 0.6170256733894348,
          "124": -0.7711892127990723,
          "125": 1.5836308002471924,
          "126": -0.43909066915512085,
          "127": 2.050161600112915,
          "128": -0.5068329572677612,
          "129": 4.646162986755371,
          "130": -0.3061283528804779,
          "131": -3.5494070053100586,
          "132": 1.0150597095489502,
          "133": 1.6110913753509521,
          "134": 1.2001498937606812,
          "135": -2.765622138977051,
          "136": 1.3665612936019897,
          "137": 0.5697296261787415,
          "138": 2.5371406078338623,
          "139": -2.115964412689209,
          "140": 0.4497273564338684,
          "141": -0.3365732431411743,
          "142": -2.4826743602752686,
          "143": 1.3792572021484375,
          "144": -0.2493075579404831,
          "145": 1.6449271440505981,
          "146": 0.1252589374780655,
          "147": 0.23807655274868011,
          "148": -0.6407274603843689,
          "149": 1.393979549407959,
          "150": 1.224780559539795,
          "151": 2.5293800830841064,
          "152": -4.008846759796143,
          "153": 1.1329734325408936,
          "154": -0.4926510155200958,
          "155": -0.5558221936225891,
          "156": 0.34067752957344055,
          "157": 4.151697635650635,
          "158": 0.45484238862991333,
          "159": 2.035525321960449,
          "160": -1.9365899562835693,
          "161": 3.350013494491577,
          "162": 0.41662049293518066,
          "163": -3.8327088356018066,
          "164": 0.12868399918079376,
          "165": -0.4475334882736206,
          "166": -1.3553866147994995,
          "167": -1.3736132383346558,
          "168": -0.05271948501467705,
          "169": -2.771956443786621,
          "170": 1.4111590385437012,
          "171": -0.1671108901500702,
          "172": -1.6110445261001587,
          "173": -0.07254200428724289,
          "174": -2.2861804962158203,
          "175": 2.075014352798462,
          "176": 1.995764970779419,
          "177": 1.861365795135498,
          "178": -0.07121624797582626,
          "179": -1.3078961372375488,
          "180": 1.680599570274353,
          "181": 1.7696459293365479,
          "182": -0.33327099680900574,
          "183": 0.18944071233272552,
          "184": -3.01713490486145,
          "185": 0.41634389758110046,
          "186": 1.1993365287780762,
          "187": -0.8713642358779907,
          "188": 1.224115014076233,
          "189": 1.9058345556259155,
          "190": 0.8421400785446167,
          "191": 3.080659866333008,
          "192": 0.5333085656166077,
          "193": -0.49935057759284973,
          "194": -0.9269897937774658,
          "195": 1.2770907878875732,
          "196": 1.8277071714401245,
          "197": 1.8017475605010986,
          "198": 0.0544903464615345,
          "199": -0.1249145120382309,
          "200": 1.240646243095398,
          "201": -4.962625503540039,
          "202": -1.851224422454834,
          "203": 1.255143642425537,
          "204": 0.8627702593803406,
          "205": -0.32338377833366394,
          "206": 1.4093579053878784,
          "207": 0.7409781813621521,
          "208": 1.476951003074646,
          "209": 4.781854629516602,
          "210": -1.723580241203308,
          "211": 0.2991107106208801,
          "212": 0.35506266355514526,
          "213": 0.7406789660453796,
          "214": -0.7804818749427795,
          "215": -1.4077372550964355,
          "216": -2.7485511302948,
          "217": -1.3110555410385132,
          "218": 0.5310452580451965,
          "219": -2.396806240081787,
          "220": 0.22519923746585846,
          "221": 0.2872392237186432,
          "222": -0.5621510148048401,
          "223": 1.055608868598938,
          "224": -2.4247243404388428,
          "225": -0.551457941532135,
          "226": 3.9704742431640625,
          "227": 1.5727384090423584,
          "228": -1.5564203262329102,
          "229": -2.889763593673706,
          "230": -2.8343238830566406,
          "231": 0.376112699508667,
          "232": 1.0527924299240112,
          "233": -0.020362459123134613,
          "234": 1.0728486776351929,
          "235": 0.6535777449607849,
          "236": -0.7663622498512268,
          "237": 1.1790106296539307,
          "238": 1.2442851066589355,
          "239": 3.3782827854156494,
          "240": 1.3935606479644775,
          "241": 1.0558019876480103,
          "242": 2.4038102626800537,
          "243": -1.6324477195739746,
          "244": 0.11388063430786133,
          "245": -0.3104042708873749,
          "246": 0.7520385980606079,
          "247": -2.0038044452667236,
          "248": 1.2393169403076172,
          "249": 1.5397526025772095,
          "250": -0.6118900775909424,
          "251": -1.419653058052063,
          "252": -0.7699391841888428,
          "253": 1.0014797449111938,
          "254": 0.6030759811401367,
          "255": -0.1274619996547699,
          "256": 0.6719092130661011,
          "257": 0.4222448766231537,
          "258": 1.7783154249191284,
          "259": -0.5036799907684326,
          "260": 0.6528615951538086,
          "261": 1.4651659727096558,
          "262": -0.560736894607544,
          "263": -0.15916559100151062,
          "264": 1.035676121711731,
          "265": -0.8971931338310242,
          "266": 1.9685535430908203,
          "267": 0.0016806113999336958,
          "268": -0.4088154435157776,
          "269": 1.5161283016204834,
          "270": 0.8664232492446899,
          "271": 1.7714264392852783,
          "272": 3.16105055809021,
          "273": 2.807504415512085,
          "274": -4.568451881408691,
          "275": 1.7805674076080322,
          "276": 0.7466875910758972,
          "277": 1.0366450548171997,
          "278": -0.7923075556755066,
          "279": -1.9171756505966187,
          "280": -0.9076695442199707,
          "281": -0.6562581062316895,
          "282": 0.21709449589252472,
          "283": 0.700356125831604,
          "284": 0.08404412865638733,
          "285": 2.1539533138275146,
          "286": 0.8764262199401855,
          "287": 2.659355878829956,
          "288": 5.064641952514648,
          "289": 2.8479650020599365,
          "290": 1.088240623474121,
          "291": 2.777125358581543,
          "292": 1.4489611387252808,
          "293": 2.293292760848999,
          "294": -0.38332709670066833,
          "295": 1.662786841392517,
          "296": 0.7576493620872498,
          "297": -1.4253430366516113,
          "298": -0.1675845831632614,
          "299": -1.4291713237762451,
          "300": -0.6374457478523254,
          "301": 0.173822283744812,
          "302": 0.8654112815856934,
          "303": -2.1162760257720947,
          "304": 0.6773070096969604,
          "305": -0.2660118341445923,
          "306": 0.6666094660758972,
          "307": 1.300070881843567,
          "308": -1.6107536554336548,
          "309": 0.551382839679718,
          "310": 0.9771198630332947,
          "311": 1.984544038772583,
          "312": 1.2479119300842285,
          "313": -0.9435703158378601,
          "314": 1.0029983520507812,
          "315": -0.9549228549003601,
          "316": -0.6057204008102417,
          "317": -2.295919179916382,
          "318": 0.8750324249267578,
          "319": -1.8613203763961792,
          "320": 1.927112340927124,
          "321": -1.507270097732544,
          "322": 1.626954197883606,
          "323": -2.0896453857421875,
          "324": -1.0985177755355835,
          "325": -1.5437910556793213,
          "326": -6.795245170593262,
          "327": -0.6007048487663269,
          "328": 2.4060230255126953,
          "329": -1.3966708183288574,
          "330": 1.889986515045166,
          "331": -0.15474143624305725,
          "332": 0.09805402904748917,
          "333": -0.19689644873142242,
          "334": 3.633620023727417,
          "335": -0.12565486133098602,
          "336": 0.35042598843574524,
          "337": 0.3478381931781769,
          "338": 1.2342020273208618,
          "339": 0.4802897274494171,
          "340": 0.5162897706031799,
          "341": -0.08435757458209991,
          "342": -1.80097234249115,
          "343": 0.39553892612457275,
          "344": -0.3723047077655792,
          "345": -0.46783632040023804,
          "346": -0.22894740104675293,
          "347": -1.5477800369262695,
          "348": 0.33397239446640015,
          "349": -0.7954344153404236,
          "350": -0.43965911865234375,
          "351": 1.5694581270217896,
          "352": -1.3867226839065552,
          "353": 1.5093293190002441,
          "354": 0.4948744475841522,
          "355": 1.5523399114608765,
          "356": 0.8000178337097168,
          "357": 0.04056287556886673,
          "358": -1.577540636062622,
          "359": -0.039793431758880615,
          "360": -2.286015748977661,
          "361": -0.3310844898223877,
          "362": 0.9233840703964233,
          "363": 3.559542417526245,
          "364": 3.5916428565979004,
          "365": 1.7339894771575928,
          "366": 1.0785245895385742,
          "367": -1.1899677515029907,
          "368": -3.7090423107147217,
          "369": -0.4406335651874542,
          "370": 0.7299738526344299,
          "371": 0.8207277655601501,
          "372": 0.27198439836502075,
          "373": -0.20931147038936615,
          "374": -3.3375329971313477,
          "375": -0.20228688418865204,
          "376": 2.1706528663635254,
          "377": -0.8018919825553894,
          "378": 3.0491716861724854,
          "379": 2.5350914001464844,
          "380": 0.9388127326965332,
          "381": -0.8892841339111328,
          "382": -0.9454915523529053,
          "383": -1.8071948289871216,
          "384": -2.7689368724823,
          "385": 0.3359183669090271,
          "386": -0.7560104727745056,
          "387": -0.9334490299224854,
          "388": 0.3578340709209442,
          "389": -2.4545013904571533,
          "390": 1.038053035736084,
          "391": -1.5588823556900024,
          "392": 0.009867186658084393,
          "393": 0.7003195285797119,
          "394": 0.6283845901489258,
          "395": 1.350416898727417,
          "396": 0.41850730776786804,
          "397": -0.6137941479682922,
          "398": -0.41754215955734253,
          "399": -0.2165854573249817,
          "400": -0.9097743034362793,
          "401": 0.5272619724273682,
          "402": 0.4735035300254822,
          "403": -0.8339946269989014,
          "404": -0.14296574890613556,
          "405": 3.1963729858398438,
          "406": -0.4047901928424835,
          "407": 1.556050419807434,
          "408": -1.5671957731246948,
          "409": 1.1660219430923462,
          "410": 0.46073779463768005,
          "411": 1.8893686532974243,
          "412": 1.3599013090133667,
          "413": 1.0139507055282593,
          "414": -2.714139699935913,
          "415": 2.9360103607177734,
          "416": -2.7695045471191406,
          "417": 0.7916826605796814,
          "418": 1.9324581623077393,
          "419": -1.1283320188522339,
          "420": -0.853644073009491,
          "421": 0.32472485303878784,
          "422": 1.9781337976455688,
          "423": 1.599204421043396,
          "424": 0.36211133003234863,
          "425": -0.07606901973485947,
          "426": -2.9857234954833984,
          "427": -0.1730847805738449,
          "428": -1.6806550025939941,
          "429": 1.9789451360702515,
          "430": -0.8910432457923889,
          "431": 1.4305390119552612,
          "432": -1.087133526802063,
          "433": 1.3199726343154907,
          "434": 0.33404862880706787,
          "435": 0.6807313561439514,
          "436": -0.5109394192695618,
          "437": 2.032236337661743,
          "438": 3.228222131729126,
          "439": -0.9631385207176208,
          "440": 0.6035985350608826,
          "441": 2.737473487854004,
          "442": -3.1597964763641357,
          "443": -2.6733005046844482,
          "444": -2.19315767288208,
          "445": -0.658073365688324,
          "446": 1.5854613780975342,
          "447": 3.154841899871826,
          "448": 1.9709450006484985,
          "449": 1.1199915409088135,
          "450": -1.8573694229125977,
          "451": -0.8757635951042175,
          "452": -0.008148746564984322,
          "453": 0.23388457298278809,
          "454": -0.7321997880935669,
          "455": -0.7138816118240356,
          "456": 2.7695891857147217,
          "457": 1.704175353050232,
          "458": -3.4289560317993164,
          "459": -0.34066659212112427,
          "460": -1.6323357820510864,
          "461": -3.2847020626068115,
          "462": -2.8292412757873535,
          "463": -0.2916962802410126,
          "464": -0.617626428604126,
          "465": -0.3080442547798157,
          "466": 0.2855237126350403,
          "467": 1.7787855863571167,
          "468": -2.3866093158721924,
          "469": 1.612282395362854,
          "470": 0.2522825002670288,
          "471": 5.250304698944092,
          "472": -1.3938359022140503,
          "473": 0.014719931408762932,
          "474": 0.545559287071228,
          "475": 3.437346935272217,
          "476": -2.6855108737945557,
          "477": 0.21921665966510773,
          "478": -3.6642560958862305,
          "479": -0.7181236147880554,
          "480": -1.4353469610214233,
          "481": 2.5117902755737305,
          "482": 1.881017804145813,
          "483": -1.4272112846374512,
          "484": 0.6655670404434204,
          "485": -1.26650071144104,
          "486": 0.7955607175827026,
          "487": 2.7642807960510254,
          "488": -1.375535249710083,
          "489": -2.5343494415283203,
          "490": -0.2970707416534424,
          "491": 0.9670597910881042,
          "492": -0.21548126637935638,
          "493": 0.6374796032905579,
          "494": -0.956819474697113,
          "495": -1.3368901014328003,
          "496": -1.4596325159072876,
          "497": 0.6262346506118774,
          "498": 3.435492753982544,
          "499": 0.133079394698143,
          "500": -2.043431282043457,
          "501": 0.8185045719146729,
          "502": 1.3950637578964233,
          "503": 2.1954658031463623,
          "504": -0.9113626480102539,
          "505": 3.301917791366577,
          "506": 1.1122770309448242,
          "507": -1.8358529806137085,
          "508": -1.4336649179458618,
          "509": -1.6107693910598755,
          "510": -1.259867787361145,
          "511": -0.28176912665367126,
          "512": 1.1737174987792969,
          "513": -3.233783006668091,
          "514": -1.054792881011963,
          "515": 1.18617844581604,
          "516": -1.1902170181274414,
          "517": -2.6501879692077637,
          "518": -1.6757460832595825,
          "519": -0.2934325933456421,
          "520": -0.8795586824417114,
          "521": 0.9294184446334839,
          "522": -2.9969866275787354,
          "523": -1.0794882774353027,
          "524": 1.529422640800476,
          "525": 1.3602367639541626,
          "526": 2.3447375297546387,
          "527": 0.06599588692188263,
          "528": -3.7504971027374268,
          "529": -1.4413456916809082,
          "530": -0.9394994378089905,
          "531": 0.7995793223381042,
          "532": 1.2924983501434326,
          "533": 0.6436192989349365,
          "534": 1.3168994188308716,
          "535": 2.1068530082702637,
          "536": 0.19032111763954163,
          "537": 0.4543030261993408,
          "538": 0.9729778170585632,
          "539": -0.18117505311965942,
          "540": -3.9672255516052246,
          "541": -2.4811949729919434,
          "542": 0.5434993505477905,
          "543": 1.4287348985671997,
          "544": 0.7866206765174866,
          "545": -1.3414570093154907,
          "546": 0.18448597192764282,
          "547": 0.2682828903198242,
          "548": 1.8488627672195435,
          "549": 1.4293837547302246,
          "550": 0.2897493839263916,
          "551": 1.4817860126495361,
          "552": 2.827357292175293,
          "553": -0.8535259366035461,
          "554": -1.1289267539978027,
          "555": 1.7369954586029053,
          "556": 0.6082533001899719,
          "557": 1.202063798904419,
          "558": 0.5738755464553833,
          "559": 0.6038258671760559,
          "560": 0.8595739603042603,
          "561": 1.8445079326629639,
          "562": -3.5393638610839844,
          "563": 1.1754448413848877,
          "564": -1.0026813745498657,
          "565": -1.855273962020874,
          "566": -0.5325260758399963,
          "567": -1.7371774911880493,
          "568": -0.30209216475486755,
          "569": -0.9897103905677795,
          "570": 0.6634795665740967,
          "571": -1.7186771631240845,
          "572": 1.0038756132125854,
          "573": 1.3342013359069824,
          "574": 2.4675662517547607,
          "575": 0.24067741632461548,
          "576": 2.0823872089385986,
          "577": -0.4726068675518036,
          "578": -0.2950584292411804,
          "579": 2.9851768016815186,
          "580": -2.5463361740112305,
          "581": 0.35692235827445984,
          "582": -0.6056057810783386,
          "583": -1.8053981065750122,
          "584": 0.3715100586414337,
          "585": -2.0103540420532227,
          "586": 0.07022401690483093,
          "587": -1.7593766450881958,
          "588": -2.77608060836792,
          "589": -1.4026435613632202,
          "590": 1.1960150003433228,
          "591": -1.7879282236099243,
          "592": -1.6192359924316406,
          "593": 0.6666281223297119,
          "594": 0.6083756685256958,
          "595": -2.2303030490875244,
          "596": -1.2317026853561401,
          "597": 1.7542160749435425,
          "598": 2.7289681434631348,
          "599": 1.8253003358840942,
          "600": -1.116101622581482,
          "601": 4.090140342712402,
          "602": -2.17193865776062,
          "603": -1.5447676181793213,
          "604": 0.851240336894989,
          "605": -2.848863124847412,
          "606": 2.2918412685394287,
          "607": 0.9964228868484497,
          "608": 0.9971473813056946,
          "609": -0.16438980400562286,
          "610": 0.7963288426399231,
          "611": 0.2521486282348633,
          "612": -1.9594630002975464,
          "613": -1.786814570426941,
          "614": -0.8899913430213928,
          "615": -0.553967297077179,
          "616": -0.34938642382621765,
          "617": -3.273538589477539,
          "618": 1.809201955795288,
          "619": -1.7175339460372925,
          "620": -2.695138931274414,
          "621": -2.6464602947235107,
          "622": 0.6958627700805664,
          "623": -0.48962411284446716,
          "624": -2.429042339324951,
          "625": -0.1712300181388855,
          "626": 0.5407131910324097,
          "627": -2.7261321544647217,
          "628": -1.195177674293518,
          "629": 2.0576765537261963,
          "630": 0.5436044931411743,
          "631": 2.244091033935547,
          "632": -0.9047561883926392,
          "633": 4.50624942779541,
          "634": -2.6761844158172607,
          "635": -1.2407766580581665,
          "636": -1.3311095237731934,
          "637": -2.634481906890869,
          "638": 0.4902174472808838,
          "639": 2.324145793914795
        }
      },
      "inputHidden": {
        "rows": 20,
        "columns": 20,
        "weights": {
          "0": 3.4316787719726562,
          "1": -2.327176809310913,
          "2": 0.11289702355861664,
          "3": -1.9094396829605103,
          "4": -4.927445411682129,
          "5": -4.346066951751709,
          "6": 0.3639906942844391,
          "7": -1.1551567316055298,
          "8": -0.2219856232404709,
          "9": -1.9406894445419312,
          "10": 1.8326295614242554,
          "11": -2.2409980297088623,
          "12": 1.2492257356643677,
          "13": -2.0533149242401123,
          "14": 3.2866311073303223,
          "15": 0.044959720224142075,
          "16": -4.3894782066345215,
          "17": -4.940396308898926,
          "18": -6.199687480926514,
          "19": 1.1015671491622925,
          "20": 1.4935475587844849,
          "21": 3.8055295944213867,
          "22": -0.8923047780990601,
          "23": -0.25242188572883606,
          "24": 1.0876179933547974,
          "25": 1.2235885858535767,
          "26": -0.22738584876060486,
          "27": 3.8361976146698,
          "28": 2.111459255218506,
          "29": -1.7149841785430908,
          "30": -3.281975746154785,
          "31": 4.277353286743164,
          "32": 3.1210575103759766,
          "33": -1.2008174657821655,
          "34": 0.4279892146587372,
          "35": -2.307586431503296,
          "36": 0.27995431423187256,
          "37": -4.224550247192383,
          "38": -0.7496371269226074,
          "39": 2.095531463623047,
          "40": 1.2038933038711548,
          "41": 1.2879383563995361,
          "42": 4.0093488693237305,
          "43": -1.6230199337005615,
          "44": 3.026590585708618,
          "45": 1.9455780982971191,
          "46": -1.907370686531067,
          "47": -0.5164310932159424,
          "48": 3.8665695190429688,
          "49": -0.5558486580848694,
          "50": 1.2376350164413452,
          "51": 1.7247133255004883,
          "52": 0.3458871841430664,
          "53": -1.925769329071045,
          "54": 0.7506232857704163,
          "55": 1.454859733581543,
          "56": -3.1365160942077637,
          "57": -0.012793469242751598,
          "58": 0.8845146894454956,
          "59": -0.2498551607131958,
          "60": -5.122274398803711,
          "61": -3.243783473968506,
          "62": -4.849343299865723,
          "63": -5.148909568786621,
          "64": -1.6149026155471802,
          "65": 2.096264362335205,
          "66": -2.292409658432007,
          "67": 2.313023090362549,
          "68": 1.9079053401947021,
          "69": 1.894426703453064,
          "70": -2.639099597930908,
          "71": -3.007422924041748,
          "72": -2.8285434246063232,
          "73": 1.1083368062973022,
          "74": 2.912288188934326,
          "75": 0.36168262362480164,
          "76": 2.894270181655884,
          "77": 1.2034223079681396,
          "78": 0.16411267220973969,
          "79": 0.4443439543247223,
          "80": 2.1397864818573,
          "81": -3.425889015197754,
          "82": 0.1004105806350708,
          "83": 2.016613483428955,
          "84": 6.064811706542969,
          "85": 0.8170773983001709,
          "86": -0.22349688410758972,
          "87": 4.317829132080078,
          "88": -0.09523537755012512,
          "89": -3.636030912399292,
          "90": -0.7255477905273438,
          "91": 4.9645233154296875,
          "92": -2.9725286960601807,
          "93": -1.9335253238677979,
          "94": -3.7740159034729004,
          "95": -3.2945077419281006,
          "96": -2.749451160430908,
          "97": 3.1852376461029053,
          "98": -0.47802820801734924,
          "99": 1.0164682865142822,
          "100": 3.4597182273864746,
          "101": -1.0909191370010376,
          "102": -0.8141425251960754,
          "103": 2.0637259483337402,
          "104": 0.5772705078125,
          "105": -2.976317882537842,
          "106": -1.774592638015747,
          "107": 4.401993274688721,
          "108": 0.8074179887771606,
          "109": 1.4122657775878906,
          "110": -3.2415378093719482,
          "111": 2.429941415786743,
          "112": -3.883777141571045,
          "113": -0.2536381483078003,
          "114": -0.08908693492412567,
          "115": -2.2603909969329834,
          "116": 2.281508207321167,
          "117": 2.4264214038848877,
          "118": 2.8503715991973877,
          "119": -1.3265012502670288,
          "120": 7.239232063293457,
          "121": 1.7206476926803589,
          "122": 1.4940146207809448,
          "123": -0.23991964757442474,
          "124": 0.4812885522842407,
          "125": -1.5589638948440552,
          "126": 1.015555500984192,
          "127": 0.4130691587924957,
          "128": -1.1828629970550537,
          "129": -0.8577689528465271,
          "130": -1.4687505960464478,
          "131": 1.5536682605743408,
          "132": -1.3491699695587158,
          "133": 0.5874114632606506,
          "134": -1.2585152387619019,
          "135": 0.10227122157812119,
          "136": 0.17534756660461426,
          "137": 2.405550956726074,
          "138": 0.8797318339347839,
          "139": -0.24921339750289917,
          "140": 3.808272361755371,
          "141": 2.612468719482422,
          "142": -0.5965641140937805,
          "143": 3.1442928314208984,
          "144": 0.39059484004974365,
          "145": -0.964450478553772,
          "146": -2.3635902404785156,
          "147": 2.8623149394989014,
          "148": -2.8097939491271973,
          "149": -1.8944480419158936,
          "150": -1.4688506126403809,
          "151": 2.9775350093841553,
          "152": -2.046171188354492,
          "153": 0.6336629390716553,
          "154": -0.14913561940193176,
          "155": 3.526247978210449,
          "156": 5.171141147613525,
          "157": -0.6668978929519653,
          "158": 3.633605480194092,
          "159": -0.014196905307471752,
          "160": -0.9312572479248047,
          "161": 0.24629883468151093,
          "162": -2.490065336227417,
          "163": 1.7068344354629517,
          "164": -0.8030654788017273,
          "165": 0.7373017072677612,
          "166": -1.2953071594238281,
          "167": -1.3331751823425293,
          "168": 3.7510998249053955,
          "169": -3.210329294204712,
          "170": -2.761868476867676,
          "171": 2.4924964904785156,
          "172": 3.487092971801758,
          "173": -0.3307146728038788,
          "174": 2.337446451187134,
          "175": -2.6185073852539062,
          "176": 0.8040659427642822,
          "177": 1.5812866687774658,
          "178": 2.1537632942199707,
          "179": 2.049461841583252,
          "180": -1.752309799194336,
          "181": 1.4206409454345703,
          "182": -1.5779180526733398,
          "183": 0.902933657169342,
          "184": -2.468247413635254,
          "185": 1.9389715194702148,
          "186": 0.7412141561508179,
          "187": 1.1028070449829102,
          "188": -1.8043718338012695,
          "189": 0.5054091215133667,
          "190": -1.7108733654022217,
          "191": 2.337879180908203,
          "192": -0.9948129057884216,
          "193": 1.5086052417755127,
          "194": -0.719697892665863,
          "195": 1.488774299621582,
          "196": -3.341212511062622,
          "197": 0.3531656265258789,
          "198": 1.7326644659042358,
          "199": -0.254050612449646,
          "200": 1.1896778345108032,
          "201": -2.6054954528808594,
          "202": 3.6301815509796143,
          "203": 2.4723634719848633,
          "204": 2.5361526012420654,
          "205": 6.081923007965088,
          "206": -1.5825579166412354,
          "207": 1.192554235458374,
          "208": 0.4015122056007385,
          "209": -2.4907009601593018,
          "210": -3.6861841678619385,
          "211": 0.8580269813537598,
          "212": -0.21608899533748627,
          "213": 2.437286615371704,
          "214": -2.2235774993896484,
          "215": 6.559133529663086,
          "216": 0.29586631059646606,
          "217": -2.1495285034179688,
          "218": 1.9797416925430298,
          "219": 0.47424259781837463,
          "220": -1.9927016496658325,
          "221": -1.0882316827774048,
          "222": 1.4368715286254883,
          "223": -2.620727777481079,
          "224": -0.7928939461708069,
          "225": 0.8200551271438599,
          "226": -0.8085129261016846,
          "227": -0.3037973642349243,
          "228": 1.9826514720916748,
          "229": 0.46905288100242615,
          "230": 0.9190287590026855,
          "231": -3.112985134124756,
          "232": 0.8720426559448242,
          "233": -1.98206627368927,
          "234": -1.0531870126724243,
          "235": 0.985375702381134,
          "236": -1.4710699319839478,
          "237": 0.7816128134727478,
          "238": -0.9277611970901489,
          "239": 0.14675123989582062,
          "240": -0.8944730162620544,
          "241": 0.5059677362442017,
          "242": -1.6122214794158936,
          "243": 2.055410385131836,
          "244": -0.4720795452594757,
          "245": 2.4641597270965576,
          "246": -1.5212818384170532,
          "247": 1.8868850469589233,
          "248": -0.09696348011493683,
          "249": -1.6515421867370605,
          "250": 0.5142346620559692,
          "251": -1.8885550498962402,
          "252": 0.5314111709594727,
          "253": 1.309783697128296,
          "254": 0.4419928789138794,
          "255": 2.9284286499023438,
          "256": 2.0364489555358887,
          "257": -2.261322498321533,
          "258": 0.6859331130981445,
          "259": 0.044982124119997025,
          "260": -3.9024741649627686,
          "261": 2.6033735275268555,
          "262": 1.9728431701660156,
          "263": -1.1248232126235962,
          "264": -4.134897232055664,
          "265": 2.2627646923065186,
          "266": 2.277968406677246,
          "267": 0.11843987554311752,
          "268": 1.325110673904419,
          "269": 2.0348153114318848,
          "270": -0.530835747718811,
          "271": -3.216688394546509,
          "272": 0.18158698081970215,
          "273": 3.0420942306518555,
          "274": 1.2116549015045166,
          "275": 2.0113258361816406,
          "276": -1.0224305391311646,
          "277": -1.437519907951355,
          "278": -0.33459389209747314,
          "279": 1.045438528060913,
          "280": 3.690359354019165,
          "281": 1.5752040147781372,
          "282": 0.4690858721733093,
          "283": -2.095726728439331,
          "284": -1.1540926694869995,
          "285": -0.7476568222045898,
          "286": -0.3877906799316406,
          "287": 0.7105092406272888,
          "288": 4.8034844398498535,
          "289": 2.0828940868377686,
          "290": -5.502707481384277,
          "291": -0.5015963315963745,
          "292": -1.1203588247299194,
          "293": 0.1881808489561081,
          "294": -0.8120313286781311,
          "295": -1.8299657106399536,
          "296": 0.5309630036354065,
          "297": 2.3434314727783203,
          "298": 0.5269203782081604,
          "299": -1.0991780757904053,
          "300": 1.6853437423706055,
          "301": -2.4859066009521484,
          "302": 1.271490454673767,
          "303": -0.12285798788070679,
          "304": -0.09623577445745468,
          "305": 1.5841749906539917,
          "306": -1.081512689590454,
          "307": 0.8366461396217346,
          "308": 3.306257963180542,
          "309": -1.4250174760818481,
          "310": 0.44684210419654846,
          "311": -0.03313290700316429,
          "312": -0.9942131638526917,
          "313": 1.0002458095550537,
          "314": 1.0697401762008667,
          "315": 1.8247467279434204,
          "316": 1.1468751430511475,
          "317": 1.4270678758621216,
          "318": 2.425783395767212,
          "319": 0.4917326867580414,
          "320": -2.1680116653442383,
          "321": -0.8232336044311523,
          "322": 0.9449771046638489,
          "323": 1.252169132232666,
          "324": -0.913530707359314,
          "325": -2.8307583332061768,
          "326": 0.647350549697876,
          "327": 2.2745256423950195,
          "328": 1.1846082210540771,
          "329": 0.08708253502845764,
          "330": 0.15549533069133759,
          "331": -0.15045948326587677,
          "332": -0.2589930593967438,
          "333": -0.1423822045326233,
          "334": 2.201871871948242,
          "335": 1.1398557424545288,
          "336": -0.21431437134742737,
          "337": 1.4088138341903687,
          "338": 0.2745518386363983,
          "339": -0.6686902642250061,
          "340": -3.3875973224639893,
          "341": -2.058239698410034,
          "342": -0.15155063569545746,
          "343": -0.19780296087265015,
          "344": -1.185717225074768,
          "345": 1.8203247785568237,
          "346": 0.5829592347145081,
          "347": 0.2964167892932892,
          "348": 1.7946710586547852,
          "349": 3.2744247913360596,
          "350": -2.696779251098633,
          "351": -0.19671577215194702,
          "352": -0.7931584119796753,
          "353": 0.771055281162262,
          "354": 0.3261992335319519,
          "355": -0.8157447576522827,
          "356": 1.3300734758377075,
          "357": -2.3598437309265137,
          "358": 2.9235305786132812,
          "359": -0.09004172682762146,
          "360": -2.228578567504883,
          "361": -0.8407293558120728,
          "362": -0.07921282202005386,
          "363": 0.10251126438379288,
          "364": 1.7567192316055298,
          "365": 0.034017905592918396,
          "366": -0.1908797025680542,
          "367": 1.3728742599487305,
          "368": 0.10024315118789673,
          "369": 0.46145758032798767,
          "370": -0.27137383818626404,
          "371": 1.7675703763961792,
          "372": 0.9918062686920166,
          "373": -3.0332987308502197,
          "374": -1.3841135501861572,
          "375": -1.3921529054641724,
          "376": 2.227560043334961,
          "377": 0.5817993879318237,
          "378": 1.2005196809768677,
          "379": -0.6779714226722717,
          "380": -0.5475557446479797,
          "381": -2.2460854053497314,
          "382": 0.60654217004776,
          "383": 2.362783432006836,
          "384": -2.8219566345214844,
          "385": -1.4962667226791382,
          "386": 0.5640727281570435,
          "387": 2.3988564014434814,
          "388": -0.9809772372245789,
          "389": 2.2811591625213623,
          "390": 0.06753986328840256,
          "391": -0.5841830968856812,
          "392": 0.49128642678260803,
          "393": -0.8093679547309875,
          "394": -0.7598403692245483,
          "395": 1.6140929460525513,
          "396": 1.6149399280548096,
          "397": -0.37655410170555115,
          "398": 1.5250858068466187,
          "399": -0.75068199634552
        }
      },
      "inputBias": {
        "rows": 20,
        "columns": 1,
        "weights": {
          "0": -1.8524222373962402,
          "1": -1.6153903007507324,
          "2": -1.6468415260314941,
          "3": -1.4507426023483276,
          "4": 0.2573402225971222,
          "5": -1.2426942586898804,
          "6": -0.35877135396003723,
          "7": 0.0750519186258316,
          "8": -0.9380559921264648,
          "9": -0.19033536314964294,
          "10": -1.587361216545105,
          "11": 0.77944016456604,
          "12": -1.7238974571228027,
          "13": -0.1411760002374649,
          "14": -0.4911654591560364,
          "15": -0.9659375548362732,
          "16": -0.7215291261672974,
          "17": -0.02247988060116768,
          "18": -0.61077481508255,
          "19": 0.23055009543895721
        }
      },
      "forgetMatrix": {
        "rows": 20,
        "columns": 32,
        "weights": {
          "0": 0.34923091530799866,
          "1": -0.2426755577325821,
          "2": -0.19466422498226166,
          "3": -0.8702042102813721,
          "4": 0.13503487408161163,
          "5": -3.7261276245117188,
          "6": -2.435687780380249,
          "7": -1.1945009231567383,
          "8": 0.11792100220918655,
          "9": 0.518164873123169,
          "10": -0.2524898052215576,
          "11": 1.811872124671936,
          "12": 1.9023860692977905,
          "13": 0.10203202813863754,
          "14": -0.19775675237178802,
          "15": 0.6128301024436951,
          "16": 2.0421111583709717,
          "17": -1.2191334962844849,
          "18": -0.22871838510036469,
          "19": -1.2363286018371582,
          "20": 1.5634396076202393,
          "21": 1.158821702003479,
          "22": -2.0999979972839355,
          "23": -1.6304212808609009,
          "24": -1.3171336650848389,
          "25": 0.8985828757286072,
          "26": 2.0560972690582275,
          "27": 1.4454448223114014,
          "28": 1.3591221570968628,
          "29": 0.5790024995803833,
          "30": -0.7905124425888062,
          "31": 0.9163244366645813,
          "32": -0.2697511911392212,
          "33": -0.9199564456939697,
          "34": 0.819340169429779,
          "35": 1.6550562381744385,
          "36": -0.675556480884552,
          "37": -1.4161032438278198,
          "38": -2.778559446334839,
          "39": -1.0120174884796143,
          "40": 1.890690565109253,
          "41": -0.4942092299461365,
          "42": -1.334818959236145,
          "43": -0.24419225752353668,
          "44": 0.49965256452560425,
          "45": -0.8909986019134521,
          "46": -1.6207199096679688,
          "47": 2.222978115081787,
          "48": 2.4505727291107178,
          "49": -0.7465552091598511,
          "50": -1.2944103479385376,
          "51": -2.232485771179199,
          "52": 3.1490776538848877,
          "53": 2.2053680419921875,
          "54": -0.6113597750663757,
          "55": -0.590210497379303,
          "56": 0.5742871761322021,
          "57": -2.180661201477051,
          "58": -2.630434513092041,
          "59": 0.4790346920490265,
          "60": 0.7911165952682495,
          "61": 0.33490294218063354,
          "62": -2.849961280822754,
          "63": -1.8183269500732422,
          "64": -0.357698529958725,
          "65": -2.00117826461792,
          "66": -2.1048691272735596,
          "67": -3.419600486755371,
          "68": -0.05928221717476845,
          "69": -0.4281972050666809,
          "70": -0.25159481167793274,
          "71": -0.20715318620204926,
          "72": -4.562145709991455,
          "73": -0.8376091718673706,
          "74": -2.5847065448760986,
          "75": 0.9229862093925476,
          "76": 0.9130589365959167,
          "77": -0.04716377332806587,
          "78": 1.0274587869644165,
          "79": -1.6881433725357056,
          "80": -0.24610179662704468,
          "81": -0.6338775753974915,
          "82": 1.5634709596633911,
          "83": -0.3055642247200012,
          "84": 2.423710346221924,
          "85": 2.7049713134765625,
          "86": -2.122969150543213,
          "87": -0.07122351974248886,
          "88": -1.5736541748046875,
          "89": 0.3280859887599945,
          "90": -0.7505587339401245,
          "91": 2.777048349380493,
          "92": -0.8667416572570801,
          "93": 1.207657814025879,
          "94": -1.1362215280532837,
          "95": 1.9185857772827148,
          "96": -2.250429630279541,
          "97": 0.2660124897956848,
          "98": -0.839604377746582,
          "99": 2.1148693561553955,
          "100": -2.0997538566589355,
          "101": -0.6874558925628662,
          "102": -1.5517828464508057,
          "103": 0.28767505288124084,
          "104": -2.3808822631835938,
          "105": -1.608479380607605,
          "106": -0.9176524877548218,
          "107": -1.03975248336792,
          "108": -0.37152913212776184,
          "109": -1.699979543685913,
          "110": 0.3234758973121643,
          "111": -1.066051721572876,
          "112": -1.5157396793365479,
          "113": 0.2531232535839081,
          "114": -0.7155771255493164,
          "115": -1.2865718603134155,
          "116": 1.8596298694610596,
          "117": -1.206229329109192,
          "118": 1.2366598844528198,
          "119": 0.08531356602907181,
          "120": -0.08540929108858109,
          "121": 1.0380823612213135,
          "122": -0.9788578748703003,
          "123": -2.5020244121551514,
          "124": -1.3556421995162964,
          "125": 1.4248284101486206,
          "126": 1.2730472087860107,
          "127": 2.260079860687256,
          "128": -2.7168471813201904,
          "129": 0.8825494647026062,
          "130": -1.53384530544281,
          "131": 0.7949714064598083,
          "132": 0.49408793449401855,
          "133": 1.1792161464691162,
          "134": 0.8215281963348389,
          "135": -0.1993710994720459,
          "136": -2.254490852355957,
          "137": 0.31575703620910645,
          "138": 0.247910276055336,
          "139": 2.029884099960327,
          "140": 1.378330111503601,
          "141": 1.3331507444381714,
          "142": 0.9941186904907227,
          "143": -0.7064862847328186,
          "144": -3.1826729774475098,
          "145": -0.07701493799686432,
          "146": 0.46626219153404236,
          "147": 1.5229343175888062,
          "148": -0.3349791467189789,
          "149": 0.35457104444503784,
          "150": -5.926151275634766,
          "151": 0.8905235528945923,
          "152": -0.08716470003128052,
          "153": -0.439822793006897,
          "154": 2.901749849319458,
          "155": 1.0498056411743164,
          "156": 1.8473875522613525,
          "157": -1.1915041208267212,
          "158": -0.28086528182029724,
          "159": 0.1830424815416336,
          "160": -0.7208299040794373,
          "161": 3.122189521789551,
          "162": 0.9561806321144104,
          "163": -0.8465582728385925,
          "164": -0.06481016427278519,
          "165": 0.5943343043327332,
          "166": 2.7640163898468018,
          "167": 0.8288189172744751,
          "168": 0.370851069688797,
          "169": -1.9834647178649902,
          "170": -0.8634147047996521,
          "171": -2.5333151817321777,
          "172": -3.0251502990722656,
          "173": 0.08586160093545914,
          "174": 0.5243309736251831,
          "175": 0.659346342086792,
          "176": -0.5894468426704407,
          "177": 2.546204090118408,
          "178": -1.4222190380096436,
          "179": 0.01583676226437092,
          "180": -0.2945294976234436,
          "181": 0.28534722328186035,
          "182": 2.915705442428589,
          "183": 0.9149425625801086,
          "184": -0.7603034973144531,
          "185": 2.8073933124542236,
          "186": -1.5046751499176025,
          "187": -1.02643620967865,
          "188": -1.7262194156646729,
          "189": 1.395452857017517,
          "190": 1.2195769548416138,
          "191": 2.4665310382843018,
          "192": 2.175119638442993,
          "193": -0.11317408084869385,
          "194": 2.5535812377929688,
          "195": -1.1249327659606934,
          "196": -0.16752155125141144,
          "197": -0.6169818639755249,
          "198": 1.4654619693756104,
          "199": 0.5861337184906006,
          "200": 1.7526181936264038,
          "201": -0.30482017993927,
          "202": 0.7548248767852783,
          "203": 0.4421798586845398,
          "204": -3.2394180297851562,
          "205": -1.3730864524841309,
          "206": -0.43318411707878113,
          "207": 1.5421630144119263,
          "208": 1.1231939792633057,
          "209": -0.988806426525116,
          "210": -0.05222785845398903,
          "211": -1.6315404176712036,
          "212": -0.8147829174995422,
          "213": 1.9666810035705566,
          "214": 3.940269708633423,
          "215": -1.9583210945129395,
          "216": -0.6907418966293335,
          "217": 1.8167345523834229,
          "218": -2.2634682655334473,
          "219": -1.4046841859817505,
          "220": -1.224066138267517,
          "221": 0.4598052203655243,
          "222": 1.6912213563919067,
          "223": 2.0464913845062256,
          "224": 5.977245807647705,
          "225": -2.42738938331604,
          "226": 1.410435438156128,
          "227": -3.287689685821533,
          "228": 2.964541435241699,
          "229": 0.6607292294502258,
          "230": 0.21497377753257751,
          "231": 1.1449801921844482,
          "232": 1.1074719429016113,
          "233": 2.5256459712982178,
          "234": 0.6119677424430847,
          "235": 1.8934898376464844,
          "236": 0.2302119880914688,
          "237": 0.36498746275901794,
          "238": -2.5886635780334473,
          "239": -1.6075385808944702,
          "240": 1.8331443071365356,
          "241": -0.9257381558418274,
          "242": 0.9012009501457214,
          "243": 0.8179633617401123,
          "244": -2.8993427753448486,
          "245": -1.4528427124023438,
          "246": 1.7892651557922363,
          "247": 1.678184151649475,
          "248": -0.5737702250480652,
          "249": -1.5210188627243042,
          "250": -3.030165195465088,
          "251": 2.0909197330474854,
          "252": -1.4315317869186401,
          "253": 0.05520382151007652,
          "254": 0.25957217812538147,
          "255": -0.45900264382362366,
          "256": 1.1593573093414307,
          "257": 1.3543440103530884,
          "258": 0.14440196752548218,
          "259": -0.36062172055244446,
          "260": 2.490114450454712,
          "261": 2.6005213260650635,
          "262": 0.5549889802932739,
          "263": -1.4126819372177124,
          "264": 3.412362575531006,
          "265": -2.20146107673645,
          "266": -0.5301678776741028,
          "267": 1.5787817239761353,
          "268": -0.23526057600975037,
          "269": -0.0873972699046135,
          "270": 0.9957679510116577,
          "271": -0.5116651654243469,
          "272": 2.279336452484131,
          "273": 2.5559797286987305,
          "274": -3.0841000080108643,
          "275": 1.364553451538086,
          "276": -0.16595102846622467,
          "277": -0.4553981423377991,
          "278": 0.6366733908653259,
          "279": -0.005375166889280081,
          "280": -0.3636406362056732,
          "281": -1.6084004640579224,
          "282": 1.1784849166870117,
          "283": -1.6911486387252808,
          "284": -1.2326725721359253,
          "285": 0.6272577047348022,
          "286": 3.077742576599121,
          "287": 1.463112711906433,
          "288": -4.053250312805176,
          "289": -0.5757865309715271,
          "290": -0.44024887681007385,
          "291": 0.3875926733016968,
          "292": 1.8193109035491943,
          "293": 1.5392745733261108,
          "294": 2.697628974914551,
          "295": -1.9026987552642822,
          "296": 1.8445355892181396,
          "297": 1.2643067836761475,
          "298": 0.19190041720867157,
          "299": 1.500177025794983,
          "300": 1.3339818716049194,
          "301": 0.7147896885871887,
          "302": -1.3200688362121582,
          "303": 3.8721630573272705,
          "304": 1.5588374137878418,
          "305": 0.8653139472007751,
          "306": 0.5408324003219604,
          "307": 2.0969810485839844,
          "308": -1.3590333461761475,
          "309": 1.0514775514602661,
          "310": -1.5557763576507568,
          "311": -0.44350188970565796,
          "312": -2.37776517868042,
          "313": -0.9614777565002441,
          "314": -0.7554043531417847,
          "315": 2.4618418216705322,
          "316": 4.031408309936523,
          "317": -0.19716641306877136,
          "318": -1.2118074893951416,
          "319": 1.8233484029769897,
          "320": 0.8482874631881714,
          "321": 1.2089184522628784,
          "322": 0.9697309136390686,
          "323": 2.2500782012939453,
          "324": -0.4239359200000763,
          "325": 2.978193759918213,
          "326": 0.3836561441421509,
          "327": 3.7042503356933594,
          "328": 2.375331163406372,
          "329": -0.5520166158676147,
          "330": 2.5251388549804688,
          "331": -0.6290091276168823,
          "332": -1.7562174797058105,
          "333": -0.22136957943439484,
          "334": 0.456888884305954,
          "335": -1.1536434888839722,
          "336": 0.3380683660507202,
          "337": 1.5731310844421387,
          "338": -0.09191956371068954,
          "339": 1.5656641721725464,
          "340": 0.5549899935722351,
          "341": -3.5384724140167236,
          "342": 1.033941626548767,
          "343": 0.8810714483261108,
          "344": 1.8653697967529297,
          "345": 0.4167625308036804,
          "346": -0.4049668610095978,
          "347": -2.8334076404571533,
          "348": -0.10554216802120209,
          "349": -0.7572617530822754,
          "350": 3.1459875106811523,
          "351": -1.1957166194915771,
          "352": 0.9896983504295349,
          "353": -1.572115182876587,
          "354": 2.0545237064361572,
          "355": 0.21978028118610382,
          "356": 0.7279624342918396,
          "357": 1.1587659120559692,
          "358": 0.27482685446739197,
          "359": 2.737522840499878,
          "360": 1.1776520013809204,
          "361": -0.6184319853782654,
          "362": -0.11965171992778778,
          "363": 2.759641170501709,
          "364": 0.5243917107582092,
          "365": 0.9116946458816528,
          "366": 0.5260276794433594,
          "367": -2.184380054473877,
          "368": 1.4320036172866821,
          "369": 0.783061146736145,
          "370": -0.1745925098657608,
          "371": 2.2458548545837402,
          "372": -2.409611940383911,
          "373": -1.8197742700576782,
          "374": -0.8382453918457031,
          "375": -3.440261125564575,
          "376": -0.6745831966400146,
          "377": -1.4344085454940796,
          "378": 0.6710035800933838,
          "379": -0.7764695882797241,
          "380": 0.5275309681892395,
          "381": -1.7874187231063843,
          "382": 0.6206492781639099,
          "383": -1.1429316997528076,
          "384": 1.272594928741455,
          "385": 1.0500271320343018,
          "386": 0.8050965666770935,
          "387": 0.985048770904541,
          "388": -0.3671274483203888,
          "389": 0.6936326026916504,
          "390": -0.08981510251760483,
          "391": -0.09935350716114044,
          "392": 1.6076281070709229,
          "393": 0.06371897459030151,
          "394": -0.14624691009521484,
          "395": -2.6387665271759033,
          "396": -2.275502920150757,
          "397": -1.6877518892288208,
          "398": -2.0613436698913574,
          "399": 1.565070390701294,
          "400": 0.8584873676300049,
          "401": 2.1985561847686768,
          "402": -1.1717054843902588,
          "403": -1.4065440893173218,
          "404": -1.191483974456787,
          "405": -2.1710758209228516,
          "406": 1.928555965423584,
          "407": 0.628435492515564,
          "408": -1.7477813959121704,
          "409": -0.2660856246948242,
          "410": -1.3810263872146606,
          "411": -1.2418310642242432,
          "412": -0.22637209296226501,
          "413": 1.39158296585083,
          "414": 2.5839169025421143,
          "415": -0.9627723097801208,
          "416": 2.493452310562134,
          "417": 0.7938851118087769,
          "418": 0.5925935506820679,
          "419": -1.350547194480896,
          "420": 0.9622350931167603,
          "421": 1.2428330183029175,
          "422": -1.9820278882980347,
          "423": -0.614307165145874,
          "424": -1.7093985080718994,
          "425": -1.2240015268325806,
          "426": 0.8679550886154175,
          "427": 1.862560510635376,
          "428": 1.2260931730270386,
          "429": 1.7525444030761719,
          "430": 2.6088528633117676,
          "431": -2.5660557746887207,
          "432": -2.4436779022216797,
          "433": -1.2480273246765137,
          "434": -0.8492239117622375,
          "435": -0.012460408732295036,
          "436": -1.4132192134857178,
          "437": 2.6745662689208984,
          "438": 0.3176794946193695,
          "439": 1.7863719463348389,
          "440": 2.326618194580078,
          "441": 0.21986114978790283,
          "442": 1.8275562524795532,
          "443": 0.19320112466812134,
          "444": -2.359208106994629,
          "445": -4.060163497924805,
          "446": 1.6938039064407349,
          "447": 0.8461982607841492,
          "448": 1.5429021120071411,
          "449": -1.2175487279891968,
          "450": -1.652321457862854,
          "451": 0.4543529450893402,
          "452": 2.5977959632873535,
          "453": 0.9359544515609741,
          "454": -0.295876681804657,
          "455": -0.010310791432857513,
          "456": -1.469604730606079,
          "457": -0.9216994643211365,
          "458": 0.13554786145687103,
          "459": -0.622596263885498,
          "460": 1.7844908237457275,
          "461": 0.98545241355896,
          "462": 2.7909328937530518,
          "463": -2.2726657390594482,
          "464": -0.45837852358818054,
          "465": 0.00585144804790616,
          "466": -0.20738358795642853,
          "467": 1.6270389556884766,
          "468": -2.339829683303833,
          "469": 0.208242267370224,
          "470": -1.0045957565307617,
          "471": -1.4126152992248535,
          "472": -0.5532345175743103,
          "473": -0.6659210920333862,
          "474": 2.8289966583251953,
          "475": -0.17673565447330475,
          "476": 0.6867846846580505,
          "477": 0.6370847225189209,
          "478": 0.0026788790710270405,
          "479": 0.760194718837738,
          "480": -0.27086833119392395,
          "481": 2.039379358291626,
          "482": 1.1891635656356812,
          "483": 1.1825275421142578,
          "484": -0.2234739363193512,
          "485": -0.780187726020813,
          "486": 2.041545867919922,
          "487": 0.49191543459892273,
          "488": -1.1931719779968262,
          "489": 4.382846355438232,
          "490": -0.18579275906085968,
          "491": -0.19481073319911957,
          "492": -1.4010895490646362,
          "493": -0.34296655654907227,
          "494": -2.1002938747406006,
          "495": 0.621634840965271,
          "496": -1.7039042711257935,
          "497": -1.7803758382797241,
          "498": 2.6060431003570557,
          "499": -0.5949720144271851,
          "500": -0.4590040445327759,
          "501": -2.1586191654205322,
          "502": 2.815049409866333,
          "503": 1.4097105264663696,
          "504": -0.49060025811195374,
          "505": 1.52731192111969,
          "506": -0.2471536248922348,
          "507": 3.2956748008728027,
          "508": 0.15016429126262665,
          "509": -0.9725265502929688,
          "510": -0.9447957277297974,
          "511": -0.4538406431674957,
          "512": 0.46034032106399536,
          "513": -0.79434734582901,
          "514": -2.9172675609588623,
          "515": -0.22914659976959229,
          "516": 1.2058591842651367,
          "517": -0.026358284056186676,
          "518": 1.3020652532577515,
          "519": -1.741829514503479,
          "520": 1.49275541305542,
          "521": 0.654017984867096,
          "522": -2.6099696159362793,
          "523": 1.5132492780685425,
          "524": 0.10004870593547821,
          "525": 0.8619479537010193,
          "526": -0.8397630453109741,
          "527": -0.8349081873893738,
          "528": 0.4219053387641907,
          "529": -1.751217246055603,
          "530": 0.059970881789922714,
          "531": 0.2586674392223358,
          "532": -2.2489051818847656,
          "533": 1.7661632299423218,
          "534": -0.39009809494018555,
          "535": 0.45994940400123596,
          "536": -0.24585016071796417,
          "537": -1.9652587175369263,
          "538": -0.17434634268283844,
          "539": 1.6135979890823364,
          "540": 1.5005948543548584,
          "541": -0.11453144997358322,
          "542": -0.45838379859924316,
          "543": -0.5979310870170593,
          "544": 2.2449538707733154,
          "545": -0.4112112522125244,
          "546": -0.5291399955749512,
          "547": -1.0036803483963013,
          "548": 1.871405005455017,
          "549": 2.7782485485076904,
          "550": -0.23896187543869019,
          "551": 2.36549711227417,
          "552": -1.4707194566726685,
          "553": 0.6613515019416809,
          "554": -0.1075756847858429,
          "555": -1.8491662740707397,
          "556": 0.9491634964942932,
          "557": -0.5862287282943726,
          "558": -1.3402115106582642,
          "559": -1.4021083116531372,
          "560": -2.706254243850708,
          "561": 1.2798370122909546,
          "562": -0.053590599447488785,
          "563": 1.3290600776672363,
          "564": -1.0338969230651855,
          "565": 0.5906097888946533,
          "566": 1.7387144565582275,
          "567": 1.9665861129760742,
          "568": 0.9575562477111816,
          "569": -0.9970367550849915,
          "570": -1.1354066133499146,
          "571": -1.0603599548339844,
          "572": -2.6997900009155273,
          "573": -0.588168740272522,
          "574": 1.3557733297348022,
          "575": 0.15975430607795715,
          "576": 1.84871244430542,
          "577": 0.3011060655117035,
          "578": -1.2389410734176636,
          "579": 0.26099762320518494,
          "580": -2.242379665374756,
          "581": 2.2560243606567383,
          "582": 0.42459118366241455,
          "583": -1.9701095819473267,
          "584": 0.5647700428962708,
          "585": 0.2511148452758789,
          "586": 0.13565976917743683,
          "587": -3.4611566066741943,
          "588": -4.047527313232422,
          "589": -0.13823267817497253,
          "590": -1.4737650156021118,
          "591": 1.9846410751342773,
          "592": -0.19434623420238495,
          "593": 0.8406096696853638,
          "594": -1.7576452493667603,
          "595": -0.17026811838150024,
          "596": 0.41392725706100464,
          "597": 1.3992795944213867,
          "598": 2.5923736095428467,
          "599": 1.333073377609253,
          "600": -1.976987600326538,
          "601": -1.0761536359786987,
          "602": -1.7264314889907837,
          "603": -2.1620683670043945,
          "604": -2.12442684173584,
          "605": 1.9604723453521729,
          "606": 1.0435758829116821,
          "607": 0.4651702344417572,
