{
  "type": "LSTM",
  "options": {
    "inputSize": 29,
    "inputRange": 29,
    "hiddenLayers": [
      20,
      20
    ],
    "outputSize": 29,
    "decayRate": 0.999,
    "smoothEps": 1e-8,
    "regc": 0.000001,
    "clipval": 5,
    "maxPredictionLength": 100,
    "dataFormatter": {
      "values": [
        "I swapped the memory",
        "I tested the databse",
        "code",
        "compueter engineering",
        "drive",
        "he is nice",
        "it needs more memory",
        "power supply",
        "she is playing",
        "software engineering",
        "they added a new RAM",
        "you found some bugs in the code",
        "you type"
      ],
      "indexTable": {
        "I": 0,
        " ": 1,
        "s": 2,
        "w": 3,
        "a": 4,
        "p": 5,
        "e": 6,
        "d": 7,
        "t": 8,
        "h": 9,
        "m": 10,
        "o": 11,
        "r": 12,
        "y": 13,
        "b": 14,
        "c": 15,
        "u": 16,
        "n": 17,
        "g": 18,
        "i": 19,
        "v": 20,
        "l": 21,
        "f": 22,
        "R": 23,
        "A": 24,
        "M": 25,
        "stop-input": 26,
        "start-output": 27,
        "unrecognized": 28
      },
      "characterTable": {
        "0": "I",
        "1": " ",
        "2": "s",
        "3": "w",
        "4": "a",
        "5": "p",
        "6": "e",
        "7": "d",
        "8": "t",
        "9": "h",
        "10": "m",
        "11": "o",
        "12": "r",
        "13": "y",
        "14": "b",
        "15": "c",
        "16": "u",
        "17": "n",
        "18": "g",
        "19": "i",
        "20": "v",
        "21": "l",
        "22": "f",
        "23": "R",
        "24": "A",
        "25": "M",
        "26": null,
        "27": null,
        "28": null
      },
      "characters": [
        "I",
        " ",
        "s",
        "w",
        "a",
        "p",
        "e",
        "d",
        "t",
        "h",
        "m",
        "o",
        "r",
        "y",
        "b",
        "c",
        "u",
        "n",
        "g",
        "i",
        "v",
        "l",
        "f",
        "R",
        "A",
        "M",
        "stop-input",
        "start-output",
        "unrecognized"
      ],
      "specialIndexes": [
        26,
        27,
        28
      ]
    }
  },
  "input": {
    "rows": 30,
    "columns": 29,
    "weights": {
      "0": 0.7735896110534668,
      "1": -0.21279822289943695,
      "2": -1.5911445617675781,
      "3": 1.1291662454605103,
      "4": 0.992699384689331,
      "5": 0.36334148049354553,
      "6": -1.5568054914474487,
      "7": -0.6554795503616333,
      "8": 1.8932257890701294,
      "9": 1.0724172592163086,
      "10": -1.2926498651504517,
      "11": -1.888249158859253,
      "12": 1.158190369606018,
      "13": 1.069513201713562,
      "14": 1.2217129468917847,
      "15": 0.6152164340019226,
      "16": 1.2993189096450806,
      "17": -1.4687036275863647,
      "18": -0.7782321572303772,
      "19": -0.021802634000778198,
      "20": 0.5940913558006287,
      "21": 0.25984665751457214,
      "22": 1.1829496622085571,
      "23": -0.4733281135559082,
      "24": -1.0103082656860352,
      "25": 0.3291107714176178,
      "26": 2.0986111164093018,
      "27": 0.4415718913078308,
      "28": 2.114341974258423,
      "29": -0.08468340337276459,
      "30": -2.249267816543579,
      "31": 1.7320340871810913,
      "32": 0.826942503452301,
      "33": -1.9883170127868652,
      "34": -0.7845929861068726,
      "35": -2.5070431232452393,
      "36": 1.070254921913147,
      "37": -0.6163939833641052,
      "38": -0.6976032257080078,
      "39": 0.7115288972854614,
      "40": -5.217087268829346,
      "41": 3.0159571170806885,
      "42": 8.233518600463867,
      "43": 1.7577954530715942,
      "44": -0.9399631023406982,
      "45": 2.153839349746704,
      "46": 0.5808359384536743,
      "47": 1.0667088031768799,
      "48": 6.068482398986816,
      "49": -4.800605297088623,
      "50": -1.0037970542907715,
      "51": -1.0972411632537842,
      "52": 0.40208470821380615,
      "53": -5.663207530975342,
      "54": -3.4567549228668213,
      "55": -1.588426113128662,
      "56": 3.2619595527648926,
      "57": -4.669431686401367,
      "58": -1.2551945447921753,
      "59": -0.015898259356617928,
      "60": 0.6452190279960632,
      "61": 0.3391592800617218,
      "62": 0.6883150339126587,
      "63": -1.1682265996932983,
      "64": -0.4406893849372864,
      "65": -0.36007896065711975,
      "66": -0.16830474138259888,
      "67": -0.2990902364253998,
      "68": 0.2174658328294754,
      "69": 0.06654532253742218,
      "70": -1.4524561166763306,
      "71": 1.3841301202774048,
      "72": 1.6804242134094238,
      "73": -0.4777795374393463,
      "74": 1.5843662023544312,
      "75": 0.3338179886341095,
      "76": -0.11486367881298065,
      "77": 1.0743824243545532,
      "78": 0.5588130354881287,
      "79": -0.3708232045173645,
      "80": -1.8102693557739258,
      "81": 1.3587855100631714,
      "82": -0.8528815507888794,
      "83": 0.05832010507583618,
      "84": -0.6995548009872437,
      "85": 0.6485793590545654,
      "86": -0.13328535854816437,
      "87": -0.6164981722831726,
      "88": 3.1031134128570557,
      "89": -0.20760685205459595,
      "90": 0.628861129283905,
      "91": 0.319064199924469,
      "92": 1.6843305826187134,
      "93": -0.3834618926048279,
      "94": -0.16802673041820526,
      "95": -0.7994757294654846,
      "96": -1.6185234785079956,
      "97": -1.2683303356170654,
      "98": -2.8793065547943115,
      "99": 1.5339586734771729,
      "100": 0.31844136118888855,
      "101": -0.38436421751976013,
      "102": 0.7643347382545471,
      "103": 1.088369607925415,
      "104": 0.8111215233802795,
      "105": 0.9273809194564819,
      "106": -0.373746782541275,
      "107": 0.7049703598022461,
      "108": 1.3819328546524048,
      "109": 0.7748093008995056,
      "110": -0.6694053411483765,
      "111": 0.6759418249130249,
      "112": -0.7638031840324402,
      "113": 3.2613673210144043,
      "114": -0.3583603799343109,
      "115": -0.6407567858695984,
      "116": -0.18892110884189606,
      "117": -1.750499963760376,
      "118": 4.705098628997803,
      "119": -3.260796546936035,
      "120": -0.1727316677570343,
      "121": 1.8885037899017334,
      "122": -1.5078389644622803,
      "123": 3.893894672393799,
      "124": 0.6452099084854126,
      "125": -0.9268394112586975,
      "126": -0.29712793231010437,
      "127": -3.047027349472046,
      "128": 0.3393757939338684,
      "129": -1.007421851158142,
      "130": 0.48066163063049316,
      "131": -1.445191740989685,
      "132": 2.1568198204040527,
      "133": 1.3368357419967651,
      "134": -1.7544231414794922,
      "135": -1.9898172616958618,
      "136": 0.7353067994117737,
      "137": 1.8636345863342285,
      "138": 2.005948781967163,
      "139": 1.374717116355896,
      "140": 1.2362226247787476,
      "141": 1.0949205160140991,
      "142": -0.4840155839920044,
      "143": -1.0200213193893433,
      "144": 2.1549997329711914,
      "145": -0.10521392524242401,
      "146": -1.8149566650390625,
      "147": 2.3580408096313477,
      "148": 1.0046194791793823,
      "149": -2.1992533206939697,
      "150": -0.36969438195228577,
      "151": -3.09844970703125,
      "152": -1.4502308368682861,
      "153": -1.78128182888031,
      "154": -0.7121537923812866,
      "155": 3.3988003730773926,
      "156": -0.7228645086288452,
      "157": -2.1485769748687744,
      "158": 1.236049771308899,
      "159": 2.7444233894348145,
      "160": -1.3987728357315063,
      "161": 1.6326110363006592,
      "162": 0.09310425072908401,
      "163": -0.6139559149742126,
      "164": 0.12572500109672546,
      "165": 1.419571042060852,
      "166": 0.4089072048664093,
      "167": -0.4161037504673004,
      "168": 1.8472397327423096,
      "169": -0.9801585674285889,
      "170": 0.5128753185272217,
      "171": -1.05049467086792,
      "172": 1.4112577438354492,
      "173": -0.6626178622245789,
      "174": 0.8519728779792786,
      "175": -0.9964954257011414,
      "176": -0.8166869282722473,
      "177": -0.07423762232065201,
      "178": 2.2277660369873047,
      "179": 0.5447089076042175,
      "180": -0.6897873878479004,
      "181": 0.8512769341468811,
      "182": 0.9977477192878723,
      "183": -0.883578896522522,
      "184": 1.0171937942504883,
      "185": 0.4918992519378662,
      "186": -2.845374822616577,
      "187": -2.8542113304138184,
      "188": 2.791839361190796,
      "189": -1.7239775657653809,
      "190": -0.043954893946647644,
      "191": -0.6027016639709473,
      "192": -2.054616689682007,
      "193": -1.431195855140686,
      "194": 3.0902414321899414,
      "195": 0.27131035923957825,
      "196": 0.26419949531555176,
      "197": 2.403512716293335,
      "198": 2.262058973312378,
      "199": -0.1593230813741684,
      "200": -1.8575934171676636,
      "201": -0.7839974164962769,
      "202": 1.226361632347107,
      "203": 1.336804747581482,
      "204": 1.643908977508545,
      "205": 0.14720599353313446,
      "206": -1.0519070625305176,
      "207": 0.7924548387527466,
      "208": -0.6790076494216919,
      "209": 1.1920303106307983,
      "210": -0.10074254870414734,
      "211": -0.4681999087333679,
      "212": 1.1864593029022217,
      "213": -2.403674364089966,
      "214": 1.7162542343139648,
      "215": 1.9425872564315796,
      "216": -1.2214275598526,
      "217": -2.528749704360962,
      "218": 0.7377941012382507,
      "219": -1.7050001621246338,
      "220": 0.3160359561443329,
      "221": 0.11159323900938034,
      "222": -1.6463019847869873,
      "223": -0.36796003580093384,
      "224": -1.3086999654769897,
      "225": -0.2786051332950592,
      "226": 0.10353298485279083,
      "227": 0.75913405418396,
      "228": -0.1235523670911789,
      "229": 0.011278090998530388,
      "230": -0.19218261539936066,
      "231": 0.7240303754806519,
      "232": 1.7408294677734375,
      "233": 1.6552760601043701,
      "234": -1.2148325443267822,
      "235": 1.736893892288208,
      "236": 0.9606921672821045,
      "237": 0.6047427654266357,
      "238": -1.4209821224212646,
      "239": -0.28796181082725525,
      "240": 2.3064873218536377,
      "241": -1.8869494199752808,
      "242": -1.8680882453918457,
      "243": -3.1677422523498535,
      "244": 2.922222375869751,
      "245": -2.04500150680542,
      "246": 0.6280748248100281,
      "247": 2.3428335189819336,
      "248": 2.1634862422943115,
      "249": -0.4731016457080841,
      "250": 0.9098477363586426,
      "251": 1.6832340955734253,
      "252": 0.8684237003326416,
      "253": 1.1476150751113892,
      "254": -0.10919085144996643,
      "255": 1.3903082609176636,
      "256": -0.3207554519176483,
      "257": -0.2115943282842636,
      "258": 0.5585736632347107,
      "259": -2.1051716804504395,
      "260": -0.543711245059967,
      "261": 0.9933143258094788,
      "262": -1.0446312427520752,
      "263": 1.7866050004959106,
      "264": -0.46212515234947205,
      "265": 0.4136824905872345,
      "266": 0.002175283618271351,
      "267": -3.0408191680908203,
      "268": 0.8117579221725464,
      "269": 0.7829753756523132,
      "270": -0.14573602378368378,
      "271": -0.4295622706413269,
      "272": -2.744521141052246,
      "273": 0.276991605758667,
      "274": -0.09577246755361557,
      "275": 2.347371816635132,
      "276": -0.09136232733726501,
      "277": 2.7750470638275146,
      "278": 0.1403590887784958,
      "279": -1.5683228969573975,
      "280": 1.7684966325759888,
      "281": 1.036240816116333,
      "282": -0.3587585985660553,
      "283": -0.23607754707336426,
      "284": 1.3323572874069214,
      "285": -0.4598178565502167,
      "286": -0.04807491973042488,
      "287": -0.9467244744300842,
      "288": -0.6921072006225586,
      "289": 0.3856736719608307,
      "290": 2.996436834335327,
      "291": -1.5559756755828857,
      "292": 1.9658634662628174,
      "293": -1.2936676740646362,
      "294": -1.4130662679672241,
      "295": -0.3010745048522949,
      "296": -0.42184701561927795,
      "297": 2.009819507598877,
      "298": 0.8012085556983948,
      "299": 4.475366115570068,
      "300": 0.9351835250854492,
      "301": 3.101976156234741,
      "302": 1.6039061546325684,
      "303": 0.8203179836273193,
      "304": 1.1246510744094849,
      "305": 1.992432951927185,
      "306": -1.702282428741455,
      "307": -4.6291890144348145,
      "308": -4.121295928955078,
      "309": 1.2282369136810303,
      "310": -0.3463178277015686,
      "311": -0.31095650792121887,
      "312": -2.8551464080810547,
      "313": -0.06699568033218384,
      "314": -1.4626520872116089,
      "315": -1.0531775951385498,
      "316": 1.5707308053970337,
      "317": 3.1251931190490723,
      "318": 1.8228610754013062,
      "319": -2.336268901824951,
      "320": 2.590012550354004,
      "321": -1.0561333894729614,
      "322": 1.2809903621673584,
      "323": 2.457984209060669,
      "324": -3.086108446121216,
      "325": 1.4530144929885864,
      "326": -1.4883909225463867,
      "327": 0.2681610882282257,
      "328": 0.3098883032798767,
      "329": -0.6400512456893921,
      "330": 0.39594173431396484,
      "331": -2.2155847549438477,
      "332": 0.8323608040809631,
      "333": -1.3818057775497437,
      "334": 0.322855681180954,
      "335": 2.052879571914673,
      "336": -0.46165531873703003,
      "337": 2.738600015640259,
      "338": 2.335754156112671,
      "339": -1.3851686716079712,
      "340": -3.5678489208221436,
      "341": -2.653898239135742,
      "342": -2.346763849258423,
      "343": -1.1803683042526245,
      "344": -3.3166563510894775,
      "345": -0.5837633609771729,
      "346": -0.2713615894317627,
      "347": -5.04211950302124,
      "348": -1.4631174802780151,
      "349": -0.3651309311389923,
      "350": -0.22830964624881744,
      "351": -0.2276303470134735,
      "352": 0.2844977378845215,
      "353": 0.5151665806770325,
      "354": 0.5107532143592834,
      "355": -0.19296273589134216,
      "356": 0.42774537205696106,
      "357": -0.5471751689910889,
      "358": 0.04367528855800629,
      "359": -0.9058995246887207,
      "360": -0.9128034710884094,
      "361": -0.2585911154747009,
      "362": -0.014631656929850578,
      "363": -0.18422697484493256,
      "364": 0.23522178828716278,
      "365": 1.2246428728103638,
      "366": -0.4817698895931244,
      "367": -0.8641769289970398,
      "368": -0.3551212549209595,
      "369": 0.31748703122138977,
      "370": 2.770880699157715,
      "371": -0.7868837714195251,
      "372": 0.7215824127197266,
      "373": 2.0268356800079346,
      "374": 0.30571553111076355,
      "375": -2.213034152984619,
      "376": 1.6542143821716309,
      "377": 0.14299798011779785,
      "378": 0.2658887207508087,
      "379": 2.9875125885009766,
      "380": 0.025515398010611534,
      "381": 0.23408456146717072,
      "382": 0.9112505316734314,
      "383": -2.032240152359009,
      "384": 2.435598134994507,
      "385": 0.600025475025177,
      "386": -1.9645354747772217,
      "387": 1.1981228590011597,
      "388": -0.5987445116043091,
      "389": -0.5900267958641052,
      "390": 0.8021586537361145,
      "391": 1.500054955482483,
      "392": -0.16052597761154175,
      "393": 2.7886555194854736,
      "394": -0.33143097162246704,
      "395": 0.21588200330734253,
      "396": 1.6784621477127075,
      "397": 2.1756768226623535,
      "398": 1.1705505847930908,
      "399": -1.419667363166809,
      "400": 1.533458948135376,
      "401": -0.7384267449378967,
      "402": 0.32318148016929626,
      "403": 0.6402990818023682,
      "404": 0.45781904458999634,
      "405": -0.15132470428943634,
      "406": -0.17695344984531403,
      "407": 1.8741341829299927,
      "408": -0.05716787651181221,
      "409": -1.4742207527160645,
      "410": 2.1979598999023438,
      "411": 0.024233778938651085,
      "412": 0.10380114614963531,
      "413": 0.31590181589126587,
      "414": -0.5306668281555176,
      "415": -0.41638684272766113,
      "416": -4.624906063079834,
      "417": 1.035614252090454,
      "418": 2.246981382369995,
      "419": -0.36712104082107544,
      "420": -1.7294830083847046,
      "421": 0.7165157794952393,
      "422": -2.397022247314453,
      "423": 0.6612780094146729,
      "424": 1.0580697059631348,
      "425": -1.8146008253097534,
      "426": -0.8431705832481384,
      "427": -0.6809839606285095,
      "428": 1.6697736978530884,
      "429": -0.6453061699867249,
      "430": 1.144589900970459,
      "431": -0.23999927937984467,
      "432": 3.6501290798187256,
      "433": -0.42435261607170105,
      "434": 0.7057453393936157,
      "435": -0.1108497753739357,
      "436": -4.998305320739746,
      "437": 4.563446521759033,
      "438": -0.8354687690734863,
      "439": 1.341234803199768,
      "440": 1.6786586046218872,
      "441": -3.6934356689453125,
      "442": -0.8171910047531128,
      "443": 1.5324268341064453,
      "444": -2.2035679817199707,
      "445": 2.2435302734375,
      "446": -0.7880933880805969,
      "447": -2.198484420776367,
      "448": -0.9616986513137817,
      "449": 4.750711441040039,
      "450": -4.086782932281494,
      "451": 0.3974435031414032,
      "452": 2.4305453300476074,
      "453": -3.582646131515503,
      "454": -4.514056205749512,
      "455": 1.1975849866867065,
      "456": 0.8068507313728333,
      "457": 2.483144998550415,
      "458": 4.832611083984375,
      "459": -0.2506459951400757,
      "460": 4.066736698150635,
      "461": -3.61860728263855,
      "462": -4.383780479431152,
      "463": 5.746779441833496,
      "464": -1.3441214561462402,
      "465": -1.4211632013320923,
      "466": 1.5045274496078491,
      "467": -0.6751495599746704,
      "468": 1.19947350025177,
      "469": -0.5068256258964539,
      "470": -0.11617732048034668,
      "471": 1.9628300666809082,
      "472": 2.3852016925811768,
      "473": -1.0761419534683228,
      "474": 4.586799144744873,
      "475": 1.9285968542099,
      "476": -0.014561602845788002,
      "477": -1.0824646949768066,
      "478": 2.448002338409424,
      "479": -1.0991694927215576,
      "480": -0.5535180568695068,
      "481": 1.612072229385376,
      "482": -0.13418006896972656,
      "483": -1.4389866590499878,
      "484": -0.6912394165992737,
      "485": -0.7869744896888733,
      "486": 0.8981021642684937,
      "487": 1.612534999847412,
      "488": 1.5567600727081299,
      "489": 1.7981094121932983,
      "490": -1.7366399765014648,
      "491": -3.5990214347839355,
      "492": 3.629585027694702,
      "493": 0.01221892237663269,
      "494": 0.6300875544548035,
      "495": 1.02213454246521,
      "496": 0.5238276720046997,
      "497": 1.0180672407150269,
      "498": -0.9293639063835144,
      "499": -1.0510574579238892,
      "500": -0.1308179646730423,
      "501": 1.841965913772583,
      "502": 0.1027403324842453,
      "503": -1.151071548461914,
      "504": -2.782700538635254,
      "505": 0.15451592206954956,
      "506": -0.17287106812000275,
      "507": 3.192502737045288,
      "508": -0.2893444895744324,
      "509": 3.406925678253174,
      "510": 0.6287840604782104,
      "511": -0.08503706753253937,
      "512": 1.8145036697387695,
      "513": 2.528243064880371,
      "514": 0.0047819167375564575,
      "515": -1.9178106784820557,
      "516": 2.214477062225342,
      "517": -0.2185557633638382,
      "518": -0.5858859419822693,
      "519": 1.765415906906128,
      "520": -1.421687364578247,
      "521": 1.1213862895965576,
      "522": 0.8724061250686646,
      "523": -0.19529420137405396,
      "524": 0.1022195890545845,
      "525": -0.345338374376297,
      "526": 1.6151586771011353,
      "527": -0.5286036729812622,
      "528": -0.12205414474010468,
      "529": 0.3925401270389557,
      "530": 1.3262125253677368,
      "531": 1.0800386667251587,
      "532": 0.17342764139175415,
      "533": -0.14356209337711334,
      "534": 0.01684768684208393,
      "535": 0.8579111099243164,
      "536": 0.29207345843315125,
      "537": 0.7528916001319885,
      "538": 1.27059805393219,
      "539": 0.1559695601463318,
      "540": -0.17261141538619995,
      "541": 1.320074439048767,
      "542": -1.8961894512176514,
      "543": -0.976331353187561,
      "544": -0.767638623714447,
      "545": 0.28898391127586365,
      "546": 0.2058115452528,
      "547": -1.1512153148651123,
      "548": -0.46374261379241943,
      "549": -1.2282127141952515,
      "550": 0.8386906385421753,
      "551": -0.3143629729747772,
      "552": -1.571543574333191,
      "553": 1.964627742767334,
      "554": 0.48543909192085266,
      "555": 0.5071309208869934,
      "556": -0.37009310722351074,
      "557": -0.6980922818183899,
      "558": -0.5305510759353638,
      "559": 0.2720131576061249,
      "560": -0.38282346725463867,
      "561": -0.6203722357749939,
      "562": 0.2665332853794098,
      "563": 0.2913842499256134,
      "564": -1.1377235651016235,
      "565": 1.1000596284866333,
      "566": -0.6549872159957886,
      "567": 0.3961164057254791,
      "568": -0.5296751856803894,
      "569": -0.09858279675245285,
      "570": 1.305306077003479,
      "571": 1.1002837419509888,
      "572": -0.9546201825141907,
      "573": -1.0108259916305542,
      "574": 1.720810055732727,
      "575": -0.899523138999939,
      "576": -1.847722053527832,
      "577": -1.527071475982666,
      "578": -0.28551191091537476,
      "579": -0.8655591607093811,
      "580": 3.0985939502716064,
      "581": 1.741922378540039,
      "582": -0.5708486437797546,
      "583": -0.6821446418762207,
      "584": 2.0501203536987305,
      "585": -0.48944810032844543,
      "586": -0.1823965162038803,
      "587": 0.12796686589717865,
      "588": -0.8777166604995728,
      "589": -1.4823477268218994,
      "590": -0.003071242244914174,
      "591": -1.3281863927841187,
      "592": -1.5031208992004395,
      "593": -1.0256866216659546,
      "594": -1.5520251989364624,
      "595": -1.3923251628875732,
      "596": 2.053598403930664,
      "597": -0.8230435848236084,
      "598": 0.11855791509151459,
      "599": -1.297417402267456,
      "600": -0.20003564655780792,
      "601": -0.8249644637107849,
      "602": -0.1976882666349411,
      "603": -2.2947652339935303,
      "604": 0.014561607502400875,
      "605": 0.20494580268859863,
      "606": 0.6446241140365601,
      "607": 1.0694615840911865,
      "608": -2.787290334701538,
      "609": 8.785967826843262,
      "610": 0.8761856555938721,
      "611": 1.8300120830535889,
      "612": 2.4045464992523193,
      "613": -3.13686203956604,
      "614": 6.490910053253174,
      "615": -3.4138126373291016,
      "616": -2.1190907955169678,
      "617": -2.032362937927246,
      "618": -7.477782726287842,
      "619": 5.273395538330078,
      "620": -1.5071144104003906,
      "621": -6.899457931518555,
      "622": 1.4336220026016235,
      "623": 4.687809467315674,
      "624": 2.1872799396514893,
      "625": -0.03395216166973114,
      "626": -4.306513786315918,
      "627": -3.265536069869995,
      "628": 0.0033153295516967773,
      "629": 10.7625732421875,
      "630": 8.52638053894043,
      "631": 3.5804316997528076,
      "632": -0.4051930904388428,
      "633": -3.0969388484954834,
      "634": 0.8054102659225464,
      "635": 1.1893320083618164,
      "636": -1.0854462385177612,
      "637": 0.6210131645202637,
      "638": -5.098226547241211,
      "639": 5.6500244140625,
      "640": 0.5339547991752625,
      "641": -2.507078170776367,
      "642": 3.3538973331451416,
      "643": 4.043867111206055,
      "644": -0.07624009996652603,
      "645": 3.1945111751556396,
      "646": 6.8942389488220215,
      "647": 1.9714142084121704,
      "648": -2.38108229637146,
      "649": 4.166071891784668,
      "650": 3.8522446155548096,
      "651": 1.0380687713623047,
      "652": 1.1258771419525146,
      "653": 4.126074314117432,
      "654": 0.3155108094215393,
      "655": -0.7665963172912598,
      "656": 1.4829988479614258,
      "657": 3.7032992839813232,
      "658": 1.1441035270690918,
      "659": 3.492920398712158,
      "660": 2.753509759902954,
      "661": 3.1225292682647705,
      "662": 0.1461813747882843,
      "663": 2.218873977661133,
      "664": 5.4000701904296875,
      "665": 0.5455637574195862,
      "666": 6.832336902618408,
      "667": -0.8315722346305847,
      "668": 0.8798868060112,
      "669": -1.5314143896102905,
      "670": 0.01822568103671074,
      "671": -0.4467093348503113,
      "672": 0.4489447772502899,
      "673": -0.04172354191541672,
      "674": 0.13417257368564606,
      "675": 0.9812887907028198,
      "676": -0.6989906430244446,
      "677": -1.486015796661377,
      "678": 1.4055403470993042,
      "679": 1.8683720827102661,
      "680": -3.8742268085479736,
      "681": -1.281290888786316,
      "682": 3.0327281951904297,
      "683": -0.3688089847564697,
      "684": 0.14767903089523315,
      "685": 3.3633203506469727,
      "686": -0.8910010457038879,
      "687": -2.369156837463379,
      "688": -0.2924506664276123,
      "689": -1.183348536491394,
      "690": 2.3828227519989014,
      "691": 3.413516044616699,
      "692": -0.062391456216573715,
      "693": -0.4380563497543335,
      "694": -2.366924285888672,
      "695": 1.7948756217956543,
      "696": -5.894063949584961,
      "697": -0.9747117757797241,
      "698": -0.2646515369415283,
      "699": -0.891907811164856,
      "700": -3.8371334075927734,
      "701": 0.6227397918701172,
      "702": 9.002500534057617,
      "703": 0.10875698179006577,
      "704": -5.221344470977783,
      "705": 3.442502498626709,
      "706": 2.2945683002471924,
      "707": 7.295658111572266,
      "708": 1.3580595254898071,
      "709": 0.2476966232061386,
      "710": -8.275365829467773,
      "711": 4.45761775970459,
      "712": -5.129200458526611,
      "713": -0.9697290658950806,
      "714": 6.589375019073486,
      "715": -1.4642462730407715,
      "716": -4.110203266143799,
      "717": -2.9824719429016113,
      "718": -2.060227155685425,
      "719": -5.017074108123779,
      "720": -1.7308229207992554,
      "721": -0.5160407423973083,
      "722": -1.1695947647094727,
      "723": 1.448361873626709,
      "724": -5.887763977050781,
      "725": -1.2678409814834595,
      "726": -2.6880578994750977,
      "727": -1.8406121730804443,
      "728": 4.195003509521484,
      "729": -3.192075729370117,
      "730": -2.4276630878448486,
      "731": 1.971329689025879,
      "732": -5.373010635375977,
      "733": -6.277350902557373,
      "734": 3.840902328491211,
      "735": -0.4047761857509613,
      "736": 3.6821093559265137,
      "737": -3.9830124378204346,
      "738": 1.2534259557724,
      "739": -1.091837763786316,
      "740": -2.4118361473083496,
      "741": -2.7394754886627197,
      "742": -6.145597457885742,
      "743": -1.1093785762786865,
      "744": 3.958773612976074,
      "745": -3.1280934810638428,
      "746": 0.9794249534606934,
      "747": 0.05318623408675194,
      "748": -0.8053457736968994,
      "749": -5.092019557952881,
      "750": 1.5952621698379517,
      "751": -0.21447449922561646,
      "752": 8.697912216186523,
      "753": -3.647695302963257,
      "754": 0.6603829860687256,
      "755": -6.483815670013428,
      "756": 0.9409061670303345,
      "757": 4.557925701141357,
      "758": -2.465208053588867,
      "759": 5.216236114501953,
      "760": -0.8780979514122009,
      "761": -0.8438252210617065,
      "762": 0.5576447248458862,
      "763": -1.1828296184539795,
      "764": 4.679272174835205,
      "765": 0.10437683016061783,
      "766": -3.7801766395568848,
      "767": -0.8775956034660339,
      "768": 1.6434329748153687,
      "769": 4.59325647354126,
      "770": -3.452935218811035,
      "771": -9.277504920959473,
      "772": -7.1770453453063965,
      "773": 4.090671539306641,
      "774": -1.6990711688995361,
      "775": 3.694138288497925,
      "776": -0.9289549589157104,
      "777": 8.925889015197754,
      "778": -0.9308050870895386,
      "779": -0.7917348742485046,
      "780": -2.9641478061676025,
      "781": -8.164180755615234,
      "782": 0.5682194828987122,
      "783": -3.95192551612854,
      "784": 0.3358649015426636,
      "785": -1.3268592357635498,
      "786": 1.2634049654006958,
      "787": 0.14061018824577332,
      "788": -0.8726093769073486,
      "789": 1.5453773736953735,
      "790": -1.5221823453903198,
      "791": -1.3195021152496338,
      "792": 0.9542582035064697,
      "793": -1.956960678100586,
      "794": 1.0832953453063965,
      "795": -0.7601413726806641,
      "796": 1.9946191310882568,
      "797": -1.0366618633270264,
      "798": -0.02994539588689804,
      "799": 0.5837270617485046,
      "800": 0.6711583733558655,
      "801": 2.8458664417266846,
      "802": 2.4643468856811523,
      "803": -0.9759849905967712,
      "804": -2.174001932144165,
      "805": -1.7097800970077515,
      "806": -0.7478253245353699,
      "807": -1.6181371212005615,
      "808": -2.285221815109253,
      "809": -1.3329565525054932,
      "810": 1.1106942892074585,
      "811": -2.1684229373931885,
      "812": 1.5866844654083252,
      "813": 1.4746506214141846,
      "814": -0.9544638395309448,
      "815": 0.40519294142723083,
      "816": -1.6250710487365723,
      "817": 0.2350090593099594,
      "818": 1.352366328239441,
      "819": -0.7120632529258728,
      "820": -2.3665976524353027,
      "821": -2.6533265113830566,
      "822": 0.7851876616477966,
      "823": -0.16779787838459015,
      "824": -1.4254690408706665,
      "825": -0.20364701747894287,
      "826": 1.0276453495025635,
      "827": 0.22501611709594727,
      "828": -0.08353455364704132,
      "829": -0.8054726123809814,
      "830": 1.4149901866912842,
      "831": -0.5060610175132751,
      "832": 0.37902700901031494,
      "833": 0.36755481362342834,
      "834": -0.6932579874992371,
      "835": 1.2073707580566406,
      "836": 0.005003042984753847,
      "837": -0.11163291335105896,
      "838": 0.6823073029518127,
      "839": -0.9073451161384583,
      "840": -1.362644076347351,
      "841": -0.016933325678110123,
      "842": -0.008096326142549515,
      "843": -0.023459166288375854,
      "844": -0.006343460641801357,
      "845": -0.020515870302915573,
      "846": 0.048824477940797806,
      "847": -0.04950518161058426,
      "848": -0.008351054042577744,
      "849": 0.06957342475652695,
      "850": -0.07757952064275742,
      "851": -0.009011882357299328,
      "852": -0.04847694933414459,
      "853": -0.04572533816099167,
      "854": -0.04165195673704147,
      "855": 0.05874168872833252,
      "856": 0.02481525018811226,
      "857": 0.0435740202665329,
      "858": -0.04563393071293831,
      "859": 0.03273148089647293,
      "860": -0.029543863609433174,
      "861": -0.01087929680943489,
      "862": 0.05443328991532326,
      "863": 0.025640767067670822,
      "864": -0.05016486719250679,
      "865": -0.026149770244956017,
      "866": -0.0642927959561348,
      "867": 0.024014081805944443,
      "868": -0.07219848036766052,
      "869": -0.002201823517680168
    }
  },
  "hiddenLayers": [
    {
      "inputMatrix": {
        "rows": 20,
        "columns": 29,
        "weights": {
          "0": -0.8371685743331909,
          "1": 1.3608362674713135,
          "2": 0.3131960928440094,
          "3": -0.6611796021461487,
          "4": 0.46476930379867554,
          "5": -0.09398375451564789,
          "6": -0.23435983061790466,
          "7": 1.0816738605499268,
          "8": -1.5856976509094238,
          "9": -1.1456559896469116,
          "10": -2.1409077644348145,
          "11": 0.24108944833278656,
          "12": 0.4501818120479584,
          "13": -1.2077606916427612,
          "14": -1.0768412351608276,
          "15": -1.0435905456542969,
          "16": 0.3822160065174103,
          "17": 0.35794541239738464,
          "18": 1.1000605821609497,
          "19": -0.15883302688598633,
          "20": 2.0436923503875732,
          "21": -0.42770251631736755,
          "22": -1.508750557899475,
          "23": 0.6270747780799866,
          "24": 1.4518619775772095,
          "25": -0.38044294714927673,
          "26": 0.19413593411445618,
          "27": 0.6298570036888123,
          "28": -1.6316922903060913,
          "29": -2.276097297668457,
          "30": -0.3090519607067108,
          "31": 0.47360873222351074,
          "32": -0.5057470798492432,
          "33": -0.16112324595451355,
          "34": 0.5896480679512024,
          "35": 0.35411539673805237,
          "36": 0.6657189726829529,
          "37": 1.1251821517944336,
          "38": -0.9926631450653076,
          "39": 0.6925644874572754,
          "40": 0.38598495721817017,
          "41": -0.3418961465358734,
          "42": -1.5261441469192505,
          "43": -0.2326398342847824,
          "44": 0.041176263242959976,
          "45": -0.03414040058851242,
          "46": 0.25655317306518555,
          "47": -0.2617880403995514,
          "48": -0.8903437852859497,
          "49": 0.10759561508893967,
          "50": 0.3116094768047333,
          "51": 0.4892388880252838,
          "52": 0.5171608924865723,
          "53": 0.7262965440750122,
          "54": 0.7960790991783142,
          "55": -1.0869752168655396,
          "56": -0.4283759593963623,
          "57": 0.8676344752311707,
          "58": -0.28087276220321655,
          "59": 0.7150492668151855,
          "60": 0.07596609741449356,
          "61": -0.425128698348999,
          "62": 1.278730034828186,
          "63": 0.8566569089889526,
          "64": -0.7428295016288757,
          "65": 1.0364503860473633,
          "66": 0.3372702896595001,
          "67": -0.5089026689529419,
          "68": 1.2909032106399536,
          "69": -2.3658392429351807,
          "70": -0.44674527645111084,
          "71": 0.16455483436584473,
          "72": 0.42274704575538635,
          "73": -1.2716761827468872,
          "74": 2.1179542541503906,
          "75": 0.8611401319503784,
          "76": -0.5415635108947754,
          "77": -0.5906906723976135,
          "78": 1.735805869102478,
          "79": 1.4826661348342896,
          "80": 1.30197274684906,
          "81": -0.77946537733078,
          "82": 0.08472064137458801,
          "83": 1.3116858005523682,
          "84": 0.816551148891449,
          "85": 0.1497916728258133,
          "86": 0.6028176546096802,
          "87": -0.3184029459953308,
          "88": 1.4599978923797607,
          "89": 1.1239542961120605,
          "90": -0.09483682364225388,
          "91": 0.5841204524040222,
          "92": 0.11136080324649811,
          "93": -0.2309405654668808,
          "94": 0.6275184750556946,
          "95": -1.0842293500900269,
          "96": 1.543980598449707,
          "97": -2.410614252090454,
          "98": -0.4873817265033722,
          "99": 1.3319660425186157,
          "100": -0.4297580122947693,
          "101": -1.6394835710525513,
          "102": -0.640390157699585,
          "103": -0.13374952971935272,
          "104": -1.346692442893982,
          "105": -0.024765364825725555,
          "106": -0.3597690761089325,
          "107": 1.314126968383789,
          "108": -0.4327450692653656,
          "109": -0.32759109139442444,
          "110": -2.2450602054595947,
          "111": -0.1953412890434265,
          "112": -1.3604979515075684,
          "113": 2.596803903579712,
          "114": 2.1963212490081787,
          "115": -1.4061115980148315,
          "116": -1.113789677619934,
          "117": 0.6905670762062073,
          "118": -0.008572951890528202,
          "119": 0.7657449245452881,
          "120": -0.19175170361995697,
          "121": -1.1031497716903687,
          "122": 0.01819230243563652,
          "123": -0.20490343868732452,
          "124": -0.8138562440872192,
          "125": -0.41076335310935974,
          "126": -0.29681333899497986,
          "127": -0.9686216711997986,
          "128": -0.8286812901496887,
          "129": 1.0494835376739502,
          "130": -0.17524702847003937,
          "131": -1.0863819122314453,
          "132": 1.7112537622451782,
          "133": -1.065343976020813,
          "134": 0.11152166873216629,
          "135": 1.764719009399414,
          "136": 0.4525139033794403,
          "137": -0.41947516798973083,
          "138": -1.0217607021331787,
          "139": -0.14547006785869598,
          "140": -1.012629508972168,
          "141": -0.7913132309913635,
          "142": 0.3406929671764374,
          "143": 2.4387366771698,
          "144": -1.7560362815856934,
          "145": -0.09175440669059753,
          "146": -2.061680316925049,
          "147": 0.828818142414093,
          "148": 0.20066402852535248,
          "149": 0.15000244975090027,
          "150": 0.6697805523872375,
          "151": -1.402488350868225,
          "152": 0.2173413634300232,
          "153": 1.4337756633758545,
          "154": 1.0889976024627686,
          "155": 0.7931419610977173,
          "156": -0.7392799854278564,
          "157": -0.5079367160797119,
          "158": 1.2454273700714111,
          "159": 1.6938633918762207,
          "160": -1.550203561782837,
          "161": 1.0940113067626953,
          "162": -0.3306550979614258,
          "163": -2.974839925765991,
          "164": 1.2309675216674805,
          "165": 1.0716300010681152,
          "166": 1.2179211378097534,
          "167": 0.2984204888343811,
          "168": 0.019366540014743805,
          "169": -0.9887436032295227,
          "170": -0.08661425113677979,
          "171": -0.006248395424336195,
          "172": 0.851294219493866,
          "173": 2.348780632019043,
          "174": -0.13961122930049896,
          "175": -1.5330190658569336,
          "176": -0.4103708863258362,
          "177": 1.5247257947921753,
          "178": 1.6149506568908691,
          "179": 0.20256783068180084,
          "180": -0.5829285383224487,
          "181": -1.6862521171569824,
          "182": 1.2823998928070068,
          "183": -0.14142893254756927,
          "184": 0.13995133340358734,
          "185": -0.3607148230075836,
          "186": -1.8109036684036255,
          "187": -0.0597270131111145,
          "188": 3.7601797580718994,
          "189": -0.6306695938110352,
          "190": 1.1846685409545898,
          "191": -0.07926494628190994,
          "192": -1.7128931283950806,
          "193": 0.7706839442253113,
          "194": 1.3053724765777588,
          "195": 0.36617937684059143,
          "196": -0.5998256802558899,
          "197": 2.151421546936035,
          "198": 0.1443302035331726,
          "199": 0.16566088795661926,
          "200": -1.6331356763839722,
          "201": -0.9857608675956726,
          "202": 1.182117223739624,
          "203": -0.7906919717788696,
          "204": -1.0694003105163574,
          "205": -0.4262494444847107,
          "206": 1.4651402235031128,
          "207": 0.573817253112793,
          "208": -1.1433634757995605,
          "209": -0.7668325901031494,
          "210": -0.5546224117279053,
          "211": 0.8539665937423706,
          "212": 1.867369294166565,
          "213": -1.092233657836914,
          "214": 0.10991114377975464,
          "215": 0.6147928237915039,
          "216": 0.1085386872291565,
          "217": 0.8072939515113831,
          "218": 0.41130223870277405,
          "219": 0.33632692694664,
          "220": -1.209351897239685,
          "221": -0.7351012825965881,
          "222": 2.2714788913726807,
          "223": 0.4680841267108917,
          "224": -0.713198721408844,
          "225": -1.8348751068115234,
          "226": 2.579744815826416,
          "227": -0.7679322957992554,
          "228": -1.0920782089233398,
          "229": -2.8183298110961914,
          "230": 0.46485841274261475,
          "231": 0.9081303477287292,
          "232": 1.0857056379318237,
          "233": 0.15029211342334747,
          "234": -0.9035072326660156,
          "235": -1.644457221031189,
          "236": 1.3973863124847412,
          "237": 0.005493192467838526,
          "238": 0.8228750824928284,
          "239": 0.14227725565433502,
          "240": 0.728503406047821,
          "241": 0.6925869584083557,
          "242": 1.1321529150009155,
          "243": -0.6396138668060303,
          "244": 0.2505846321582794,
          "245": -0.7266113758087158,
          "246": -1.8324860334396362,
          "247": 1.2166177034378052,
          "248": -0.1518680453300476,
          "249": 1.1382890939712524,
          "250": 0.894096314907074,
          "251": -1.591292142868042,
          "252": -2.8585944175720215,
          "253": -0.48775342106819153,
          "254": 1.0500322580337524,
          "255": -1.5080891847610474,
          "256": 1.6148507595062256,
          "257": 1.3551584482192993,
          "258": -1.4473868608474731,
          "259": -2.1186177730560303,
          "260": 0.8395606279373169,
          "261": -0.9178306460380554,
          "262": -1.1505990028381348,
          "263": 1.7004650831222534,
          "264": -1.6855926513671875,
          "265": -0.3472678065299988,
          "266": -0.6022679209709167,
          "267": 0.061843082308769226,
          "268": 1.288139820098877,
          "269": 0.18256762623786926,
          "270": -1.1786128282546997,
          "271": 1.764427661895752,
          "272": -0.9950284957885742,
          "273": -1.0005085468292236,
          "274": 0.580268144607544,
          "275": 0.07938598841428757,
          "276": -0.26114049553871155,
          "277": 1.1086024045944214,
          "278": 1.316664695739746,
          "279": -0.18366338312625885,
          "280": 0.973147988319397,
          "281": -0.8312932252883911,
          "282": -0.9981655478477478,
          "283": -0.8958345651626587,
          "284": 0.48352864384651184,
          "285": -0.06666996330022812,
          "286": 0.7850427627563477,
          "287": -1.4676834344863892,
          "288": -0.02053052932024002,
          "289": -0.14787544310092926,
          "290": -1.4345219135284424,
          "291": -1.6113799810409546,
          "292": -0.35167884826660156,
          "293": 0.579793393611908,
          "294": 1.6419304609298706,
          "295": 0.1537725329399109,
          "296": -1.1737130880355835,
          "297": 0.061342671513557434,
          "298": 1.168609619140625,
          "299": -0.5184487700462341,
          "300": -0.4150441288948059,
          "301": -1.4200401306152344,
          "302": -1.1747393608093262,
          "303": 1.481842041015625,
          "304": 1.404130220413208,
          "305": -1.8404980897903442,
          "306": 2.457500457763672,
          "307": 0.8042668104171753,
          "308": -0.4076210558414459,
          "309": 1.1238335371017456,
          "310": -0.5332951545715332,
          "311": -0.22567035257816315,
          "312": -0.3526204824447632,
          "313": -0.08353384584188461,
          "314": -0.34037354588508606,
          "315": -0.42007768154144287,
          "316": -2.093377113342285,
          "317": -1.3845092058181763,
          "318": 0.8317552208900452,
          "319": 0.019860075786709785,
          "320": 0.49368470907211304,
          "321": -0.26878297328948975,
          "322": -0.23202092945575714,
          "323": 0.017562024295330048,
          "324": -0.32650142908096313,
          "325": -0.6184337735176086,
          "326": 0.5516283512115479,
          "327": -1.2805479764938354,
          "328": -0.2562903165817261,
          "329": -1.0780208110809326,
          "330": -0.6229882836341858,
          "331": 0.039894070476293564,
          "332": 0.07892913371324539,
          "333": -2.284803867340088,
          "334": 0.607363760471344,
          "335": 2.003681182861328,
          "336": 0.6953315734863281,
          "337": 1.6479785442352295,
          "338": -0.7162517309188843,
          "339": -0.5269380807876587,
          "340": -0.15975138545036316,
          "341": -1.376501202583313,
          "342": -0.6787970066070557,
          "343": 1.5088691711425781,
          "344": -1.6239176988601685,
          "345": 0.263619989156723,
          "346": -0.05496561527252197,
          "347": -1.5545239448547363,
          "348": -0.09168702363967896,
          "349": 0.0886806771159172,
          "350": -1.3789137601852417,
          "351": -0.7244684100151062,
          "352": 1.5118834972381592,
          "353": -1.4700976610183716,
          "354": 0.5739883780479431,
          "355": 0.5698181390762329,
          "356": 1.6024142503738403,
          "357": 0.3461390733718872,
          "358": 1.3541473150253296,
          "359": 0.3382325768470764,
          "360": -0.7363953590393066,
          "361": -1.4317140579223633,
          "362": -1.0773544311523438,
          "363": 0.013225735165178776,
          "364": -0.3384023606777191,
          "365": 0.2782343626022339,
          "366": 0.2413950264453888,
          "367": -1.3429402112960815,
          "368": -1.3093030452728271,
          "369": -1.8682080507278442,
          "370": -0.2467264086008072,
          "371": -0.7658053040504456,
          "372": 0.6524949669837952,
          "373": -0.08707363158464432,
          "374": -2.127535581588745,
          "375": -1.309870958328247,
          "376": 0.4475090801715851,
          "377": -2.5608344078063965,
          "378": -0.3735266327857971,
          "379": 0.7811651229858398,
          "380": -0.11502385884523392,
          "381": -0.8409667611122131,
          "382": 0.19359859824180603,
          "383": 0.1633598357439041,
          "384": 0.8264340162277222,
          "385": 0.24255460500717163,
          "386": -1.6406358480453491,
          "387": -1.279662847518921,
          "388": 0.3756321668624878,
          "389": 1.12422513961792,
          "390": 0.1801384687423706,
          "391": -0.2782886028289795,
          "392": 1.2476258277893066,
          "393": -0.8369011878967285,
          "394": 1.567955732345581,
          "395": 1.2226080894470215,
          "396": -0.15795446932315826,
          "397": -0.6638405323028564,
          "398": -0.11043135821819305,
          "399": 0.7255404591560364,
          "400": 1.0044366121292114,
          "401": 1.33949875831604,
          "402": 1.029722809791565,
          "403": -1.769093632698059,
          "404": -2.60496187210083,
          "405": -0.06379331648349762,
          "406": -1.1391246318817139,
          "407": -3.078225612640381,
          "408": 1.381964921951294,
          "409": -0.015156887471675873,
          "410": 0.3695453107357025,
          "411": -0.18763992190361023,
          "412": -0.7101413011550903,
          "413": 0.6217538714408875,
          "414": -0.09385481476783752,
          "415": -0.9055338501930237,
          "416": 1.077222228050232,
          "417": -0.3733091950416565,
          "418": -2.021446943283081,
          "419": -0.3415197730064392,
          "420": 0.3902300000190735,
          "421": -1.7942109107971191,
          "422": 1.2165287733078003,
          "423": 0.5177109241485596,
          "424": -1.8792927265167236,
          "425": -0.584852397441864,
          "426": 0.6446268558502197,
          "427": -0.5644314885139465,
          "428": 1.124533772468567,
          "429": 1.3360382318496704,
          "430": 0.1228564903140068,
          "431": 0.792818546295166,
          "432": -2.3303589820861816,
          "433": -1.1237958669662476,
          "434": 1.741790771484375,
          "435": -0.3674711585044861,
          "436": -0.11757740378379822,
          "437": 0.5592235326766968,
          "438": 1.7086683511734009,
          "439": -0.1875416785478592,
          "440": -1.120050072669983,
          "441": 1.9682923555374146,
          "442": -0.9361167550086975,
          "443": -0.7097623348236084,
          "444": -0.4013221859931946,
          "445": 0.6979555487632751,
          "446": 0.30662694573402405,
          "447": -1.8871632814407349,
          "448": 1.370758056640625,
          "449": -0.3333286941051483,
          "450": -0.39865297079086304,
          "451": -0.18089726567268372,
          "452": -0.2798962891101837,
          "453": -0.5059483051300049,
          "454": 0.7903351783752441,
          "455": -1.1825987100601196,
          "456": -0.6523990035057068,
          "457": 0.39126837253570557,
          "458": -1.4914441108703613,
          "459": -1.357845664024353,
          "460": 0.555412769317627,
          "461": -0.8708100914955139,
          "462": -0.025935664772987366,
          "463": -2.115722894668579,
          "464": -0.6473888754844666,
          "465": 0.6819906234741211,
          "466": -0.08902785181999207,
          "467": -0.31744250655174255,
          "468": -0.1133745014667511,
          "469": -0.011724365875124931,
          "470": 0.46050184965133667,
          "471": 0.5416087508201599,
          "472": -1.0013145208358765,
          "473": -1.8420974016189575,
          "474": 2.2813050746917725,
          "475": 0.5603983998298645,
          "476": -1.5424349308013916,
          "477": -0.361227810382843,
          "478": -1.2052907943725586,
          "479": -1.3379303216934204,
          "480": 0.12131230533123016,
          "481": -0.5271972417831421,
          "482": 1.9542087316513062,
          "483": -1.3036195039749146,
          "484": -0.17689290642738342,
          "485": 0.11553341895341873,
          "486": -0.702115535736084,
          "487": -0.5116794109344482,
          "488": 0.9019336700439453,
          "489": 0.4359501004219055,
          "490": 0.4345969557762146,
          "491": -0.47021639347076416,
          "492": -1.5120327472686768,
          "493": -2.3813421726226807,
          "494": 0.6320855617523193,
          "495": -0.8447938561439514,
          "496": 0.2522869408130646,
          "497": 0.19514891505241394,
          "498": 0.822165846824646,
          "499": 0.22089159488677979,
          "500": -0.3886866867542267,
          "501": 1.3591182231903076,
          "502": 0.34999537467956543,
          "503": -2.255409002304077,
          "504": -0.8097469806671143,
          "505": 1.28485906124115,
          "506": -0.7064948678016663,
          "507": -1.3971518278121948,
          "508": 1.6821160316467285,
          "509": 0.737794816493988,
          "510": 0.4574163258075714,
          "511": 0.7894686460494995,
          "512": -0.6588212847709656,
          "513": 0.7665880918502808,
          "514": 0.7727352976799011,
          "515": 0.3578842282295227,
          "516": 0.6549376249313354,
          "517": -0.14761264622211456,
          "518": -0.4980979263782501,
          "519": -0.903529703617096,
          "520": -1.4570685625076294,
          "521": 1.0200797319412231,
          "522": -1.804282546043396,
          "523": 0.17944003641605377,
          "524": -0.022215791046619415,
          "525": 2.2516837120056152,
          "526": 0.09053387492895126,
          "527": 0.7397950291633606,
          "528": -1.0425928831100464,
          "529": -0.33062049746513367,
          "530": 0.5610756874084473,
          "531": 0.8596094846725464,
          "532": -0.9942530989646912,
          "533": -1.8882880210876465,
          "534": 0.031523555517196655,
          "535": 2.0955958366394043,
          "536": 2.050753116607666,
          "537": -0.3430711030960083,
          "538": 1.5413672924041748,
          "539": -0.7193980813026428,
          "540": 0.04334790259599686,
          "541": 3.8815979957580566,
          "542": 1.1708253622055054,
          "543": 1.0111234188079834,
          "544": -0.8133232593536377,
          "545": 0.7892391681671143,
          "546": -1.1570748090744019,
          "547": -1.3769805431365967,
          "548": 0.8558624386787415,
          "549": 1.4550291299819946,
          "550": 1.008675456047058,
          "551": -0.058182407170534134,
          "552": -2.4541707038879395,
          "553": 0.24746841192245483,
          "554": -0.6566060185432434,
          "555": -1.464228868484497,
          "556": 0.7490193843841553,
          "557": -0.22787369787693024,
          "558": -0.03264312073588371,
          "559": -0.4624226689338684,
          "560": -0.6426603198051453,
          "561": 2.341344118118286,
          "562": -0.2735122740268707,
          "563": -1.319952368736267,
          "564": -0.29109957814216614,
          "565": 0.9101237654685974,
          "566": 0.39022690057754517,
          "567": -0.7210850715637207,
          "568": 0.5500996112823486,
          "569": -0.7888506054878235,
          "570": -0.32681021094322205,
          "571": -1.0227748155593872,
          "572": 1.095940351486206,
          "573": 1.9928587675094604,
          "574": 0.7893364429473877,
          "575": 0.8166121244430542,
          "576": 0.8611376285552979,
          "577": -1.387027382850647,
          "578": -1.0172070264816284,
          "579": -0.1252855509519577
        }
      },
      "inputHidden": {
        "rows": 20,
        "columns": 20,
        "weights": {
          "0": 1.1015406847000122,
          "1": -1.4154356718063354,
          "2": -0.9368529319763184,
          "3": 2.21875,
          "4": 1.6414653062820435,
          "5": -1.484264612197876,
          "6": -1.3709834814071655,
          "7": -2.5005505084991455,
          "8": -0.44590243697166443,
          "9": -2.449652671813965,
          "10": 2.7117233276367188,
          "11": 0.2657102346420288,
          "12": -1.5525048971176147,
          "13": 0.05656679719686508,
          "14": 0.46187448501586914,
          "15": 1.2214194536209106,
          "16": 3.2549097537994385,
          "17": 2.4400553703308105,
          "18": 2.4829905033111572,
          "19": 0.024742862209677696,
          "20": -1.8445489406585693,
          "21": -0.052150655537843704,
          "22": 2.2408785820007324,
          "23": -0.8849178552627563,
          "24": -3.6259450912475586,
          "25": 1.6284434795379639,
          "26": 2.06193208694458,
          "27": 2.5759170055389404,
          "28": -0.34066641330718994,
          "29": -0.04631246626377106,
          "30": -0.0982818752527237,
          "31": 0.2370593398809433,
          "32": 1.003290057182312,
          "33": -0.8136619925498962,
          "34": -0.7312900424003601,
          "35": -1.2114020586013794,
          "36": -4.55709171295166,
          "37": -1.5690810680389404,
          "38": -2.041325330734253,
          "39": 1.36473548412323,
          "40": 0.6991876363754272,
          "41": 1.9977213144302368,
          "42": -1.6794192790985107,
          "43": 0.18216145038604736,
          "44": 1.5944122076034546,
          "45": -1.4475114345550537,
          "46": -0.21188318729400635,
          "47": -0.18115702271461487,
          "48": -0.8510756492614746,
          "49": 0.7444474101066589,
          "50": 0.08957361429929733,
          "51": 0.09631837904453278,
          "52": 1.5407578945159912,
          "53": 0.4393860995769501,
          "54": -2.392221212387085,
          "55": 1.3428000211715698,
          "56": 0.5965051651000977,
          "57": 2.1028640270233154,
          "58": 1.2366467714309692,
          "59": 1.2341500520706177,
          "60": 0.1017441377043724,
          "61": -0.8486300706863403,
          "62": -2.8255395889282227,
          "63": 2.318369150161743,
          "64": -1.3324224948883057,
          "65": -1.3007410764694214,
          "66": 0.2957063615322113,
          "67": 2.516413450241089,
          "68": -4.88018274307251,
          "69": 0.03479285165667534,
          "70": 0.5238250494003296,
          "71": -0.3642389476299286,
          "72": 0.1565914750099182,
          "73": -2.3070695400238037,
          "74": -1.1672993898391724,
          "75": -1.2670835256576538,
          "76": 1.0901203155517578,
          "77": 1.4802436828613281,
          "78": 0.2938569486141205,
          "79": -1.4601125717163086,
          "80": 0.7947865724563599,
          "81": -0.18797707557678223,
          "82": -3.010636806488037,
          "83": 1.6943858861923218,
          "84": 0.5400049686431885,
          "85": -3.4444878101348877,
          "86": 3.5468509197235107,
          "87": 2.058572292327881,
          "88": 0.326275497674942,
          "89": 0.49831804633140564,
          "90": -0.8284209370613098,
          "91": 0.7410464882850647,
          "92": -2.4178833961486816,
          "93": 0.6985799074172974,
          "94": -0.8839216232299805,
          "95": 1.7749080657958984,
          "96": 3.1664633750915527,
          "97": 0.985281229019165,
          "98": 1.6763098239898682,
          "99": -0.9090016484260559,
          "100": -0.6846669316291809,
          "101": -0.08250438421964645,
          "102": -2.1089913845062256,
          "103": 1.7233481407165527,
          "104": -0.7418495416641235,
          "105": -0.520483672618866,
          "106": 1.010607361793518,
          "107": 1.036278247833252,
          "108": -0.42014357447624207,
          "109": -1.4696035385131836,
          "110": -1.4466686248779297,
          "111": -1.4857970476150513,
          "112": 0.715034544467926,
          "113": -0.9002388715744019,
          "114": -2.0094997882843018,
          "115": -2.0656611919403076,
          "116": 0.08663582801818848,
          "117": -1.9441900253295898,
          "118": -3.132805109024048,
          "119": 1.7056230306625366,
          "120": 1.9017049074172974,
          "121": 1.5586525201797485,
          "122": -0.779697835445404,
          "123": -0.41701632738113403,
          "124": 0.8048644065856934,
          "125": -2.0780465602874756,
          "126": -0.12155178934335709,
          "127": 0.16900672018527985,
          "128": 0.006280441768467426,
          "129": -1.0043976306915283,
          "130": 1.5521173477172852,
          "131": 2.5769710540771484,
          "132": -0.024499723687767982,
          "133": 1.4619861841201782,
          "134": -0.05834966152906418,
          "135": 0.5808457732200623,
          "136": 1.8649801015853882,
          "137": 2.490628719329834,
          "138": -1.7077724933624268,
          "139": 0.3075841963291168,
          "140": -2.3592793941497803,
          "141": -0.6068062782287598,
          "142": -0.9137871861457825,
          "143": 0.9192148447036743,
          "144": -1.2661632299423218,
          "145": 2.3901491165161133,
          "146": 0.13596533238887787,
          "147": 1.9441823959350586,
          "148": -0.6615418791770935,
          "149": 2.672241687774658,
          "150": -0.5753377079963684,
          "151": -1.0028762817382812,
          "152": -0.2865830659866333,
          "153": 0.09004182368516922,
          "154": -3.7407212257385254,
          "155": 0.27434641122817993,
          "156": -1.4085365533828735,
          "157": -2.6234898567199707,
          "158": -1.3613598346710205,
          "159": -1.1944814920425415,
          "160": 1.1925312280654907,
          "161": -1.2917015552520752,
          "162": -1.3259822130203247,
          "163": -1.928122878074646,
          "164": 1.6767774820327759,
          "165": 0.4180687665939331,
          "166": 2.746753215789795,
          "167": 3.5905814170837402,
          "168": -3.157489776611328,
          "169": 1.6880378723144531,
          "170": 0.7492143511772156,
          "171": -0.24416659772396088,
          "172": 2.5236475467681885,
          "173": 1.3502476215362549,
          "174": -0.32502126693725586,
          "175": 0.054609257727861404,
          "176": -0.17038340866565704,
          "177": -0.19267550110816956,
          "178": -0.008119565434753895,
          "179": 1.8077610731124878,
          "180": -1.9010512828826904,
          "181": -0.2801598012447357,
          "182": -0.3394486606121063,
          "183": 0.7444403767585754,
          "184": -2.2629246711730957,
          "185": 2.810577869415283,
          "186": 1.9995938539505005,
          "187": 2.291830539703369,
          "188": -0.36025604605674744,
          "189": 4.578413486480713,
          "190": 1.1265095472335815,
          "191": -0.28150346875190735,
          "192": -0.48476508259773254,
          "193": -4.114066123962402,
          "194": -0.4158194661140442,
          "195": -3.5506789684295654,
          "196": -1.6906230449676514,
          "197": -2.316939353942871,
          "198": -1.5785443782806396,
          "199": -2.0923562049865723,
          "200": 1.4746229648590088,
          "201": 0.3602552115917206,
          "202": -0.7098519206047058,
          "203": -2.5156097412109375,
          "204": 0.06496163457632065,
          "205": -1.0989805459976196,
          "206": -0.6942493915557861,
          "207": -0.5934678912162781,
          "208": 0.6267202496528625,
          "209": -0.6850285530090332,
          "210": 0.8302205801010132,
          "211": 0.834614634513855,
          "212": 1.332661509513855,
          "213": 0.5716353058815002,
          "214": -0.21014989912509918,
          "215": -0.33556434512138367,
          "216": 1.4925707578659058,
          "217": 1.1850382089614868,
          "218": 1.3328508138656616,
          "219": -0.18235448002815247,
          "220": 2.768223524093628,
          "221": 0.62687087059021,
          "222": -0.40430837869644165,
          "223": -1.2437591552734375,
          "224": 3.570392608642578,
          "225": -1.4297882318496704,
          "226": -0.47151827812194824,
          "227": 1.2116522789001465,
          "228": 0.24758045375347137,
          "229": 0.7597423195838928,
          "230": 1.7732322216033936,
          "231": 3.0681514739990234,
          "232": -1.884734034538269,
          "233": 2.0581207275390625,
          "234": -0.1159365251660347,
          "235": 3.702141046524048,
          "236": 3.778852939605713,
          "237": 3.074414014816284,
          "238": 3.4731647968292236,
          "239": -1.8653022050857544,
          "240": 0.2440507709980011,
          "241": -1.9599635601043701,
          "242": -2.1530144214630127,
          "243": 1.7596759796142578,
          "244": 0.0074617573991417885,
          "245": 1.5569576025009155,
          "246": 1.527899146080017,
          "247": 3.2229843139648438,
          "248": -0.6627046465873718,
          "249": -0.7282156348228455,
          "250": 0.4597489535808563,
          "251": -1.269256591796875,
          "252": 0.0390414297580719,
          "253": -1.9233912229537964,
          "254": -4.201025009155273,
          "255": 1.6429247856140137,
          "256": -0.39490261673927307,
          "257": 1.0765132904052734,
          "258": -0.1619739830493927,
          "259": 2.11692476272583,
          "260": 2.078441619873047,
          "261": 0.5325143933296204,
          "262": -0.9350130558013916,
          "263": -2.050278663635254,
          "264": 2.9919745922088623,
          "265": -1.1856149435043335,
          "266": 0.2957156300544739,
          "267": 2.09100079536438,
          "268": -0.47323518991470337,
          "269": 0.6766623854637146,
          "270": 1.6583918333053589,
          "271": 0.7880151271820068,
          "272": 1.4137197732925415,
          "273": 3.6916298866271973,
          "274": -2.1820530891418457,
          "275": 0.24900101125240326,
          "276": 2.3357043266296387,
          "277": 1.4748414754867554,
          "278": 4.459013938903809,
          "279": -0.8394147157669067,
          "280": -0.23740822076797485,
          "281": 0.617149293422699,
          "282": 0.8729138970375061,
          "283": -1.0818196535110474,
          "284": 0.9564558863639832,
          "285": 2.8302080631256104,
          "286": 1.723344087600708,
          "287": 0.691705048084259,
          "288": 2.008465528488159,
          "289": -0.09952227026224136,
          "290": -1.436194658279419,
          "291": -0.04781751334667206,
          "292": 0.4623032212257385,
          "293": -0.7008916139602661,
          "294": -0.5458974838256836,
          "295": -0.1260780394077301,
          "296": -2.3439462184906006,
          "297": -2.1499922275543213,
          "298": -1.6971839666366577,
          "299": 1.3707220554351807,
          "300": 1.921505093574524,
          "301": -1.640978217124939,
          "302": -2.022529363632202,
          "303": -2.5445761680603027,
          "304": 3.8888204097747803,
          "305": -2.280076742172241,
          "306": -1.8778977394104004,
          "307": 0.6580594778060913,
          "308": 1.0594719648361206,
          "309": 0.33205869793891907,
          "310": 2.960376024246216,
          "311": 1.1043376922607422,
          "312": -0.20825286209583282,
          "313": 0.41769346594810486,
          "314": 0.35561758279800415,
          "315": 2.2781734466552734,
          "316": 2.2355308532714844,
          "317": 0.8259766697883606,
          "318": 2.1680471897125244,
          "319": 1.800987958908081,
          "320": 1.066448450088501,
          "321": 0.8842598795890808,
          "322": -0.7804688811302185,
          "323": -2.223249912261963,
          "324": 1.053196907043457,
          "325": -2.7405638694763184,
          "326": -0.5729818940162659,
          "327": 0.8912567496299744,
          "328": 0.08387243747711182,
          "329": -1.5998756885528564,
          "330": 1.830100178718567,
          "331": 2.311955690383911,
          "332": -2.656597137451172,
          "333": 1.0386589765548706,
          "334": -0.1892465204000473,
          "335": 1.2027256488800049,
          "336": 0.40282532572746277,
          "337": 1.382508397102356,
          "338": 2.1472997665405273,
          "339": 3.499364137649536,
          "340": 2.7359466552734375,
          "341": 2.3995511531829834,
          "342": 2.0451643466949463,
          "343": -3.0466182231903076,
          "344": 0.6453126668930054,
          "345": -0.6769319772720337,
          "346": 0.008804867044091225,
          "347": -0.6125795841217041,
          "348": -0.015251441858708858,
          "349": -2.3951568603515625,
          "350": -1.5011367797851562,
          "351": 3.665764570236206,
          "352": 0.08287236839532852,
          "353": 3.997274398803711,
          "354": 0.05546236410737038,
          "355": 2.7923214435577393,
          "356": 2.547361373901367,
          "357": 1.6894007921218872,
          "358": 1.0244793891906738,
          "359": 1.8550488948822021,
          "360": 0.8296133279800415,
          "361": -2.5865790843963623,
          "362": 0.7558408379554749,
          "363": -0.7748918533325195,
          "364": 1.2765483856201172,
          "365": -1.0276567935943604,
          "366": -2.2863759994506836,
          "367": -1.3428467512130737,
          "368": 3.020078659057617,
          "369": -1.173642635345459,
          "370": 0.18140526115894318,
          "371": -0.7280954122543335,
          "372": -0.25486642122268677,
          "373": -2.861578941345215,
          "374": 0.2956690192222595,
          "375": 0.5453886389732361,
          "376": 1.6062391996383667,
          "377": 0.820755124092102,
          "378": 0.3742240369319916,
          "379": 1.4092503786087036,
          "380": -2.859308958053589,
          "381": 0.1405269056558609,
          "382": 0.4933752715587616,
          "383": -0.6532632112503052,
          "384": -1.5626076459884644,
          "385": -0.48767152428627014,
          "386": 3.2528226375579834,
          "387": 0.19895480573177338,
          "388": -3.1833767890930176,
          "389": 3.279146909713745,
          "390": -4.11954927444458,
          "391": 0.2354028820991516,
          "392": 2.7405543327331543,
          "393": -1.3968945741653442,
          "394": 0.9818081855773926,
          "395": -0.6616964936256409,
          "396": 0.44005224108695984,
          "397": -2.4991872310638428,
          "398": -3.3427515029907227,
          "399": -0.006633351556956768
        }
      },
      "inputBias": {
        "rows": 20,
        "columns": 1,
        "weights": {
          "0": -1.9159222841262817,
          "1": -3.040158987045288,
          "2": -0.20273585617542267,
          "3": -1.7333499193191528,
          "4": -2.7317113876342773,
          "5": 0.5561456680297852,
          "6": -2.239885091781616,
          "7": -0.04098258167505264,
          "8": -0.6010053753852844,
          "9": -0.7698127627372742,
          "10": -0.257919043302536,
          "11": -2.218832015991211,
          "12": 0.0636531189084053,
          "13": -2.6798293590545654,
          "14": -0.5080093741416931,
          "15": -1.3820853233337402,
          "16": -2.700395345687866,
          "17": -0.9075224995613098,
          "18": -1.3852618932724,
          "19": -0.9280800223350525
        }
      },
      "forgetMatrix": {
        "rows": 20,
        "columns": 29,
        "weights": {
          "0": 1.3392544984817505,
          "1": 1.4135998487472534,
          "2": 0.817469596862793,
          "3": -0.9358838796615601,
          "4": 0.35107919573783875,
          "5": 0.987302303314209,
          "6": -0.3332224488258362,
          "7": 0.27257001399993896,
          "8": -0.17649146914482117,
          "9": -1.125485897064209,
          "10": -1.0361541509628296,
          "11": -1.23911452293396,
          "12": 1.8938571214675903,
          "13": -1.1512386798858643,
          "14": -0.9746730923652649,
          "15": 0.4612748622894287,
          "16": 0.11725791543722153,
          "17": 0.18400992453098297,
          "18": 0.4292915463447571,
          "19": -1.9160712957382202,
          "20": 0.3786175847053528,
          "21": 1.360256552696228,
          "22": 1.5765011310577393,
          "23": 0.03941570594906807,
          "24": 1.0433235168457031,
          "25": 1.3004543781280518,
          "26": 1.4694277048110962,
          "27": 0.8323014378547668,
          "28": 0.66412752866745,
          "29": 0.5023154020309448,
          "30": 1.3322089910507202,
          "31": -0.9443226456642151,
          "32": 0.9392350316047668,
          "33": 1.0985971689224243,
          "34": 0.06311149150133133,
          "35": -0.0892305076122284,
          "36": 0.3485015332698822,
          "37": 1.6754618883132935,
          "38": 1.0793349742889404,
          "39": -2.659670114517212,
          "40": 0.9379520416259766,
          "41": 1.4915610551834106,
          "42": -0.8118125200271606,
          "43": 1.795479416847229,
          "44": 1.063112497329712,
          "45": -0.16556520760059357,
          "46": -1.2848408222198486,
          "47": 0.4093027114868164,
          "48": 2.143385171890259,
          "49": 0.8489276766777039,
          "50": -0.2773329019546509,
          "51": -0.4812105894088745,
          "52": 1.5347907543182373,
          "53": -0.0995219349861145,
          "54": -2.165032386779785,
          "55": 0.5062848329544067,
          "56": -0.49199381470680237,
          "57": 0.6166956424713135,
          "58": 0.4130954146385193,
          "59": 0.8533228635787964,
          "60": -2.1517059803009033,
          "61": 1.2548907995224,
          "62": -0.35374781489372253,
          "63": -0.19092531502246857,
          "64": 1.2223451137542725,
          "65": -1.365891695022583,
          "66": -1.1813303232192993,
          "67": -0.016884002834558487,
          "68": 0.2271604984998703,
          "69": 1.4388703107833862,
          "70": -1.996832013130188,
          "71": 1.1531851291656494,
          "72": 0.44401755928993225,
          "73": 0.8467732667922974,
          "74": -0.8825991153717041,
          "75": -2.7284491062164307,
          "76": 0.5094344615936279,
          "77": 1.4149011373519897,
          "78": -0.09400798380374908,
          "79": -0.7496647834777832,
          "80": -1.4073247909545898,
          "81": -0.5931138396263123,
          "82": -1.3834364414215088,
          "83": -0.504612386226654,
          "84": -0.7380425930023193,
          "85": 1.5676311254501343,
          "86": -2.4404115676879883,
          "87": 2.5936567783355713,
          "88": -0.07937772572040558,
          "89": 0.8247511386871338,
          "90": -1.3280333280563354,
          "91": -1.6216673851013184,
          "92": 0.1410575658082962,
          "93": 0.40294012427330017,
          "94": 0.3658806085586548,
          "95": -2.651745557785034,
          "96": -1.194567084312439,
          "97": 1.4259601831436157,
          "98": -0.36364060640335083,
          "99": 1.1230498552322388,
          "100": -1.0667738914489746,
          "101": -0.800557553768158,
          "102": 0.2557451128959656,
          "103": -1.9905457496643066,
          "104": -0.2433527112007141,
          "105": 0.7686272859573364,
          "106": -1.024379014968872,
          "107": 0.1322758048772812,
          "108": 0.5778687000274658,
          "109": -0.7666966915130615,
          "110": -0.1994779109954834,
          "111": 0.7791075706481934,
          "112": 0.6911125779151917,
          "113": 2.2912027835845947,
          "114": 1.1281602382659912,
          "115": -0.19377513229846954,
          "116": -0.263317734003067,
          "117": 1.3909568786621094,
          "118": 0.7474015951156616,
          "119": -1.1647584438323975,
          "120": -0.4104914963245392,
          "121": -0.0035736034624278545,
          "122": -0.012109272181987762,
          "123": -0.09038238227367401,
          "124": -0.7707510590553284,
          "125": -0.931110143661499,
          "126": -1.608677864074707,
          "127": -1.1557278633117676,
          "128": 2.578249454498291,
          "129": -0.07558479905128479,
          "130": -1.4392197132110596,
          "131": 0.9834827184677124,
          "132": -0.46150875091552734,
          "133": 2.0737287998199463,
          "134": 0.9458799958229065,
          "135": -1.7176507711410522,
          "136": -0.7182734608650208,
          "137": 0.5705316066741943,
          "138": 0.8977146148681641,
          "139": -1.325763463973999,
          "140": 0.15973402559757233,
          "141": 1.803554892539978,
          "142": 2.38284969329834,
          "143": 0.008960520848631859,
          "144": 0.8904705047607422,
          "145": -0.10520992428064346,
          "146": -0.8308565616607666,
          "147": 0.4420205354690552,
          "148": 0.9306841492652893,
          "149": -1.7553869485855103,
          "150": -0.9705810546875,
          "151": 0.008598869666457176,
          "152": -0.0883292406797409,
          "153": 0.7188291549682617,
          "154": 2.17419171333313,
          "155": -0.3943241238594055,
          "156": 1.2211635112762451,
          "157": -0.09092706441879272,
          "158": 1.7426437139511108,
          "159": 1.1449910402297974,
          "160": 0.21900717914104462,
          "161": -0.12167845666408539,
          "162": -1.555285930633545,
          "163": -1.4508017301559448,
          "164": 1.5406814813613892,
          "165": 0.25605836510658264,
          "166": -1.2895359992980957,
          "167": -1.0175424814224243,
          "168": 1.1076006889343262,
          "169": -1.542986512184143,
          "170": -1.0177782773971558,
          "171": -1.0351632833480835,
          "172": 2.193155527114868,
          "173": 0.6368362307548523,
          "174": -0.08324247598648071,
          "175": 2.828946352005005,
          "176": -2.4344584941864014,
          "177": 0.36854657530784607,
          "178": 0.8547749519348145,
          "179": 1.3807154893875122,
          "180": 1.115243911743164,
          "181": 0.30500027537345886,
          "182": 0.5932847261428833,
          "183": -0.2788691818714142,
          "184": -1.605427622795105,
          "185": -1.0967440605163574,
          "186": 1.0092657804489136,
          "187": 0.3958231210708618,
          "188": 0.04318452253937721,
          "189": -0.348835289478302,
          "190": -0.5296852588653564,
          "191": -0.3320046067237854,
          "192": 0.8959416151046753,
          "193": 0.42777737975120544,
          "194": 0.8667318820953369,
          "195": 2.332246780395508,
          "196": -0.6662750244140625,
          "197": -1.7868268489837646,
          "198": 0.44393712282180786,
          "199": -0.24667122960090637,
          "200": 3.8536627292633057,
          "201": 0.9338221549987793,
          "202": -1.7410377264022827,
          "203": -1.202586054801941,
          "204": 1.2970885038375854,
          "205": -1.5413953065872192,
          "206": 0.24229666590690613,
          "207": 1.1736195087432861,
          "208": -0.1963372677564621,
          "209": 0.9477884769439697,
          "210": -0.6646568179130554,
          "211": -0.6051574945449829,
          "212": -0.16436927020549774,
          "213": -0.8092504143714905,
          "214": 1.0641199350357056,
          "215": 0.27634966373443604,
          "216": 1.3635059595108032,
          "217": -1.766263484954834,
          "218": 1.56680428981781,
          "219": -0.2218044251203537,
          "220": 0.631506621837616,
          "221": 2.396731376647949,
          "222": 0.23018629848957062,
          "223": -1.7068313360214233,
          "224": -0.4969252049922943,
          "225": 0.19299018383026123,
          "226": -2.033658742904663,
          "227": 0.8432234525680542,
          "228": -0.3000386655330658,
          "229": 0.21241123974323273,
          "230": -1.5321389436721802,
          "231": 0.15558196604251862,
          "232": 0.775291919708252,
          "233": 0.9079445600509644,
          "234": -1.8544203042984009,
          "235": 0.12213997542858124,
          "236": -0.8840388655662537,
          "237": -1.2964521646499634,
          "238": 2.052536964416504,
          "239": 0.004268516320735216,
          "240": -1.9772415161132812,
          "241": 0.13196039199829102,
          "242": -0.5040600299835205,
          "243": 1.2123602628707886,
          "244": 0.772654116153717,
          "245": 0.37292224168777466,
          "246": -1.6448248624801636,
          "247": 1.4693119525909424,
          "248": -2.228921413421631,
          "249": -0.8833710551261902,
          "250": 0.7606769800186157,
          "251": -1.0175960063934326,
          "252": -0.7252664566040039,
          "253": -0.5507360696792603,
          "254": -0.0515102818608284,
          "255": -1.799803614616394,
          "256": -0.7494336366653442,
          "257": 0.0969204381108284,
          "258": 1.4171587228775024,
          "259": 1.0822250843048096,
          "260": -0.9775961637496948,
          "261": -1.530725359916687,
          "262": -1.2255542278289795,
          "263": -0.11702597886323929,
          "264": 0.4615935981273651,
          "265": 0.8836565017700195,
          "266": -2.085984706878662,
          "267": 1.2364952564239502,
          "268": -1.2988182306289673,
          "269": 1.3497024774551392,
          "270": 0.7393854856491089,
          "271": -1.0997439622879028,
          "272": 3.2172651290893555,
          "273": -0.8639821410179138,
          "274": 1.0093809366226196,
          "275": -0.7682961821556091,
          "276": 0.640529453754425,
          "277": -1.4398349523544312,
          "278": -1.1191350221633911,
          "279": -0.21145647764205933,
          "280": 1.2430049180984497,
          "281": -0.7155224680900574,
          "282": -2.1950509548187256,
          "283": 0.39631879329681396,
          "284": 0.1968528777360916,
          "285": -2.0502066612243652,
          "286": 0.3834203779697418,
          "287": -1.2796787023544312,
          "288": 1.3942265510559082,
          "289": 0.46804797649383545,
          "290": 1.0646827220916748,
          "291": -1.641182541847229,
          "292": -1.0907509326934814,
          "293": -1.491113543510437,
          "294": 0.5157967209815979,
          "295": 0.862373948097229,
          "296": 1.3923906087875366,
          "297": 0.41454145312309265,
          "298": -0.27886003255844116,
          "299": -0.4478217363357544,
          "300": 1.404282569885254,
          "301": 0.8315287232398987,
          "302": -1.2674179077148438,
          "303": -1.0304642915725708,
          "304": -1.3913733959197998,
          "305": -0.06874023377895355,
          "306": -1.0726670026779175,
          "307": 2.424389362335205,
          "308": 0.5721423029899597,
          "309": -2.4833719730377197,
          "310": -2.6454296112060547,
          "311": -0.1576482653617859,
          "312": 1.7673742771148682,
          "313": -0.6183782815933228,
          "314": 2.1135666370391846,
          "315": 0.9905444979667664,
          "316": -1.779010534286499,
          "317": -2.0063467025756836,
          "318": 1.072816014289856,
          "319": 2.6979568004608154,
          "320": -0.6944153308868408,
          "321": -0.14834138751029968,
          "322": -0.68741774559021,
          "323": -1.3477871417999268,
          "324": -1.6743487119674683,
          "325": 0.42181849479675293,
          "326": -0.4163944125175476,
          "327": -1.4368596076965332,
          "328": -0.015577128157019615,
          "329": 0.7000710964202881,
          "330": 0.8960843086242676,
          "331": -0.8249903321266174,
          "332": -1.4735798835754395,
          "333": -0.4053894281387329,
          "334": -1.7296441793441772,
          "335": -0.7238157391548157,
          "336": -1.611831784248352,
          "337": -0.4912479519844055,
          "338": -0.25943925976753235,
          "339": -1.0821887254714966,
          "340": -0.911342978477478,
          "341": -1.5842972993850708,
          "342": 1.3598663806915283,
          "343": 0.16005264222621918,
          "344": -0.05334000661969185,
          "345": -0.5952523350715637,
          "346": 2.125108480453491,
          "347": -0.9087777137756348,
          "348": 0.1244518905878067,
          "349": 0.3704635500907898,
          "350": 1.3059407472610474,
          "351": -0.19317279756069183,
          "352": 2.591123580932617,
          "353": 0.6670099496841431,
          "354": -1.7682311534881592,
          "355": 0.5276944041252136,
          "356": -0.11732060462236404,
          "357": -1.0511460304260254,
          "358": 0.13668930530548096,
          "359": -1.2062338590621948,
          "360": -0.6182504296302795,
          "361": 0.42927512526512146,
          "362": -0.05778845399618149,
          "363": -1.2258579730987549,
          "364": 1.782660961151123,
          "365": 1.1542084217071533,
          "366": -0.6976946592330933,
          "367": 0.7067959308624268,
          "368": 1.1335736513137817,
          "369": 0.2639736831188202,
          "370": -1.5114476680755615,
          "371": 0.8956661224365234,
          "372": 0.3613506853580475,
          "373": -0.8060997128486633,
          "374": -0.6086389422416687,
          "375": -0.17593678832054138,
          "376": 0.1290644407272339,
          "377": 3.0703117847442627,
          "378": 0.15626740455627441,
          "379": 0.8596892952919006,
          "380": -2.378615140914917,
          "381": -1.2402559518814087,
          "382": 0.07764104008674622,
          "383": 0.4735805094242096,
          "384": 1.1851425170898438,
          "385": 0.1049841046333313,
          "386": -0.9675152897834778,
          "387": 1.3698632717132568,
          "388": 0.9623899459838867,
          "389": -0.0735810324549675,
          "390": -2.2278480529785156,
          "391": -0.2898936867713928,
          "392": -0.013775532133877277,
          "393": -1.0293092727661133,
          "394": -0.9564566016197205,
          "395": -0.6485514044761658,
          "396": -2.1595652103424072,
          "397": -0.36781007051467896,
          "398": 0.10193642228841782,
          "399": 2.1919984817504883,
          "400": 0.10540556162595749,
          "401": -0.632111132144928,
          "402": 3.242241144180298,
          "403": 0.21379180252552032,
          "404": 0.06103895977139473,
          "405": -0.1770545244216919,
          "406": 0.14697101712226868,
          "407": 1.2430100440979004,
          "408": 1.3771804571151733,
          "409": 0.7224501371383667,
          "410": -0.42633378505706787,
          "411": 0.0014856315683573484,
          "412": -0.6644175052642822,
          "413": -1.1470403671264648,
          "414": -1.060012698173523,
          "415": 0.2616126835346222,
          "416": -0.9156633615493774,
          "417": -1.175458550453186,
          "418": 0.35570642352104187,
          "419": 1.716860294342041,
          "420": 0.8618613481521606,
          "421": -1.0539343357086182,
          "422": 1.730981469154358,
          "423": -0.7513608932495117,
          "424": -0.227571040391922,
          "425": 2.96435809135437,
          "426": 1.024714469909668,
          "427": -0.06020285561680794,
          "428": -2.5363411903381348,
          "429": 0.5120521187782288,
          "430": -1.449073076248169,
          "431": -1.9068666696548462,
          "432": 0.6797803044319153,
          "433": 2.7911739349365234,
          "434": -2.567091703414917,
          "435": 0.1835888773202896,
          "436": -0.373259037733078,
          "437": -0.2798435389995575,
          "438": -1.6123123168945312,
          "439": 0.7650449872016907,
          "440": -0.9941663146018982,
          "441": -0.5097797513008118,
          "442": 0.7606481313705444,
          "443": 2.139432191848755,
          "444": 0.3160736560821533,
          "445": -1.5253006219863892,
          "446": 0.558441162109375,
          "447": 2.161743640899658,
          "448": -1.7887616157531738,
          "449": 0.1521662473678589,
          "450": -0.8510175943374634,
          "451": -0.1035931333899498,
          "452": -0.7858065962791443,
          "453": -1.1569743156433105,
          "454": -1.3550188541412354,
          "455": 0.31778037548065186,
          "456": -0.2788861393928528,
          "457": 1.0725277662277222,
          "458": 0.13730299472808838,
          "459": 0.8765536546707153,
          "460": 0.9712228178977966,
          "461": -0.4896913170814514,
          "462": 0.9609069228172302,
          "463": 1.296830415725708,
          "464": 0.98016357421875,
          "465": 0.11188775300979614,
          "466": 1.8413950204849243,
          "467": -1.1705988645553589,
          "468": 1.6859849691390991,
          "469": -0.20701120793819427,
          "470": -1.083128809928894,
          "471": 0.15562480688095093,
          "472": 1.725115180015564,
          "473": 0.05151110887527466,
          "474": -1.3725497722625732,
          "475": -0.625334620475769,
          "476": 1.5143814086914062,
          "477": -0.6298543214797974,
          "478": -0.49845391511917114,
          "479": 0.26771387457847595,
          "480": 1.109930396080017,
          "481": 1.9203605651855469,
          "482": 0.8688199520111084,
          "483": -0.7439327836036682,
          "484": -1.3237922191619873,
          "485": 0.14679519832134247,
          "486": -0.16922056674957275,
          "487": 0.33701425790786743,
          "488": 1.1581710577011108,
          "489": 0.059524618089199066,
          "490": 1.1274834871292114,
          "491": -0.407552570104599,
          "492": 2.5904273986816406,
          "493": 1.4349451065063477,
          "494": -0.21267497539520264,
          "495": 1.452174186706543,
          "496": -0.13415315747261047,
          "497": -1.1950684785842896,
          "498": 1.3315743207931519,
          "499": -1.3292362689971924,
          "500": 0.5719494819641113,
          "501": -0.5072678327560425,
          "502": -1.2391854524612427,
          "503": 0.24525302648544312,
          "504": -2.586627960205078,
          "505": 1.8112319707870483,
          "506": 0.9959915280342102,
          "507": 0.42689672112464905,
          "508": -0.22253049910068512,
          "509": 0.8238687515258789,
          "510": -0.6209391951560974,
          "511": -0.35467222332954407,
          "512": 0.6337735652923584,
          "513": 1.0130988359451294,
          "514": 2.2721242904663086,
          "515": -0.6830648183822632,
          "516": 0.0903671458363533,
          "517": -1.5926194190979004,
          "518": -0.34032121300697327,
          "519": 0.9657505750656128,
          "520": 2.9862310886383057,
          "521": -1.348012924194336,
          "522": 0.5178513526916504,
          "523": -1.373113751411438,
          "524": 0.9355288147926331,
          "525": -1.1219040155410767,
          "526": -0.16314148902893066,
          "527": 0.6470277309417725,
          "528": -1.7481403350830078,
          "529": 1.0934234857559204,
          "530": 3.9181997776031494,
          "531": 0.9253844618797302,
          "532": -1.187475323677063,
          "533": 0.35112518072128296,
          "534": 3.26826810836792,
          "535": -1.383353352546692,
          "536": 0.17899103462696075,
          "537": -0.5226007103919983,
          "538": -0.3285472095012665,
          "539": -0.829611599445343,
          "540": -0.8831930160522461,
          "541": -1.1709752082824707,
          "542": 0.8353619575500488,
          "543": 1.1007288694381714,
          "544": -1.409759759902954,
          "545": 2.713188409805298,
          "546": 0.7696373462677002,
          "547": 0.16485649347305298,
          "548": -0.32062339782714844,
          "549": 0.5115769505500793,
          "550": 3.3396077156066895,
          "551": -3.1930341720581055,
          "552": -1.169516921043396,
          "553": 0.9816173911094666,
          "554": -0.611068606376648,
          "555": 1.2803665399551392,
          "556": -2.1469082832336426,
          "557": 0.8779656291007996,
          "558": 0.2359417825937271,
          "559": 0.5064140558242798,
          "560": 2.218496561050415,
          "561": -1.3602391481399536,
          "562": 2.6423211097717285,
          "563": -1.7505632638931274,
          "564": 1.6687885522842407,
          "565": -0.9481512308120728,
          "566": 1.0083222389221191,
          "567": -0.9944384098052979,
          "568": -0.3749740421772003,
          "569": -0.08122888952493668,
          "570": -0.2026507705450058,
          "571": -1.2973952293395996,
          "572": -2.402036666870117,
          "573": 0.25405457615852356,
          "574": -0.36025822162628174,
          "575": -0.269341379404068,
          "576": 0.9780808091163635,
          "577": -0.05128093808889389,
          "578": 1.8085873126983643,
          "579": 1.8286138772964478
        }
      },
      "forgetHidden": {
        "rows": 20,
        "columns": 20,
        "weights": {
          "0": -1.0430680513381958,
          "1": -0.27763110399246216,
          "2": -0.8767902851104736,
          "3": 1.2626677751541138,
          "4": -1.2883923053741455,
          "5": 1.0106968879699707,
          "6": -0.2099694162607193,
          "7": 1.3301198482513428,
          "8": 0.5785213112831116,
          "9": 0.7524566054344177,
          "10": 1.4750864505767822,
          "11": -1.179097056388855,
          "12": -0.2773732542991638,
          "13": -2.309443235397339,
          "14": 2.313035249710083,
          "15": -1.2372338771820068,
          "16": -1.8555537462234497,
          "17": -0.36474138498306274,
          "18": 0.5309505462646484,
          "19": 2.246345043182373,
          "20": -0.4022662043571472,
          "21": 2.0013210773468018,
          "22": -0.0334542915225029,
          "23": -0.14448422193527222,
          "24": 0.5638965964317322,
          "25": 0.8609446287155151,
          "26": -1.144565463066101,
          "27": 1.212120771408081,
          "28": 0.1307217925786972,
          "29": -0.7568174600601196,
          "30": 1.3201230764389038,
          "31": 1.9157309532165527,
          "32": -2.6050102710723877,
          "33": 1.5581965446472168,
          "34": 0.1481413096189499,
          "35": 0.8632752299308777,
          "36": 1.3022406101226807,
          "37": 1.3985841274261475,
          "38": -0.20869623124599457,
          "39": -0.33755284547805786,
          "40": -0.1796712577342987,
          "41": -2.3543920516967773,
          "42": 1.1767408847808838,
          "43": 1.588554859161377,
          "44": -1.044396996498108,
          "45": 0.3466065526008606,
          "46": 1.2985172271728516,
          "47": -1.5677706003189087,
          "48": -1.1140624284744263,
          "49": -1.562196969985962,
          "50": -2.1117823123931885,
          "51": 3.136399030685425,
          "52": 0.47718197107315063,
          "53": -0.1920223832130432,
          "54": 1.3560422658920288,
          "55": 0.1862444430589676,
          "56": -2.5704662799835205,
          "57": -2.316566228866577,
          "58": -0.6022313237190247,
          "59": 0.7674831748008728,
          "60": 1.2051414251327515,
          "61": -0.8373968601226807,
          "62": -0.5220603346824646,
          "63": 1.8711384534835815,
          "64": 0.19292046129703522,
          "65": -0.4082202613353729,
          "66": 0.314361572265625,
          "67": 2.388906955718994,
          "68": -0.8875141739845276,
          "69": 0.13974329829216003,
          "70": 0.17767241597175598,
          "71": -0.7293717861175537,
          "72": 1.0016474723815918,
          "73": -0.9696008563041687,
          "74": 0.06402021646499634,
          "75": 0.774176299571991,
          "76": -0.6711958050727844,
          "77": -0.3273301124572754,
          "78": -0.13996464014053345,
          "79": -1.15413498878479,
          "80": -0.22927111387252808,
          "81": 0.7515507936477661,
          "82": 0.11114666610956192,
          "83": 0.6135291457176208,
          "84": 0.16526541113853455,
          "85": 0.5083667039871216,
          "86": 0.3331615924835205,
          "87": 0.7643320560455322,
          "88": 0.25378140807151794,
          "89": 0.26636040210723877,
          "90": 1.545428991317749,
          "91": -0.38032016158103943,
          "92": -0.7234100103378296,
          "93": -0.48166412115097046,
          "94": -1.3260388374328613,
          "95": -0.5822832584381104,
          "96": 0.11590922623872757,
          "97": 0.23266009986400604,
          "98": -0.6719247102737427,
          "99": -0.1627812385559082,
          "100": 0.9892679452896118,
          "101": -0.46005189418792725,
          "102": 0.835949182510376,
          "103": -0.2998294234275818,
          "104": 1.727354645729065,
          "105": -0.4775073528289795,
          "106": -0.6153159737586975,
          "107": 0.13937784731388092,
          "108": 1.6288864612579346,
          "109": -1.3385603427886963,
          "110": 0.5474205613136292,
          "111": 0.21735095977783203,
          "112": -1.7117787599563599,
          "113": 1.296466588973999,
          "114": 2.114004373550415,
          "115": 1.9488129615783691,
          "116": -1.7304095029830933,
          "117": 0.051869504153728485,
          "118": 0.4161413311958313,
          "119": 1.6501991748809814,
          "120": -0.5585885047912598,
          "121": -0.1276855766773224,
          "122": -1.6598652601242065,
          "123": -0.1752479374408722,
          "124": -0.12348274141550064,
          "125": -2.219782590866089,
          "126": 2.28222918510437,
          "127": 1.630503535270691,
          "128": 0.5041801333427429,
          "129": 1.8101600408554077,
          "130": 1.2915984392166138,
          "131": 1.6015985012054443,
          "132": -0.4322558641433716,
          "133": 1.7703250646591187,
          "134": -0.4579618275165558,
          "135": -0.979108452796936,
          "136": 1.6010066270828247,
          "137": -0.28744637966156006,
          "138": -0.6844147443771362,
          "139": 1.1713545322418213,
          "140": 3.3686137199401855,
          "141": -0.9075046181678772,
          "142": -2.3429319858551025,
          "143": -0.007632281165570021,
          "144": 2.773737907409668,
          "145": -4.993801116943359,
          "146": -2.4678051471710205,
          "147": -1.2365691661834717,
          "148": 0.5047171115875244,
          "149": -1.327654242515564,
          "150": 2.914490222930908,
          "151": -1.8889137506484985,
          "152": 0.5400781035423279,
          "153": -1.7534372806549072,
          "154": 1.1710939407348633,
          "155": -0.9213729500770569,
          "156": 1.9593056440353394,
          "157": 1.6448265314102173,
          "158": 3.423675775527954,
          "159": 1.3245347738265991,
          "160": -0.05126432701945305,
          "161": -1.3510891199111938,
          "162": -0.9392666816711426,
          "163": 0.333526074886322,
          "164": 0.160622701048851,
          "165": -0.44842514395713806,
          "166": -0.19854553043842316,
          "167": -1.2183374166488647,
          "168": 0.2800872325897217,
          "169": 0.3771187663078308,
          "170": 0.567852258682251,
          "171": -0.6598564386367798,
          "172": 0.0681779533624649,
          "173": -0.4684276580810547,
          "174": 0.870378851890564,
          "175": 0.043505843728780746,
          "176": -0.1776970773935318,
          "177": -1.434169888496399,
          "178": 0.1703307330608368,
          "179": 1.3201782703399658,
          "180": 0.11351567506790161,
          "181": -0.36503106355667114,
          "182": 2.598588228225708,
          "183": -1.0643268823623657,
          "184": 1.3199023008346558,
          "185": -2.6245334148406982,
          "186": -0.7746602296829224,
          "187": -0.71504807472229,
          "188": -0.30928516387939453,
          "189": -1.990060567855835,
          "190": -1.177683711051941,
          "191": 2.7509818077087402,
          "192": -0.8918441534042358,
          "193": 0.5793649554252625,
          "194": 1.628669023513794,
          "195": 1.671307921409607,
          "196": 0.9344078898429871,
          "197": 2.0518267154693604,
          "198": -0.2001911848783493,
          "199": 2.7716522216796875,
          "200": -1.2977699041366577,
          "201": 0.27194175124168396,
          "202": -0.8313532471656799,
          "203": -3.000714063644409,
          "204": 0.46787333488464355,
          "205": -0.9841215014457703,
          "206": -2.700878143310547,
          "207": -0.7377023100852966,
          "208": 2.7803382873535156,
          "209": 0.22245186567306519,
          "210": 2.0670642852783203,
          "211": -1.7928544282913208,
          "212": -1.1875559091567993,
          "213": -1.3878742456436157,
          "214": -0.37894120812416077,
          "215": -0.8455158472061157,
          "216": 1.070519208908081,
          "217": -1.5968661308288574,
          "218": -0.05779960751533508,
          "219": -1.3091466426849365,
          "220": -0.9537994861602783,
          "221": 0.17664800584316254,
          "222": 0.3628101646900177,
          "223": 0.8656362295150757,
          "224": -1.3488703966140747,
          "225": 0.2317364513874054,
          "226": -0.4654622972011566,
          "227": 2.4351418018341064,
          "228": 0.4340556561946869,
          "229": -0.39624276757240295,
          "230": 0.09887762367725372,
          "231": -0.7661362290382385,
          "232": -0.6815585494041443,
          "233": -0.6635769605636597,
          "234": -0.27797460556030273,
          "235": -1.3822983503341675,
          "236": -1.2430126667022705,
          "237": -0.031684353947639465,
          "238": -0.489215224981308,
          "239": 1.0516304969787598,
          "240": 2.158808708190918,
          "241": 0.9432203769683838,
          "242": -0.9105685353279114,
          "243": -2.607985734939575,
          "244": 2.1417431831359863,
          "245": -1.5750068426132202,
          "246": -0.9259008765220642,
