{
  "type": "LSTM",
  "options": {
    "inputSize": 32,
    "inputRange": 32,
    "hiddenLayers": [
      20,
      20
    ],
    "outputSize": 32,
    "decayRate": 0.999,
    "smoothEps": 1e-8,
    "regc": 0.000001,
    "clipval": 5,
    "maxPredictionLength": 100,
    "dataFormatter": {
      "values": [
        "CPU",
        "I swapped the memory",
        "I tested the databse",
        "code",
        "compueter engineering",
        "drive",
        "he is nice",
        "it needs more memory",
        "power supply",
        "she is playing",
        "software engineering",
        "they added a new RAM",
        "you type"
      ],
      "indexTable": {
        "C": 0,
        "P": 1,
        "U": 2,
        "I": 3,
        " ": 4,
        "s": 5,
        "w": 6,
        "a": 7,
        "p": 8,
        "e": 9,
        "d": 10,
        "t": 11,
        "h": 12,
        "m": 13,
        "o": 14,
        "r": 15,
        "y": 16,
        "b": 17,
        "c": 18,
        "u": 19,
        "n": 20,
        "g": 21,
        "i": 22,
        "v": 23,
        "l": 24,
        "f": 25,
        "R": 26,
        "A": 27,
        "M": 28,
        "stop-input": 29,
        "start-output": 30,
        "unrecognized": 31
      },
      "characterTable": {
        "0": "C",
        "1": "P",
        "2": "U",
        "3": "I",
        "4": " ",
        "5": "s",
        "6": "w",
        "7": "a",
        "8": "p",
        "9": "e",
        "10": "d",
        "11": "t",
        "12": "h",
        "13": "m",
        "14": "o",
        "15": "r",
        "16": "y",
        "17": "b",
        "18": "c",
        "19": "u",
        "20": "n",
        "21": "g",
        "22": "i",
        "23": "v",
        "24": "l",
        "25": "f",
        "26": "R",
        "27": "A",
        "28": "M",
        "29": null,
        "30": null,
        "31": null
      },
      "characters": [
        "C",
        "P",
        "U",
        "I",
        " ",
        "s",
        "w",
        "a",
        "p",
        "e",
        "d",
        "t",
        "h",
        "m",
        "o",
        "r",
        "y",
        "b",
        "c",
        "u",
        "n",
        "g",
        "i",
        "v",
        "l",
        "f",
        "R",
        "A",
        "M",
        "stop-input",
        "start-output",
        "unrecognized"
      ],
      "specialIndexes": [
        29,
        30,
        31
      ]
    }
  },
  "input": {
    "rows": 33,
    "columns": 32,
    "weights": {
      "0": -0.4622313380241394,
      "1": 2.6219491958618164,
      "2": 1.311007022857666,
      "3": 0.12306609004735947,
      "4": 0.967617392539978,
      "5": 0.43459951877593994,
      "6": 0.08372098952531815,
      "7": 0.8336001038551331,
      "8": 2.661905288696289,
      "9": 1.3623135089874268,
      "10": 1.872761845588684,
      "11": -2.742070198059082,
      "12": 0.7485090494155884,
      "13": 0.9992144107818604,
      "14": -0.7758703827857971,
      "15": -0.6808186769485474,
      "16": -0.3963336646556854,
      "17": -1.2770994901657104,
      "18": -2.9677982330322266,
      "19": 2.0508928298950195,
      "20": -2.584315299987793,
      "21": 3.074951648712158,
      "22": -1.4155482053756714,
      "23": -5.142291069030762,
      "24": 0.035814955830574036,
      "25": 1.2728813886642456,
      "26": -0.19700726866722107,
      "27": 1.2121106386184692,
      "28": -2.017484188079834,
      "29": -4.781881809234619,
      "30": 1.9884729385375977,
      "31": 0.8999933004379272,
      "32": -3.3680996894836426,
      "33": -8.669598579406738,
      "34": -10.013628959655762,
      "35": 2.8969812393188477,
      "36": 5.492470741271973,
      "37": -0.6563761234283447,
      "38": -4.67197847366333,
      "39": -2.1647095680236816,
      "40": 1.5064467191696167,
      "41": 1.7717047929763794,
      "42": 12.42807388305664,
      "43": 0.37851226329803467,
      "44": -10.723345756530762,
      "45": 1.998788833618164,
      "46": -3.9293367862701416,
      "47": 11.73960018157959,
      "48": 5.475473880767822,
      "49": 9.81766414642334,
      "50": 8.484892845153809,
      "51": 11.833168029785156,
      "52": 5.415878772735596,
      "53": -9.084174156188965,
      "54": -2.513211488723755,
      "55": 4.674322605133057,
      "56": -6.46187686920166,
      "57": 6.325292587280273,
      "58": 3.1875574588775635,
      "59": -8.154984474182129,
      "60": 7.630961894989014,
      "61": -3.4817333221435547,
      "62": 3.8252041339874268,
      "63": 13.350088119506836,
      "64": -7.34325647354126,
      "65": 20.34552764892578,
      "66": 2.1029558181762695,
      "67": 6.901071548461914,
      "68": -2.539673328399658,
      "69": -11.917724609375,
      "70": -7.822591304779053,
      "71": 0.817402720451355,
      "72": 10.30229377746582,
      "73": 0.8622215390205383,
      "74": -5.655062198638916,
      "75": -8.878401756286621,
      "76": -2.916132926940918,
      "77": -6.261372089385986,
      "78": -2.4934887886047363,
      "79": 0.276034951210022,
      "80": -2.801361083984375,
      "81": -8.293359756469727,
      "82": -6.445529460906982,
      "83": -3.477228879928589,
      "84": -7.237651348114014,
      "85": 10.688833236694336,
      "86": -16.065837860107422,
      "87": -0.09626387059688568,
      "88": -4.902344703674316,
      "89": -3.5424864292144775,
      "90": 8.954617500305176,
      "91": 4.0547637939453125,
      "92": -6.846259117126465,
      "93": -10.125105857849121,
      "94": -0.2104186862707138,
      "95": -3.217876434326172,
      "96": 1.7248153686523438,
      "97": 12.68216323852539,
      "98": -5.50771427154541,
      "99": 1.7693066596984863,
      "100": -0.6240281462669373,
      "101": -0.7683307528495789,
      "102": -0.9200683832168579,
      "103": 0.48494699597358704,
      "104": 9.295536994934082,
      "105": 2.431654930114746,
      "106": -12.34115219116211,
      "107": 12.078424453735352,
      "108": -9.083508491516113,
      "109": -3.922576427459717,
      "110": -8.514460563659668,
      "111": 6.050232887268066,
      "112": 0.4934532046318054,
      "113": -6.845733642578125,
      "114": -0.6495411396026611,
      "115": -16.25001335144043,
      "116": 5.614176273345947,
      "117": -2.657531261444092,
      "118": -3.3777456283569336,
      "119": 1.7829666137695312,
      "120": 13.085930824279785,
      "121": -1.756245732307434,
      "122": 10.815266609191895,
      "123": -4.3444342613220215,
      "124": -1.1894748210906982,
      "125": -1.6189240217208862,
      "126": 1.6797758340835571,
      "127": -7.349445343017578,
      "128": -1.5549830198287964,
      "129": -1.719071626663208,
      "130": 0.690091609954834,
      "131": 4.111244201660156,
      "132": -8.097570419311523,
      "133": 9.476004600524902,
      "134": 2.5999209880828857,
      "135": -2.7500317096710205,
      "136": -0.06884665787220001,
      "137": -2.3915486335754395,
      "138": -4.469696998596191,
      "139": 0.5916449427604675,
      "140": 11.18588638305664,
      "141": -0.12796075642108917,
      "142": 12.975071907043457,
      "143": 6.548889636993408,
      "144": 7.7135138511657715,
      "145": -5.550704002380371,
      "146": -4.592203140258789,
      "147": -4.151669025421143,
      "148": -6.643441677093506,
      "149": 0.8287926912307739,
      "150": 2.2640068531036377,
      "151": -2.3133699893951416,
      "152": -5.508129596710205,
      "153": 0.7981284856796265,
      "154": -9.45950984954834,
      "155": -3.9035685062408447,
      "156": -3.5456814765930176,
      "157": 6.090313911437988,
      "158": -1.0818099975585938,
      "159": 5.486176013946533,
      "160": -0.06640113890171051,
      "161": -0.9973293542861938,
      "162": -1.3984495401382446,
      "163": 0.4014434814453125,
      "164": 1.5612280368804932,
      "165": 0.04520339518785477,
      "166": -1.330422282218933,
      "167": 0.893713653087616,
      "168": 1.0162065029144287,
      "169": 1.6037248373031616,
      "170": 1.8213372230529785,
      "171": -0.24715182185173035,
      "172": -0.7876436710357666,
      "173": 0.3765389919281006,
      "174": 1.4253555536270142,
      "175": 1.053268313407898,
      "176": -4.970227241516113,
      "177": 3.0041863918304443,
      "178": 1.8593989610671997,
      "179": 2.1392242908477783,
      "180": -2.8773345947265625,
      "181": -1.5067721605300903,
      "182": -2.2809958457946777,
      "183": -1.3595045804977417,
      "184": -2.5636367797851562,
      "185": 1.317607045173645,
      "186": -1.2689533233642578,
      "187": 1.29300856590271,
      "188": 0.8662710189819336,
      "189": -5.049663066864014,
      "190": -0.613673210144043,
      "191": 2.240800142288208,
      "192": -2.4699769020080566,
      "193": 0.3337692618370056,
      "194": 2.263084650039673,
      "195": 0.3197368383407593,
      "196": -3.1975772380828857,
      "197": -0.26551368832588196,
      "198": 2.6477279663085938,
      "199": -0.9782237410545349,
      "200": -0.1672934591770172,
      "201": 2.914179563522339,
      "202": -1.382580280303955,
      "203": 0.46371132135391235,
      "204": 3.7043557167053223,
      "205": -5.764269828796387,
      "206": 0.9325509667396545,
      "207": 2.591933250427246,
      "208": 3.0297060012817383,
      "209": -2.3004350662231445,
      "210": -1.8743406534194946,
      "211": 2.0522608757019043,
      "212": -0.7935077548027039,
      "213": 1.8953194618225098,
      "214": -1.8313676118850708,
      "215": -0.25255879759788513,
      "216": 1.6339303255081177,
      "217": 1.1021465063095093,
      "218": 0.04307660460472107,
      "219": 0.29742252826690674,
      "220": -2.847022771835327,
      "221": -1.1257975101470947,
      "222": -3.3631715774536133,
      "223": -1.41730535030365,
      "224": -4.622106552124023,
      "225": -2.983297109603882,
      "226": -4.43546199798584,
      "227": 2.381892681121826,
      "228": 2.4209818840026855,
      "229": -0.2699415683746338,
      "230": -0.48721739649772644,
      "231": -3.1206488609313965,
      "232": -0.2876296043395996,
      "233": -2.4271037578582764,
      "234": -0.26385924220085144,
      "235": 0.8744377493858337,
      "236": -3.043255567550659,
      "237": 0.46667253971099854,
      "238": -1.676663875579834,
      "239": -1.3235234022140503,
      "240": -0.758762776851654,
      "241": -0.9485571384429932,
      "242": -0.33992627263069153,
      "243": -1.5028375387191772,
      "244": 2.5299689769744873,
      "245": -0.4076472520828247,
      "246": -4.681610107421875,
      "247": -0.8194154500961304,
      "248": 3.102786064147949,
      "249": 1.7724130153656006,
      "250": 0.7619262933731079,
      "251": -2.0963046550750732,
      "252": 5.312883377075195,
      "253": -2.8807618618011475,
      "254": 2.188098669052124,
      "255": 1.5755689144134521,
      "256": -5.090782165527344,
      "257": -1.0348145961761475,
      "258": 1.10454261302948,
      "259": -1.4344145059585571,
      "260": 1.9944689273834229,
      "261": 0.19506444036960602,
      "262": -1.0859532356262207,
      "263": 2.256434440612793,
      "264": 1.8536230325698853,
      "265": -0.582301139831543,
      "266": -2.035874605178833,
      "267": 1.2410463094711304,
      "268": -1.5049552917480469,
      "269": -0.5797844529151917,
      "270": -5.1031622886657715,
      "271": -1.0959715843200684,
      "272": -0.8677746653556824,
      "273": -2.01456880569458,
      "274": 0.8268150091171265,
      "275": 0.05953947827219963,
      "276": 2.279421806335449,
      "277": 0.5875388383865356,
      "278": 1.8984029293060303,
      "279": 0.07751981914043427,
      "280": -0.6652179956436157,
      "281": -2.7768001556396484,
      "282": 3.182115077972412,
      "283": -6.413253307342529,
      "284": 0.38712435960769653,
      "285": -1.0326910018920898,
      "286": 4.911671161651611,
      "287": -5.63291072845459,
      "288": -3.875044345855713,
      "289": -1.5207825899124146,
      "290": -5.436923980712891,
      "291": -2.1234447956085205,
      "292": -0.5140537023544312,
      "293": 0.8783249258995056,
      "294": -2.102017641067505,
      "295": 0.28907015919685364,
      "296": 1.388548493385315,
      "297": 3.0014355182647705,
      "298": 3.9087913036346436,
      "299": 0.3857683539390564,
      "300": -5.313799858093262,
      "301": 3.4913530349731445,
      "302": 0.7977622747421265,
      "303": 3.60172700881958,
      "304": -1.8256044387817383,
      "305": 5.097968578338623,
      "306": -0.4362303614616394,
      "307": 3.1531341075897217,
      "308": -2.7627859115600586,
      "309": 0.8397579789161682,
      "310": -1.0289480686187744,
      "311": -2.255134105682373,
      "312": 0.9593237638473511,
      "313": 7.932988166809082,
      "314": -2.216453790664673,
      "315": 3.6392428874969482,
      "316": 1.1229722499847412,
      "317": -2.529423475265503,
      "318": 2.3572609424591064,
      "319": 0.8986720442771912,
      "320": -1.9698288440704346,
      "321": -1.564026117324829,
      "322": -1.4479806423187256,
      "323": 3.8321845531463623,
      "324": 0.08506718277931213,
      "325": -0.7312458157539368,
      "326": -0.07274656742811203,
      "327": -2.2634899616241455,
      "328": 0.6821985840797424,
      "329": 2.9083032608032227,
      "330": 0.452119916677475,
      "331": -0.7657213807106018,
      "332": -0.11064083874225616,
      "333": -0.3044731318950653,
      "334": 1.5334824323654175,
      "335": 2.5088906288146973,
      "336": -1.416431188583374,
      "337": 2.3564159870147705,
      "338": 0.7080652117729187,
      "339": 0.5289535522460938,
      "340": -1.978026032447815,
      "341": 2.518359422683716,
      "342": -4.4570817947387695,
      "343": -1.1547057628631592,
      "344": -0.9032532572746277,
      "345": 1.9490147829055786,
      "346": 1.618543028831482,
      "347": 0.5454040765762329,
      "348": -1.9348152875900269,
      "349": -1.674440860748291,
      "350": -0.1171555295586586,
      "351": 2.7610104084014893,
      "352": 0.7435909509658813,
      "353": 2.553525924682617,
      "354": -1.9475388526916504,
      "355": -2.8471672534942627,
      "356": -1.7598400115966797,
      "357": 1.8603150844573975,
      "358": 8.437865257263184,
      "359": -0.1408303827047348,
      "360": -4.296724319458008,
      "361": 3.9144914150238037,
      "362": -0.34811267256736755,
      "363": -2.6247260570526123,
      "364": 6.154037952423096,
      "365": -0.15466773509979248,
      "366": -0.388417512178421,
      "367": -1.832410454750061,
      "368": 3.1134891510009766,
      "369": 0.6939995288848877,
      "370": -3.3217172622680664,
      "371": -1.2897826433181763,
      "372": -1.5292232036590576,
      "373": -7.148636817932129,
      "374": -2.8729145526885986,
      "375": -5.442788600921631,
      "376": 2.1584439277648926,
      "377": -1.3262525796890259,
      "378": -1.5861960649490356,
      "379": 1.1095765829086304,
      "380": -6.963067531585693,
      "381": -2.4986796379089355,
      "382": -2.3480193614959717,
      "383": -1.1457839012145996,
      "384": -1.9661571979522705,
      "385": -0.2334194928407669,
      "386": 0.3526856601238251,
      "387": -1.9407453536987305,
      "388": -2.2412831783294678,
      "389": -0.9241953492164612,
      "390": -0.07359601557254791,
      "391": 1.79217529296875,
      "392": 0.6333196759223938,
      "393": 1.1496689319610596,
      "394": 1.6936061382293701,
      "395": -4.617822170257568,
      "396": 0.4806275963783264,
      "397": 2.0198352336883545,
      "398": 3.196296215057373,
      "399": 1.9868321418762207,
      "400": 5.039843559265137,
      "401": 0.18628820776939392,
      "402": -0.20799382030963898,
      "403": -2.2544517517089844,
      "404": 1.1833316087722778,
      "405": 2.1423938274383545,
      "406": -1.468051552772522,
      "407": -1.6368483304977417,
      "408": 1.4646644592285156,
      "409": -1.4276469945907593,
      "410": -2.9824512004852295,
      "411": 0.8349877595901489,
      "412": -4.700263023376465,
      "413": 0.03051898069679737,
      "414": -1.6079301834106445,
      "415": -0.7043409943580627,
      "416": 2.8579494953155518,
      "417": 7.204586505889893,
      "418": 0.760578989982605,
      "419": -1.2636929750442505,
      "420": -0.9255710244178772,
      "421": -10.494837760925293,
      "422": -2.685110330581665,
      "423": 3.4992289543151855,
      "424": 3.3922505378723145,
      "425": 5.169156074523926,
      "426": 2.435203790664673,
      "427": 1.3201956748962402,
      "428": -8.450766563415527,
      "429": -2.790306568145752,
      "430": -1.5957660675048828,
      "431": 0.5957430601119995,
      "432": 1.7416306734085083,
      "433": 1.8484257459640503,
      "434": 2.038569688796997,
      "435": -5.111117839813232,
      "436": -0.22374479472637177,
      "437": 2.150054931640625,
      "438": -3.6973249912261963,
      "439": 0.3916076421737671,
      "440": 1.4367015361785889,
      "441": 2.3629515171051025,
      "442": 0.6539908647537231,
      "443": 1.5111690759658813,
      "444": -0.45572662353515625,
      "445": -1.0253859758377075,
      "446": 0.09016333520412445,
      "447": -2.8365046977996826,
      "448": 2.0334866046905518,
      "449": 3.532029390335083,
      "450": 0.4006896913051605,
      "451": 2.397946834564209,
      "452": -3.3698861598968506,
      "453": -4.9715142250061035,
      "454": 2.558152675628662,
      "455": 0.3049808740615845,
      "456": -1.5149502754211426,
      "457": 0.8532202243804932,
      "458": -3.844280481338501,
      "459": 2.9018001556396484,
      "460": -0.753386378288269,
      "461": -5.504992485046387,
      "462": 2.7321789264678955,
      "463": -6.8508687019348145,
      "464": 5.56882381439209,
      "465": -3.6884539127349854,
      "466": 0.8912097811698914,
      "467": -7.857120990753174,
      "468": 2.929563045501709,
      "469": -2.2390546798706055,
      "470": -4.82061767578125,
      "471": -1.017954707145691,
      "472": 3.0048978328704834,
      "473": -3.632502555847168,
      "474": 3.0252444744110107,
      "475": -1.1638998985290527,
      "476": 0.7032084465026855,
      "477": -0.99834805727005,
      "478": -3.855347156524658,
      "479": 1.6540080308914185,
      "480": 1.0670733451843262,
      "481": -1.1442426443099976,
      "482": -0.2156180441379547,
      "483": -0.07157015055418015,
      "484": 1.6835498809814453,
      "485": 0.9426734447479248,
      "486": 0.870345413684845,
      "487": -1.609267234802246,
      "488": 2.782526969909668,
      "489": -1.5072451829910278,
      "490": -0.5917155146598816,
      "491": 1.7139179706573486,
      "492": -3.0870728492736816,
      "493": 0.592385470867157,
      "494": -0.6413927674293518,
      "495": -2.470909833908081,
      "496": -0.6242546439170837,
      "497": -1.5021650791168213,
      "498": 2.1084437370300293,
      "499": 0.29477718472480774,
      "500": 1.154822587966919,
      "501": 0.6388596296310425,
      "502": 1.2700632810592651,
      "503": 1.542786955833435,
      "504": 0.5475897192955017,
      "505": 1.6901425123214722,
      "506": 2.6765975952148438,
      "507": -1.9234882593154907,
      "508": 2.6774613857269287,
      "509": -1.0762897729873657,
      "510": 1.3180348873138428,
      "511": -1.8561497926712036,
      "512": -0.2521716356277466,
      "513": 0.889408528804779,
      "514": -0.18581752479076385,
      "515": -0.4853542149066925,
      "516": -5.452489376068115,
      "517": -1.6555346250534058,
      "518": 2.7767224311828613,
      "519": 1.7517027854919434,
      "520": 0.3131985068321228,
      "521": 5.1076154708862305,
      "522": -0.09133243560791016,
      "523": -2.379411458969116,
      "524": 0.9266113042831421,
      "525": -0.40330612659454346,
      "526": 3.2915844917297363,
      "527": 2.648583173751831,
      "528": 0.7428299188613892,
      "529": 0.6588555574417114,
      "530": -1.118969202041626,
      "531": -1.1283859014511108,
      "532": 0.2606845796108246,
      "533": 1.355069875717163,
      "534": -0.7549606561660767,
      "535": -1.4917316436767578,
      "536": 0.26261383295059204,
      "537": -2.4700915813446045,
      "538": -0.44766926765441895,
      "539": 1.2280604839324951,
      "540": -4.218657493591309,
      "541": 1.2895050048828125,
      "542": -0.17213347554206848,
      "543": -0.06955194473266602,
      "544": -2.9223411083221436,
      "545": -2.206371545791626,
      "546": -3.025710105895996,
      "547": 6.299725532531738,
      "548": -6.163154602050781,
      "549": 0.22819848358631134,
      "550": -0.4723850190639496,
      "551": -3.5871987342834473,
      "552": 3.6860275268554688,
      "553": 3.581721782684326,
      "554": -6.559447765350342,
      "555": 1.7618179321289062,
      "556": -1.5565879344940186,
      "557": -5.770617961883545,
      "558": 0.05374748632311821,
      "559": 1.3458706140518188,
      "560": -1.0581378936767578,
      "561": 0.03381716459989548,
      "562": -1.03448486328125,
      "563": 1.4514720439910889,
      "564": -0.27976441383361816,
      "565": 5.666139602661133,
      "566": 5.3604512214660645,
      "567": 2.7961502075195312,
      "568": 2.155897378921509,
      "569": 6.060028553009033,
      "570": 5.551141738891602,
      "571": 4.4153337478637695,
      "572": -2.0979177951812744,
      "573": -0.0727204829454422,
      "574": -2.9273664951324463,
      "575": -0.21872688829898834,
      "576": 7.4022088050842285,
      "577": 2.9826290607452393,
      "578": -11.074016571044922,
      "579": 6.7558488845825195,
      "580": 1.840757131576538,
      "581": -13.790989875793457,
      "582": -0.09452038258314133,
      "583": 11.950014114379883,
      "584": -10.861433029174805,
      "585": 10.547728538513184,
      "586": 1.8749635219573975,
      "587": -2.498570203781128,
      "588": -7.8511457443237305,
      "589": -5.310949802398682,
      "590": -2.8428916931152344,
      "591": 7.494378089904785,
      "592": 1.9668728113174438,
      "593": 8.98914623260498,
      "594": -7.480607986450195,
      "595": -0.011461776681244373,
      "596": -17.32545280456543,
      "597": 5.275853633880615,
      "598": -14.758490562438965,
      "599": -5.9257659912109375,
      "600": 1.721017599105835,
      "601": 7.577020168304443,
      "602": -3.8297178745269775,
      "603": -1.2983533143997192,
      "604": -0.18956555426120758,
      "605": 0.5899289846420288,
      "606": 8.06900405883789,
      "607": 7.090368270874023,
      "608": 1.8043012619018555,
      "609": -0.6227146983146667,
      "610": -4.556759834289551,
      "611": 0.04125497117638588,
      "612": -3.624793291091919,
      "613": 3.895597219467163,
      "614": -1.699828863143921,
      "615": -4.13859224319458,
      "616": -1.5239667892456055,
      "617": 2.0082502365112305,
      "618": 1.2990217208862305,
      "619": 4.089369773864746,
      "620": -1.8628246784210205,
      "621": 11.889289855957031,
      "622": -1.1937055587768555,
      "623": 4.2485880851745605,
      "624": -0.2582223415374756,
      "625": 2.5440893173217773,
      "626": 1.521148681640625,
      "627": 2.0655059814453125,
      "628": 1.26223623752594,
      "629": -4.1731719970703125,
      "630": -0.13663551211357117,
      "631": 4.294368743896484,
      "632": -5.109023571014404,
      "633": 0.0030874288640916348,
      "634": -1.7126655578613281,
      "635": -0.8198861479759216,
      "636": 0.6184379458427429,
      "637": 2.5315029621124268,
      "638": 1.6271514892578125,
      "639": 1.449083685874939,
      "640": -0.9163198471069336,
      "641": 1.7516056299209595,
      "642": -0.5472103357315063,
      "643": -0.7087764739990234,
      "644": 5.240203857421875,
      "645": -1.4707317352294922,
      "646": 2.9694406986236572,
      "647": 0.7421362996101379,
      "648": 1.490288257598877,
      "649": -1.8483632802963257,
      "650": -0.40067288279533386,
      "651": -0.9021304249763489,
      "652": -1.3161202669143677,
      "653": -2.775789737701416,
      "654": -4.541657447814941,
      "655": -3.5964131355285645,
      "656": 8.269393920898438,
      "657": -1.6951398849487305,
      "658": -3.148810625076294,
      "659": -1.6219037771224976,
      "660": -1.4800385236740112,
      "661": -1.8326444625854492,
      "662": 0.45176073908805847,
      "663": 0.6680231094360352,
      "664": 4.487395286560059,
      "665": 1.6153165102005005,
      "666": 2.085073709487915,
      "667": 1.423778772354126,
      "668": 0.7106073498725891,
      "669": 3.4299962520599365,
      "670": 4.144362926483154,
      "671": 3.250640869140625,
      "672": 0.8866784572601318,
      "673": -2.515590190887451,
      "674": 2.089740753173828,
      "675": -2.0130674839019775,
      "676": -0.39408180117607117,
      "677": -0.8021702170372009,
      "678": -2.04542875289917,
      "679": -1.9389259815216064,
      "680": -3.424497604370117,
      "681": -1.2906924486160278,
      "682": -1.1644301414489746,
      "683": 2.994737386703491,
      "684": 0.17966273427009583,
      "685": 0.8176239728927612,
      "686": 5.927961349487305,
      "687": 0.923414409160614,
      "688": -2.987001657485962,
      "689": 0.8366142511367798,
      "690": 2.4035115242004395,
      "691": -1.4804965257644653,
      "692": -1.4021060466766357,
      "693": -0.4627991020679474,
      "694": 0.0049421535804867744,
      "695": 2.5902814865112305,
      "696": -1.7688316106796265,
      "697": 0.4086056649684906,
      "698": -0.22678624093532562,
      "699": -2.02605938911438,
      "700": -0.2723512351512909,
      "701": 0.8379068970680237,
      "702": -0.48308807611465454,
      "703": 0.1362423598766327,
      "704": -0.8855484127998352,
      "705": -0.9710198640823364,
      "706": 1.7090795040130615,
      "707": -0.2644999027252197,
      "708": 0.40253549814224243,
      "709": -1.5967214107513428,
      "710": -2.876218318939209,
      "711": -0.7394390106201172,
      "712": 1.6444731950759888,
      "713": -2.4703617095947266,
      "714": 0.28858354687690735,
      "715": 1.194959044456482,
      "716": -0.7945658564567566,
      "717": 0.2558645009994507,
      "718": -0.9037237763404846,
      "719": 1.7649279832839966,
      "720": -3.6345176696777344,
      "721": -2.664196491241455,
      "722": 0.16823944449424744,
      "723": 1.7369683980941772,
      "724": 0.6054176688194275,
      "725": 1.8906980752944946,
      "726": 1.8907638788223267,
      "727": 2.724595308303833,
      "728": -0.21494951844215393,
      "729": -0.2542635500431061,
      "730": 4.139560222625732,
      "731": -3.500641107559204,
      "732": 2.1016931533813477,
      "733": -1.4396946430206299,
      "734": -0.6387180089950562,
      "735": -1.9031213521957397,
      "736": -0.26224514842033386,
      "737": -6.007481098175049,
      "738": -2.3254730701446533,
      "739": 3.4679224491119385,
      "740": -1.0248079299926758,
      "741": 2.700200080871582,
      "742": 0.5058602094650269,
      "743": -0.9742488265037537,
      "744": -5.46251916885376,
      "745": 1.835201382637024,
      "746": -1.3503180742263794,
      "747": 0.1351718157529831,
      "748": 0.33729228377342224,
      "749": -0.3810206353664398,
      "750": 1.7606500387191772,
      "751": 3.2676708698272705,
      "752": 0.8638709187507629,
      "753": 2.6757378578186035,
      "754": -0.14942917227745056,
      "755": 0.21164970099925995,
      "756": 0.13170620799064636,
      "757": -3.6750781536102295,
      "758": 1.982810616493225,
      "759": 3.185281753540039,
      "760": -1.2042893171310425,
      "761": -0.22075971961021423,
      "762": -1.3944745063781738,
      "763": -0.9047895669937134,
      "764": -0.07966715097427368,
      "765": 3.1111249923706055,
      "766": -0.6009874939918518,
      "767": -0.18113671243190765,
      "768": 7.082975387573242,
      "769": -2.687365770339966,
      "770": 10.637802124023438,
      "771": 2.7400498390197754,
      "772": -0.551310658454895,
      "773": -2.152764320373535,
      "774": -8.03857707977295,
      "775": -3.2571427822113037,
      "776": 7.675260543823242,
      "777": -14.834715843200684,
      "778": -1.4668463468551636,
      "779": 7.83036470413208,
      "780": -4.243334770202637,
      "781": 2.0760324001312256,
      "782": -4.991724014282227,
      "783": -1.7073544263839722,
      "784": -4.684568405151367,
      "785": -6.41517972946167,
      "786": 6.5666184425354,
      "787": 1.0823112726211548,
      "788": -1.2948617935180664,
      "789": 2.204564332962036,
      "790": 9.255301475524902,
      "791": 5.144412517547607,
      "792": 1.7382711172103882,
      "793": -0.7478909492492676,
      "794": 7.083773612976074,
      "795": -4.049940586090088,
      "796": 10.959179878234863,
      "797": -3.1346733570098877,
      "798": -0.6228190660476685,
      "799": -9.5133638381958,
      "800": -1.510693073272705,
      "801": 0.2735683023929596,
      "802": 6.4296369552612305,
      "803": -1.871163010597229,
      "804": 1.6877073049545288,
      "805": -2.724607467651367,
      "806": -6.646524429321289,
      "807": 1.2313324213027954,
      "808": 3.585552930831909,
      "809": -2.9664649963378906,
      "810": 0.6883571743965149,
      "811": 0.9850505590438843,
      "812": 2.1336917877197266,
      "813": 2.0874388217926025,
      "814": -1.8925966024398804,
      "815": 3.6862611770629883,
      "816": -6.0766119956970215,
      "817": -4.346191883087158,
      "818": 1.376705527305603,
      "819": 1.3551353216171265,
      "820": 2.7883141040802,
      "821": 4.392549514770508,
      "822": 4.4522013664245605,
      "823": 2.3708465099334717,
      "824": 0.072210393846035,
      "825": -4.319746494293213,
      "826": 2.6914737224578857,
      "827": -3.0181968212127686,
      "828": -0.671718955039978,
      "829": 0.525075376033783,
      "830": -4.8980183601379395,
      "831": -5.1314826011657715,
      "832": -2.998558282852173,
      "833": 0.009314961731433868,
      "834": -0.37253203988075256,
      "835": -1.9414178133010864,
      "836": -1.6920870542526245,
      "837": 5.174539566040039,
      "838": 2.7666218280792236,
      "839": 3.2182576656341553,
      "840": 0.17157603800296783,
      "841": 1.4682222604751587,
      "842": -1.4041110277175903,
      "843": -0.918471097946167,
      "844": 3.298490285873413,
      "845": 1.541569471359253,
      "846": -3.922464609146118,
      "847": -3.3346738815307617,
      "848": 1.3747552633285522,
      "849": -3.409423589706421,
      "850": -1.3021767139434814,
      "851": 0.6220731139183044,
      "852": 2.8560678958892822,
      "853": -5.879232883453369,
      "854": 1.4716682434082031,
      "855": -7.969528675079346,
      "856": 1.321227788925171,
      "857": -3.3010520935058594,
      "858": -0.35459551215171814,
      "859": 1.7565147876739502,
      "860": 2.7490546703338623,
      "861": -1.4091204404830933,
      "862": -0.9032814502716064,
      "863": -6.583869457244873,
      "864": 6.5088372230529785,
      "865": 6.060643672943115,
      "866": 1.1480385065078735,
      "867": 9.977120399475098,
      "868": -12.731423377990723,
      "869": 0.7717057466506958,
      "870": -0.7844552397727966,
      "871": 1.2013894319534302,
      "872": 6.0808515548706055,
      "873": 6.479270935058594,
      "874": 2.1822338104248047,
      "875": 1.673208236694336,
      "876": -2.749073028564453,
      "877": 2.1263105869293213,
      "878": -1.3938401937484741,
      "879": -3.073523998260498,
      "880": 0.8276445269584656,
      "881": -9.806270599365234,
      "882": -11.130779266357422,
      "883": -0.8383296728134155,
      "884": -5.4473676681518555,
      "885": 3.0993146896362305,
      "886": -8.811059951782227,
      "887": 2.436415433883667,
      "888": -0.28142473101615906,
      "889": 6.96779203414917,
      "890": -9.044512748718262,
      "891": 9.995966911315918,
      "892": -8.295858383178711,
      "893": -11.316305160522461,
      "894": -8.15815258026123,
      "895": -4.659878730773926,
      "896": -3.6074037551879883,
      "897": -6.34254264831543,
      "898": 3.511000633239746,
      "899": -3.923997163772583,
      "900": 4.119333267211914,
      "901": 6.040762424468994,
      "902": 3.1476657390594482,
      "903": -7.10107421875,
      "904": -3.529515266418457,
      "905": -0.41619405150413513,
      "906": -3.7836949825286865,
      "907": -1.3203575611114502,
      "908": -7.610896587371826,
      "909": -1.1927971839904785,
      "910": 9.771149635314941,
      "911": -3.123415946960449,
      "912": 9.542222023010254,
      "913": 6.948300361633301,
      "914": -3.534527540206909,
      "915": -0.9163431525230408,
      "916": 5.187297821044922,
      "917": -5.232686519622803,
      "918": 11.113651275634766,
      "919": 8.520305633544922,
      "920": -6.110068321228027,
      "921": -7.5641350746154785,
      "922": 0.25687357783317566,
      "923": -1.4906647205352783,
      "924": 8.477086067199707,
      "925": 14.188713073730469,
      "926": -2.5749683380126953,
      "927": 2.743337631225586,
      "928": -4.354016304016113,
      "929": -5.23098611831665,
      "930": -3.9597058296203613,
      "931": 10.280299186706543,
      "932": -2.6689364910125732,
      "933": -4.657121658325195,
      "934": 1.2823996543884277,
      "935": 0.7807432413101196,
      "936": 0.5660990476608276,
      "937": 7.2429070472717285,
      "938": -6.48832893371582,
      "939": -4.64300537109375,
      "940": -9.99948787689209,
      "941": -15.335725784301758,
      "942": -5.363327503204346,
      "943": 3.671785354614258,
      "944": -0.8748183846473694,
      "945": 3.587730646133423,
      "946": -7.890872478485107,
      "947": 5.926018714904785,
      "948": -8.025150299072266,
      "949": 12.641609191894531,
      "950": 0.8231935501098633,
      "951": -0.0062551056034862995,
      "952": 7.422497749328613,
      "953": 10.739466667175293,
      "954": -5.10610818862915,
      "955": 8.102702140808105,
      "956": 1.7043383121490479,
      "957": 2.4010848999023438,
      "958": -2.858177423477173,
      "959": -7.63940954208374,
      "960": -0.5673828125,
      "961": 2.0228006839752197,
      "962": -0.3891223073005676,
      "963": 3.4892852306365967,
      "964": -4.79525089263916,
      "965": -2.46455979347229,
      "966": -2.1237223148345947,
      "967": 0.08884697407484055,
      "968": 3.7134928703308105,
      "969": -0.08414581418037415,
      "970": -0.48835334181785583,
      "971": 0.8037218451499939,
      "972": -0.37525227665901184,
      "973": 1.3841255903244019,
      "974": 0.8412661552429199,
      "975": -1.7024949789047241,
      "976": 1.0521756410598755,
      "977": -1.1606378555297852,
      "978": -1.7292183637619019,
      "979": -0.3028157353401184,
      "980": -1.9846382141113281,
      "981": 4.5841217041015625,
      "982": -1.8123860359191895,
      "983": 1.2641860246658325,
      "984": -0.5646077990531921,
      "985": 2.5243515968322754,
      "986": -1.6564377546310425,
      "987": 1.9323954582214355,
      "988": -3.081549882888794,
      "989": -2.4921088218688965,
      "990": -2.988262891769409,
      "991": -0.24745957553386688,
      "992": 0.32546353340148926,
      "993": -1.2433955669403076,
      "994": -1.042361855506897,
      "995": 1.234378695487976,
      "996": 0.15366975963115692,
      "997": 2.271472930908203,
      "998": -0.32719847559928894,
      "999": 1.0812838077545166,
      "1000": 0.11959525942802429,
      "1001": -1.0419715642929077,
      "1002": 3.8275680541992188,
      "1003": 0.8311609029769897,
      "1004": -1.9217740297317505,
      "1005": 0.8083045482635498,
      "1006": 0.6424163579940796,
      "1007": -0.08454784005880356,
      "1008": 1.0931016206741333,
      "1009": 3.063795328140259,
      "1010": 3.218851089477539,
      "1011": 0.4395288825035095,
      "1012": -5.455641269683838,
      "1013": 1.3358981609344482,
      "1014": -0.08580915629863739,
      "1015": -0.03881034627556801,
      "1016": -0.7964858412742615,
      "1017": 3.811107635498047,
      "1018": -1.5378822088241577,
      "1019": 0.3077836334705353,
      "1020": 2.149531364440918,
      "1021": 0.9704033732414246,
      "1022": 0.039933010935783386,
      "1023": 2.652543544769287,
      "1024": 0.04039080813527107,
      "1025": 0.031716518104076385,
      "1026": -0.041000135242938995,
      "1027": -0.01645938865840435,
      "1028": -0.037909649312496185,
      "1029": 0.032749321311712265,
      "1030": -0.04941057786345482,
      "1031": -0.01827981323003769,
      "1032": 0.024295521900057793,
      "1033": -0.06410844624042511,
      "1034": -0.03450053185224533,
      "1035": -0.055282119661569595,
      "1036": 0.00741150788962841,
      "1037": 0.0184023380279541,
      "1038": -0.0430852472782135,
      "1039": 0.03989705815911293,
      "1040": 0.05517098680138588,
      "1041": 0.06342821568250656,
      "1042": -0.026093734428286552,
      "1043": -0.009060976095497608,
      "1044": -0.058770567178726196,
      "1045": 0.03941145911812782,
      "1046": -0.05859320983290672,
      "1047": -0.06200592964887619,
      "1048": 0.008974695578217506,
      "1049": 0.0384085513651371,
      "1050": -0.045406050980091095,
      "1051": -0.01710381731390953,
      "1052": -0.02628282830119133,
      "1053": -0.06078202277421951,
      "1054": 0.04333500564098358,
      "1055": 0.04976031556725502
    }
  },
  "hiddenLayers": [
    {
      "inputMatrix": {
        "rows": 20,
        "columns": 32,
        "weights": {
          "0": -0.920973539352417,
          "1": -2.5010643005371094,
          "2": -1.4113670587539673,
          "3": -0.05782157555222511,
          "4": -1.663318157196045,
          "5": 0.7385783195495605,
          "6": 3.008159637451172,
          "7": 0.6101643443107605,
          "8": -0.8914738297462463,
          "9": 1.359178066253662,
          "10": 1.8472565412521362,
          "11": -1.2376092672348022,
          "12": 1.6958237886428833,
          "13": 4.383932113647461,
          "14": 0.36795252561569214,
          "15": 0.06467059999704361,
          "16": -0.34329211711883545,
          "17": 5.195014476776123,
          "18": 1.5197157859802246,
          "19": -1.0863577127456665,
          "20": 0.15471099317073822,
          "21": -3.5914838314056396,
          "22": -0.8832100629806519,
          "23": -2.2160532474517822,
          "24": -1.767967939376831,
          "25": -0.03236908093094826,
          "26": -1.6469752788543701,
          "27": 0.5633305311203003,
          "28": -0.481567919254303,
          "29": 1.1869784593582153,
          "30": -0.5524502396583557,
          "31": 1.1810864210128784,
          "32": -2.045137405395508,
          "33": 2.4373607635498047,
          "34": 0.05123735964298248,
          "35": -1.2448694705963135,
          "36": -1.194042682647705,
          "37": 1.6639307737350464,
          "38": 2.127600908279419,
          "39": 0.598209023475647,
          "40": -2.2873761653900146,
          "41": 1.8715662956237793,
          "42": -2.0299816131591797,
          "43": 0.27844518423080444,
          "44": 3.7694036960601807,
          "45": -1.8714667558670044,
          "46": -0.41750532388687134,
          "47": -1.7472413778305054,
          "48": 3.0661561489105225,
          "49": -1.3045132160186768,
          "50": -1.269175410270691,
          "51": 0.4849989116191864,
          "52": 3.572114944458008,
          "53": -0.6133122444152832,
          "54": 1.1563568115234375,
          "55": -0.43566200137138367,
          "56": -0.45467808842658997,
          "57": -4.3972344398498535,
          "58": -0.535775899887085,
          "59": 0.5970239043235779,
          "60": -0.24548961222171783,
          "61": 3.4101409912109375,
          "62": -1.3393467664718628,
          "63": -1.545877456665039,
          "64": 1.4323139190673828,
          "65": 1.0758763551712036,
          "66": 0.25595441460609436,
          "67": 1.3730899095535278,
          "68": -2.8533754348754883,
          "69": -0.5096214413642883,
          "70": -0.0976579561829567,
          "71": 0.6595712304115295,
          "72": 1.1282497644424438,
          "73": 1.9396517276763916,
          "74": 3.3113749027252197,
          "75": -1.795404314994812,
          "76": 0.6483826041221619,
          "77": -1.4470500946044922,
          "78": 0.23066259920597076,
          "79": -1.1124937534332275,
          "80": 1.7332830429077148,
          "81": -0.2963900864124298,
          "82": -0.47522538900375366,
          "83": 1.6809169054031372,
          "84": -3.2331695556640625,
          "85": 1.473304033279419,
          "86": -0.7502914071083069,
          "87": -3.1855881214141846,
          "88": 1.0848612785339355,
          "89": 0.21639877557754517,
          "90": -0.3203585743904114,
          "91": 3.508802890777588,
          "92": -2.7850518226623535,
          "93": -2.279446840286255,
          "94": -3.4753785133361816,
          "95": 5.343499660491943,
          "96": 0.8757497668266296,
          "97": 0.38344669342041016,
          "98": 0.3324583172798157,
          "99": 0.18765966594219208,
          "100": -2.2076222896575928,
          "101": -5.046693801879883,
          "102": -4.641633987426758,
          "103": 1.823530912399292,
          "104": -0.654346227645874,
          "105": -2.1444175243377686,
          "106": -0.520127534866333,
          "107": -0.06148669123649597,
          "108": 2.2781646251678467,
          "109": -0.9571995735168457,
          "110": 0.7669101357460022,
          "111": 1.074622392654419,
          "112": 1.4417475461959839,
          "113": 0.4282640516757965,
          "114": 0.8148804306983948,
          "115": -5.670711040496826,
          "116": -0.10351724177598953,
          "117": -1.0622278451919556,
          "118": 0.7476248145103455,
          "119": 1.05186927318573,
          "120": -2.4230613708496094,
          "121": -1.3721014261245728,
          "122": -2.373450517654419,
          "123": 0.33349451422691345,
          "124": -2.7679390907287598,
          "125": 5.247924327850342,
          "126": -0.03014778532087803,
          "127": 0.24675224721431732,
          "128": -2.6315112113952637,
          "129": -2.870156764984131,
          "130": 0.12703929841518402,
          "131": 2.197629928588867,
          "132": 0.5280394554138184,
          "133": 1.0288052558898926,
          "134": 1.3122210502624512,
          "135": 0.49592533707618713,
          "136": -3.734527111053467,
          "137": 2.3256173133850098,
          "138": -2.2254109382629395,
          "139": -0.39433079957962036,
          "140": 2.1557438373565674,
          "141": -2.2363178730010986,
          "142": 1.8645204305648804,
          "143": -0.04424302279949188,
          "144": -1.1410539150238037,
          "145": 1.4221550226211548,
          "146": -1.7296172380447388,
          "147": -0.6520325541496277,
          "148": 0.17139506340026855,
          "149": 1.5832710266113281,
          "150": -3.772268772125244,
          "151": -0.030422484502196312,
          "152": -1.5050770044326782,
          "153": -0.8517041206359863,
          "154": -0.572985827922821,
          "155": -0.8205769062042236,
          "156": 0.42517900466918945,
          "157": -1.3074356317520142,
          "158": -3.4157555103302,
          "159": 1.3614245653152466,
          "160": 1.9662476778030396,
          "161": 0.02496335655450821,
          "162": 2.4783105850219727,
          "163": -0.9558320045471191,
          "164": -1.290183424949646,
          "165": -1.072076439857483,
          "166": -2.8749449253082275,
          "167": 0.4791295826435089,
          "168": -1.172497034072876,
          "169": -2.6886043548583984,
          "170": 1.410794973373413,
          "171": 1.2652392387390137,
          "172": 2.7725296020507812,
          "173": 0.8023361563682556,
          "174": 0.5306586623191833,
          "175": -0.10161812603473663,
          "176": 0.42776867747306824,
          "177": -0.11886078864336014,
          "178": 0.15709997713565826,
          "179": 1.7787957191467285,
          "180": -2.743359327316284,
          "181": 2.307694911956787,
          "182": 0.5691325664520264,
          "183": -0.6080449819564819,
          "184": -0.21902905404567719,
          "185": 0.4711551070213318,
          "186": -2.960162401199341,
          "187": -0.28942060470581055,
          "188": -1.5728533267974854,
          "189": -0.7801284193992615,
          "190": -4.721863746643066,
          "191": -0.6439261436462402,
          "192": -0.4801587462425232,
          "193": 0.9973378777503967,
          "194": -0.07935632020235062,
          "195": -6.401383876800537,
          "196": -3.3697426319122314,
          "197": 0.04233406484127045,
          "198": -0.09431643038988113,
          "199": 1.46666419506073,
          "200": 1.9669893980026245,
          "201": 1.205631971359253,
          "202": 0.5164197683334351,
          "203": -2.9571969509124756,
          "204": -0.5867519974708557,
          "205": 2.548794746398926,
          "206": -1.82047438621521,
          "207": 1.42018723487854,
          "208": -0.05866536125540733,
          "209": 1.0097687244415283,
          "210": 1.3077995777130127,
          "211": 0.32028520107269287,
          "212": 2.130718231201172,
          "213": -1.2809761762619019,
          "214": 0.7109543085098267,
          "215": -1.7276034355163574,
          "216": -2.1592555046081543,
          "217": -1.9364465475082397,
          "218": -1.8006876707077026,
          "219": 2.410778522491455,
          "220": -0.8993518352508545,
          "221": -1.3849191665649414,
          "222": 4.062690258026123,
          "223": -0.9600793123245239,
          "224": -0.26652273535728455,
          "225": 0.9223824739456177,
          "226": 0.595506489276886,
          "227": -0.4526539742946625,
          "228": -2.651620388031006,
          "229": -0.8988688588142395,
          "230": -1.099064588546753,
          "231": 0.01743599958717823,
          "232": 2.33217716217041,
          "233": 2.5323848724365234,
          "234": -0.7994771003723145,
          "235": -1.8711018562316895,
          "236": -0.263924777507782,
          "237": -0.7599368095397949,
          "238": 0.579463541507721,
          "239": 1.2764086723327637,
          "240": -0.5924779772758484,
          "241": 0.43594124913215637,
          "242": -2.8925657272338867,
          "243": -0.2172231823205948,
          "244": -0.39813730120658875,
          "245": 3.1547751426696777,
          "246": -2.0800864696502686,
          "247": -1.1783616542816162,
          "248": 0.7421092987060547,
          "249": -0.30308085680007935,
          "250": 0.15177051723003387,
          "251": 2.724442720413208,
          "252": -3.366152286529541,
          "253": -1.0135492086410522,
          "254": 0.4351063668727875,
          "255": -0.13943184912204742,
          "256": -0.5268105864524841,
          "257": 0.28298428654670715,
          "258": 0.9846305847167969,
          "259": -0.3071345388889313,
          "260": -1.2927414178848267,
          "261": -3.273597478866577,
          "262": -1.496975302696228,
          "263": -1.2214665412902832,
          "264": 1.7591514587402344,
          "265": -3.2528254985809326,
          "266": -0.5963988304138184,
          "267": 1.5805227756500244,
          "268": -0.5770639777183533,
          "269": 1.8329555988311768,
          "270": 0.3483215868473053,
          "271": -1.7748829126358032,
          "272": -1.4306395053863525,
          "273": -1.0846939086914062,
          "274": 1.5036102533340454,
          "275": -2.3049442768096924,
          "276": 0.45689231157302856,
          "277": 0.8892253637313843,
          "278": -0.2729054391384125,
          "279": 2.2692975997924805,
          "280": -1.7919092178344727,
          "281": -2.5246336460113525,
          "282": 2.3253273963928223,
          "283": -1.742200255393982,
          "284": 2.1114628314971924,
          "285": -1.7115585803985596,
          "286": -0.10472772270441055,
          "287": -1.437020182609558,
          "288": -5.501441478729248,
          "289": -2.4419567584991455,
          "290": -4.5043745040893555,
          "291": 0.6114780306816101,
          "292": -1.7264254093170166,
          "293": 2.440882444381714,
          "294": 2.5848050117492676,
          "295": -0.7563799619674683,
          "296": -2.3912620544433594,
          "297": 0.4762207567691803,
          "298": -0.0768037885427475,
          "299": -1.71571683883667,
          "300": -1.6825788021087646,
          "301": -0.9767919778823853,
          "302": 0.7912116646766663,
          "303": 0.40875911712646484,
          "304": 3.860797882080078,
          "305": 2.5688774585723877,
          "306": -0.5922510623931885,
          "307": -0.8935616612434387,
          "308": -0.8790102005004883,
          "309": -1.7392667531967163,
          "310": -1.46700119972229,
          "311": -0.6341546773910522,
          "312": 0.6491332054138184,
          "313": 0.07915406674146652,
          "314": -0.6602261066436768,
          "315": 1.7820335626602173,
          "316": 0.08982854336500168,
          "317": 0.8901956081390381,
          "318": -0.78728848695755,
          "319": 2.4576833248138428,
          "320": -1.4125208854675293,
          "321": -4.946612358093262,
          "322": -0.4873208999633789,
          "323": 1.3387727737426758,
          "324": 0.02859521470963955,
          "325": 3.0030441284179688,
          "326": 1.616660475730896,
          "327": -3.6128292083740234,
          "328": 0.025286326184868813,
          "329": -0.19209660589694977,
          "330": 2.410365104675293,
          "331": -0.19125963747501373,
          "332": 0.0013027904788032174,
          "333": -1.2781203985214233,
          "334": -1.4141781330108643,
          "335": 3.030963659286499,
          "336": -0.8225460052490234,
          "337": 1.492034673690796,
          "338": -1.0184144973754883,
          "339": 3.309783935546875,
          "340": -0.3423202931880951,
          "341": -0.6021549105644226,
          "342": 1.845597505569458,
          "343": -0.08548611402511597,
          "344": -0.15319624543190002,
          "345": 4.427990913391113,
          "346": 1.0249220132827759,
          "347": -0.21095354855060577,
          "348": 2.0377283096313477,
          "349": 0.2766091525554657,
          "350": -1.590095043182373,
          "351": 0.13085538148880005,
          "352": 2.567704439163208,
          "353": -0.4645051062107086,
          "354": 1.8187839984893799,
          "355": -1.8794515132904053,
          "356": -0.4169562757015228,
          "357": -0.3692585229873657,
          "358": -0.4543324112892151,
          "359": -0.1654277890920639,
          "360": -1.5905073881149292,
          "361": 0.21056585013866425,
          "362": -0.9894410967826843,
          "363": 2.97471022605896,
          "364": 0.024806473404169083,
          "365": 0.5869041681289673,
          "366": 1.4516304731369019,
          "367": -0.019486859440803528,
          "368": 1.2346009016036987,
          "369": -1.811240792274475,
          "370": 3.1456596851348877,
          "371": -0.16057188808918,
          "372": 3.411921501159668,
          "373": -2.9424519538879395,
          "374": 3.543336868286133,
          "375": 1.6347073316574097,
          "376": -1.4535987377166748,
          "377": -2.697201728820801,
          "378": 1.0399315357208252,
          "379": -1.6303143501281738,
          "380": 1.0285744667053223,
          "381": 1.308194637298584,
          "382": -1.762588620185852,
          "383": -1.2217373847961426,
          "384": 1.8237131834030151,
          "385": -0.5350115895271301,
          "386": 1.1123512983322144,
          "387": -1.012999415397644,
          "388": -1.8529011011123657,
          "389": 1.9278467893600464,
          "390": -3.6428909301757812,
          "391": 2.683000087738037,
          "392": -1.572142481803894,
          "393": 2.3188576698303223,
          "394": 2.979426145553589,
          "395": 0.425728976726532,
          "396": 0.18321311473846436,
          "397": 1.0553693771362305,
          "398": 2.3710269927978516,
          "399": 2.573190689086914,
          "400": -0.08827070891857147,
          "401": 3.3188164234161377,
          "402": -1.2035709619522095,
          "403": 0.6341979503631592,
          "404": -0.1865370124578476,
          "405": -1.403475046157837,
          "406": 2.043884754180908,
          "407": -0.2959670424461365,
          "408": -0.05124499276280403,
          "409": -2.418026924133301,
          "410": -3.434906005859375,
          "411": -0.04852522164583206,
          "412": 1.4063541889190674,
          "413": 1.1233124732971191,
          "414": -0.4893397092819214,
          "415": 1.425014615058899,
          "416": 0.17990578711032867,
          "417": -0.7568115592002869,
          "418": 0.4356204569339752,
          "419": 2.7346599102020264,
          "420": 0.24250532686710358,
          "421": -1.797454833984375,
          "422": -1.3660212755203247,
          "423": 2.9738218784332275,
          "424": -0.614168107509613,
          "425": 0.5379875302314758,
          "426": -2.4996283054351807,
          "427": 0.004904434084892273,
          "428": 1.113712191581726,
          "429": -1.7073639631271362,
          "430": 3.3138651847839355,
          "431": 1.4908503293991089,
          "432": -1.2175467014312744,
          "433": 0.43510159850120544,
          "434": 0.5044195652008057,
          "435": -2.0293660163879395,
          "436": -2.8647494316101074,
          "437": 0.34616103768348694,
          "438": -1.6588507890701294,
          "439": -0.36340802907943726,
          "440": 0.691820502281189,
          "441": 0.27787479758262634,
          "442": -2.011512041091919,
          "443": -0.8808867335319519,
          "444": -2.4417383670806885,
          "445": 0.4690711796283722,
          "446": -3.5896852016448975,
          "447": 0.7040747404098511,
          "448": -1.6551648378372192,
          "449": -1.2293647527694702,
          "450": -0.005941742565482855,
          "451": 1.157029151916504,
          "452": 0.1588045358657837,
          "453": -0.5676274299621582,
          "454": 0.01010543666779995,
          "455": -0.8702154159545898,
          "456": -1.5154790878295898,
          "457": 1.429039716720581,
          "458": -0.9086759686470032,
          "459": -1.5430430173873901,
          "460": -0.28436172008514404,
          "461": -0.12264212965965271,
          "462": 1.4285351037979126,
          "463": 3.0959858894348145,
          "464": -0.5364495515823364,
          "465": 2.4039392471313477,
          "466": -1.6145533323287964,
          "467": 0.6352892518043518,
          "468": -3.1519064903259277,
          "469": 0.9782578349113464,
          "470": -2.1092169284820557,
          "471": 1.9191018342971802,
          "472": -2.1716184616088867,
          "473": 1.1419317722320557,
          "474": -3.1817140579223633,
          "475": 2.9557743072509766,
          "476": -4.165658473968506,
          "477": -0.18239416182041168,
          "478": 0.178484246134758,
          "479": 0.985423743724823,
          "480": 1.9148571491241455,
          "481": 0.7520611882209778,
          "482": 0.7766526341438293,
          "483": 0.9717268943786621,
          "484": -4.003114700317383,
          "485": -1.3416613340377808,
          "486": 0.695349931716919,
          "487": -1.7218772172927856,
          "488": -1.1143176555633545,
          "489": 1.747976541519165,
          "490": -2.2430758476257324,
          "491": -0.1286666840314865,
          "492": 1.1064515113830566,
          "493": -3.8318512439727783,
          "494": 1.393631100654602,
          "495": 3.9061279296875,
          "496": 0.8247617483139038,
          "497": 0.7915008664131165,
          "498": -0.4461527168750763,
          "499": -2.4165685176849365,
          "500": -2.847228765487671,
          "501": 2.014094114303589,
          "502": -0.7254320979118347,
          "503": 0.9741737246513367,
          "504": 2.596827745437622,
          "505": -0.8552491664886475,
          "506": 0.7335878610610962,
          "507": 0.7372071743011475,
          "508": -2.6764721870422363,
          "509": 1.7408514022827148,
          "510": -3.5442848205566406,
          "511": -0.9671035408973694,
          "512": -0.8102461099624634,
          "513": -0.4627474844455719,
          "514": -3.7754087448120117,
          "515": 3.1066739559173584,
          "516": 0.867573618888855,
          "517": 3.709461212158203,
          "518": 0.58901447057724,
          "519": 3.9454503059387207,
          "520": 1.1254057884216309,
          "521": 4.901032447814941,
          "522": 1.9957574605941772,
          "523": -0.046710338443517685,
          "524": 1.3724430799484253,
          "525": 0.2374141961336136,
          "526": 0.3698705732822418,
          "527": 3.191293954849243,
          "528": 1.6970990896224976,
          "529": 2.2754790782928467,
          "530": 0.0775878056883812,
          "531": 1.5578391551971436,
          "532": 0.051347557455301285,
          "533": -1.715917706489563,
          "534": -0.8952856063842773,
          "535": -1.9672788381576538,
          "536": 1.149132490158081,
          "537": 2.392171859741211,
          "538": -3.077622890472412,
          "539": 1.9904227256774902,
          "540": -1.0752853155136108,
          "541": 0.8663741946220398,
          "542": -3.392549753189087,
          "543": 1.0938341617584229,
          "544": -0.38249096274375916,
          "545": -1.6670361757278442,
          "546": 0.22905944287776947,
          "547": -0.01158586423844099,
          "548": -1.4699069261550903,
          "549": 0.9240556359291077,
          "550": -1.762000560760498,
          "551": -1.0247220993041992,
          "552": -1.0399744510650635,
          "553": 1.6139030456542969,
          "554": 0.8937840461730957,
          "555": -0.6034067869186401,
          "556": 1.3821262121200562,
          "557": -0.7251729965209961,
          "558": 0.9035230278968811,
          "559": 3.5479252338409424,
          "560": -2.1996548175811768,
          "561": 2.945274591445923,
          "562": -1.3442356586456299,
          "563": 1.077318787574768,
          "564": -2.3181402683258057,
          "565": 1.496404767036438,
          "566": 0.22223900258541107,
          "567": 0.013446471653878689,
          "568": -0.6613869667053223,
          "569": 1.3570080995559692,
          "570": -2.9650206565856934,
          "571": 1.1566784381866455,
          "572": -3.4551925659179688,
          "573": -0.924687922000885,
          "574": -0.20451270043849945,
          "575": 0.9599480628967285,
          "576": -0.41891035437583923,
          "577": 1.753251075744629,
          "578": -0.2637908458709717,
          "579": 1.675898790359497,
          "580": -2.293022871017456,
          "581": -0.10260244458913803,
          "582": 3.7061522006988525,
          "583": 0.2938760221004486,
          "584": 0.07195651531219482,
          "585": 0.8599517941474915,
          "586": -1.0591727495193481,
          "587": -1.7945499420166016,
          "588": 1.4402031898498535,
          "589": -1.0406866073608398,
          "590": -2.2943954467773438,
          "591": -1.032272458076477,
          "592": 1.6181589365005493,
          "593": -1.6300902366638184,
          "594": -3.5614912509918213,
          "595": 1.2616263628005981,
          "596": -0.3862856328487396,
          "597": -0.6030398011207581,
          "598": 0.333723783493042,
          "599": -2.855577230453491,
          "600": 2.164074420928955,
          "601": 0.0146783497184515,
          "602": -1.6841105222702026,
          "603": 2.925143241882324,
          "604": -3.476893186569214,
          "605": 0.25056880712509155,
          "606": 0.7702676057815552,
          "607": -0.7756555676460266,
          "608": 0.7818942070007324,
          "609": -2.269045114517212,
          "610": 1.1489428281784058,
          "611": 0.15271776914596558,
          "612": 2.6290440559387207,
          "613": -1.5025018453598022,
          "614": 0.5410224795341492,
          "615": -2.221123218536377,
          "616": -0.25292134284973145,
          "617": -2.481790542602539,
          "618": -0.9505953192710876,
          "619": 2.539860725402832,
          "620": -0.39365214109420776,
          "621": 0.5284566879272461,
          "622": 0.15223777294158936,
          "623": -3.6700642108917236,
          "624": 0.8099952340126038,
          "625": 1.3273175954818726,
          "626": 2.2486743927001953,
          "627": -0.651066780090332,
          "628": 2.0604066848754883,
          "629": -1.1033339500427246,
          "630": 1.3405616283416748,
          "631": 2.4198224544525146,
          "632": -1.9375755786895752,
          "633": -1.0458571910858154,
          "634": 0.7037855982780457,
          "635": -1.762729525566101,
          "636": 0.687161386013031,
          "637": 1.8346575498580933,
          "638": 2.060394048690796,
          "639": 1.5398517847061157
        }
      },
      "inputHidden": {
        "rows": 20,
        "columns": 20,
        "weights": {
          "0": -0.3943374752998352,
          "1": 0.39630815386772156,
          "2": 1.1693356037139893,
          "3": 3.7210733890533447,
          "4": 2.3860995769500732,
          "5": -1.1355971097946167,
          "6": -3.3346760272979736,
          "7": 1.2151622772216797,
          "8": -1.185734510421753,
          "9": -1.7483869791030884,
          "10": 1.130715250968933,
          "11": -2.1674580574035645,
          "12": -2.4684081077575684,
          "13": -2.1761929988861084,
          "14": 3.2759549617767334,
          "15": 0.021073032170534134,
          "16": 2.9906814098358154,
          "17": -2.6741645336151123,
          "18": -6.362853050231934,
          "19": 0.8233324289321899,
          "20": -2.348788261413574,
          "21": -3.0293023586273193,
          "22": -0.6893157958984375,
          "23": 0.5382474064826965,
          "24": 2.485471725463867,
          "25": -1.0147684812545776,
          "26": 0.15204857289791107,
          "27": 0.7849462032318115,
          "28": -2.0583372116088867,
          "29": -3.7714314460754395,
          "30": -0.6188514232635498,
          "31": 2.2690820693969727,
          "32": 1.5851154327392578,
          "33": -1.0299793481826782,
          "34": 1.8673444986343384,
          "35": -2.268181085586548,
          "36": -1.03062105178833,
          "37": -0.7870473265647888,
          "38": -0.4898345470428467,
          "39": -1.063188076019287,
          "40": 1.46161687374115,
          "41": 4.931915283203125,
          "42": 0.49481073021888733,
          "43": -1.1850926876068115,
          "44": 1.5289130210876465,
          "45": -0.26604223251342773,
          "46": -0.6399483680725098,
          "47": 3.381730556488037,
          "48": 0.5553122162818909,
          "49": 0.19404204189777374,
          "50": -4.103663921356201,
          "51": -3.2650392055511475,
          "52": -0.5496276617050171,
          "53": 0.6147155165672302,
          "54": -0.6494935750961304,
          "55": 5.100827693939209,
          "56": 0.7267971038818359,
          "57": 4.45542573928833,
          "58": -4.970951557159424,
          "59": -1.3989895582199097,
          "60": -1.166286587715149,
          "61": 1.1369613409042358,
          "62": -0.5507346987724304,
          "63": 1.5669127702713013,
          "64": 0.003403876442462206,
          "65": -0.327089786529541,
          "66": 4.421648979187012,
          "67": 0.9042069315910339,
          "68": -0.21520857512950897,
          "69": 0.6863473653793335,
          "70": 0.9944878220558167,
          "71": -1.4881861209869385,
          "72": -0.4930611252784729,
          "73": 2.042055368423462,
          "74": -1.5981041193008423,
          "75": -0.5064810514450073,
          "76": 0.786586344242096,
          "77": -1.2773081064224243,
          "78": -1.2218855619430542,
          "79": -1.3860219717025757,
          "80": 1.9427809715270996,
          "81": -0.9978324174880981,
          "82": 0.9663824439048767,
          "83": 0.4934858977794647,
          "84": -2.7179527282714844,
          "85": 5.332322120666504,
          "86": 0.20659899711608887,
          "87": -1.4358209371566772,
          "88": 0.7925931811332703,
          "89": -0.5170474648475647,
          "90": 0.6033417582511902,
          "91": 1.175851821899414,
          "92": 0.6281890273094177,
          "93": -3.691190004348755,
          "94": -0.08604972809553146,
          "95": 0.3136759400367737,
          "96": 2.074781894683838,
          "97": -2.005685329437256,
          "98": -3.785689353942871,
          "99": 1.5782827138900757,
          "100": -2.725942373275757,
          "101": 0.47222965955734253,
          "102": -1.0729423761367798,
          "103": 0.45553725957870483,
          "104": -0.1879117786884308,
          "105": 3.8741631507873535,
          "106": 1.7385333776474,
          "107": 0.37804481387138367,
          "108": -1.0040920972824097,
          "109": -1.6560797691345215,
          "110": 2.421241521835327,
          "111": -1.656400442123413,
          "112": -2.434999942779541,
          "113": 0.12468130886554718,
          "114": 0.4412282407283783,
          "115": 0.40996992588043213,
          "116": -2.3762664794921875,
          "117": -1.223156213760376,
          "118": 1.1893304586410522,
          "119": -1.093536138534546,
          "120": -1.8782892227172852,
          "121": 0.9556942582130432,
          "122": 2.082707643508911,
          "123": 2.3601582050323486,
          "124": 2.7467103004455566,
          "125": -3.901719331741333,
          "126": -4.389109134674072,
          "127": -0.6924576163291931,
          "128": -2.9296889305114746,
          "129": 0.8200386166572571,
          "130": -2.2395007610321045,
          "131": 2.924023151397705,
          "132": 0.830753743648529,
          "133": 0.09283360093832016,
          "134": -0.42861297726631165,
          "135": -0.5549166798591614,
          "136": 1.2795627117156982,
          "137": -5.129616737365723,
          "138": -3.002704381942749,
          "139": 0.10090485960245132,
          "140": -0.06269033253192902,
          "141": 1.7704899311065674,
          "142": 6.551305770874023,
          "143": 2.985226631164551,
          "144": -1.615500807762146,
          "145": -0.5490472316741943,
          "146": -2.1960396766662598,
          "147": 0.5048256516456604,
          "148": -2.5692784786224365,
          "149": -1.4891027212142944,
          "150": -4.724409103393555,
          "151": -1.8944716453552246,
          "152": -2.4517953395843506,
          "153": -0.0256350077688694,
          "154": -4.045100688934326,
          "155": 1.0319732427597046,
          "156": 9.638378143310547,
          "157": 1.328739881515503,
          "158": -2.4793636798858643,
          "159": 1.20235013961792,
          "160": 4.132258415222168,
          "161": 1.6691510677337646,
          "162": -0.8378084301948547,
          "163": -2.2772767543792725,
          "164": -0.9660362005233765,
          "165": -0.7342435717582703,
          "166": 0.5519609451293945,
          "167": 1.3154962062835693,
          "168": -6.426425933837891,
          "169": 2.9116904735565186,
          "170": -5.2342143058776855,
          "171": 3.052164316177368,
          "172": 1.6200263500213623,
          "173": -2.5109784603118896,
          "174": 1.7151631116867065,
          "175": 2.5733144283294678,
          "176": -1.152947187423706,
          "177": 1.2861300706863403,
          "178": 2.343125820159912,
          "179": 2.3484175205230713,
          "180": -0.5927375555038452,
          "181": 1.1328245401382446,
          "182": -2.9092092514038086,
          "183": 3.196760654449463,
          "184": -0.4570413827896118,
          "185": -1.569074273109436,
          "186": -0.16036821901798248,
          "187": -0.48843294382095337,
          "188": 1.034812092781067,
          "189": 2.3690762519836426,
          "190": 0.6671550273895264,
          "191": 0.8132143616676331,
          "192": -0.07488720864057541,
          "193": 1.3654597997665405,
          "194": 1.9142999649047852,
          "195": -0.4913162589073181,
          "196": 0.7158504724502563,
          "197": 2.559530019760132,
          "198": -1.0672826766967773,
          "199": 0.5363264679908752,
          "200": 1.126224398612976,
          "201": 4.287729740142822,
          "202": -0.2671467661857605,
          "203": -0.4915667772293091,
          "204": 1.8208037614822388,
          "205": 1.950091004371643,
          "206": 0.4228053390979767,
          "207": -0.0965748280286789,
          "208": 3.076846122741699,
          "209": 4.563403606414795,
          "210": -0.10878171026706696,
          "211": 2.605437755584717,
          "212": 2.405517816543579,
          "213": 2.6257851123809814,
          "214": 2.2681386470794678,
          "215": -1.1996067762374878,
          "216": 7.235451698303223,
          "217": 1.2682973146438599,
          "218": -1.931052327156067,
          "219": -1.5782254934310913,
          "220": -0.690112292766571,
          "221": 1.873255968093872,
          "222": 3.1886165142059326,
          "223": 1.2987568378448486,
          "224": -0.17264671623706818,
          "225": 0.1788814514875412,
          "226": -2.005054473876953,
          "227": -0.6202490925788879,
          "228": -0.43796268105506897,
          "229": -0.3923302888870239,
          "230": -1.0684902667999268,
          "231": 1.9701138734817505,
          "232": 2.8355863094329834,
          "233": 0.4398852586746216,
          "234": 0.3085225224494934,
          "235": -0.0073539381846785545,
          "236": 0.4935051202774048,
          "237": -0.38072705268859863,
          "238": 1.0964457988739014,
          "239": -1.0238394737243652,
          "240": 5.455756187438965,
          "241": 3.786846399307251,
          "242": -5.100521087646484,
          "243": 2.9446401596069336,
          "244": 5.183213233947754,
          "245": -2.574577808380127,
          "246": -1.5976670980453491,
          "247": -0.5416189432144165,
          "248": -0.9678552150726318,
          "249": 1.3750784397125244,
          "250": -0.9125532507896423,
          "251": 4.075003623962402,
          "252": 3.3727099895477295,
          "253": 0.3351878225803375,
          "254": 2.8810861110687256,
          "255": 3.680901050567627,
          "256": 1.5117799043655396,
          "257": 2.0108492374420166,
          "258": -4.175235748291016,
          "259": 3.8123974800109863,
          "260": 1.2332115173339844,
          "261": 0.5405756235122681,
          "262": -0.9732065200805664,
          "263": 2.914574384689331,
          "264": -3.399474620819092,
          "265": -0.5241636633872986,
          "266": 2.8262860774993896,
          "267": 0.19538763165473938,
          "268": 2.5172371864318848,
          "269": -1.3432605266571045,
          "270": 1.5730599164962769,
          "271": -0.46244940161705017,
          "272": -1.8319664001464844,
          "273": -0.1101565957069397,
          "274": 0.34934911131858826,
          "275": 1.9273090362548828,
          "276": -1.5949701070785522,
          "277": 4.047373294830322,
          "278": -1.1796729564666748,
          "279": -0.6727323532104492,
          "280": 1.3971445560455322,
          "281": -0.0942147746682167,
          "282": -1.5008479356765747,
          "283": -0.6188257336616516,
          "284": 0.45466023683547974,
          "285": 2.3753397464752197,
          "286": 1.3207001686096191,
          "287": 1.5801451206207275,
          "288": -0.050691112875938416,
          "289": 0.5060044527053833,
          "290": -0.05005979165434837,
          "291": -0.9034701585769653,
          "292": -1.1151070594787598,
          "293": -1.0409270524978638,
          "294": 1.1250056028366089,
          "295": 1.1531587839126587,
          "296": -0.2576659321784973,
          "297": 1.0929661989212036,
          "298": 2.3762550354003906,
          "299": 0.7083030939102173,
          "300": -0.896906852722168,
          "301": 2.719799518585205,
          "302": 0.4007287621498108,
          "303": 1.5941141843795776,
          "304": -1.6209666728973389,
          "305": 0.16437003016471863,
          "306": 3.384828567504883,
          "307": 1.6942682266235352,
          "308": 0.4939787983894348,
          "309": -1.463075876235962,
          "310": -1.0264867544174194,
          "311": -6.883633136749268,
          "312": -2.759714365005493,
          "313": -4.820174694061279,
          "314": 0.6818004250526428,
          "315": -0.3322509229183197,
          "316": 4.07782506942749,
          "317": -3.6312365531921387,
          "318": -2.4610602855682373,
          "319": 2.358869791030884,
          "320": -1.08315110206604,
          "321": 0.06970738619565964,
          "322": -2.762155532836914,
          "323": 0.6241435408592224,
          "324": 2.7049124240875244,
          "325": 0.22006650269031525,
          "326": 1.0146303176879883,
          "327": 1.5199929475784302,
          "328": -0.9304490089416504,
          "329": -0.8994600772857666,
          "330": 1.849429726600647,
          "331": -0.08994323760271072,
          "332": -0.47972726821899414,
          "333": -1.993862271308899,
          "334": 2.603877067565918,
          "335": 6.489625453948975,
          "336": 1.2448666095733643,
          "337": -0.27404579520225525,
          "338": -0.6330200433731079,
          "339": -2.6988987922668457,
          "340": 1.6441937685012817,
          "341": -0.6224825978279114,
          "342": -3.828326463699341,
          "343": -3.360616445541382,
          "344": -0.310713529586792,
          "345": 1.7702409029006958,
          "346": -0.8195981383323669,
          "347": 0.051685355603694916,
          "348": -0.0730050578713417,
          "349": 0.852230966091156,
          "350": -3.220799684524536,
          "351": -2.437443971633911,
          "352": 1.5059889554977417,
          "353": 1.7717061042785645,
          "354": 0.603043258190155,
          "355": 0.9302645921707153,
          "356": -0.0877176895737648,
          "357": 1.127235770225525,
          "358": -1.5353758335113525,
          "359": 0.2448391318321228,
          "360": 1.098610758781433,
          "361": 1.5305601358413696,
          "362": -1.4899860620498657,
          "363": -0.7845017313957214,
          "364": -0.5658009648323059,
          "365": 1.0615795850753784,
          "366": 0.5636727809906006,
          "367": -2.761465549468994,
          "368": 0.48907023668289185,
          "369": -0.001374193700030446,
          "370": 1.6521291732788086,
          "371": 1.3960821628570557,
          "372": -1.2698062658309937,
          "373": 0.9092456102371216,
          "374": 0.6837260723114014,
          "375": -1.572147011756897,
          "376": -1.8595093488693237,
          "377": -2.0785458087921143,
          "378": 0.9537848234176636,
          "379": 0.673766553401947,
          "380": 0.8510206937789917,
          "381": 2.762554407119751,
          "382": 0.5758388638496399,
          "383": 0.36559462547302246,
          "384": 0.8377982974052429,
          "385": 0.11427822709083557,
          "386": -0.35134127736091614,
          "387": -0.05361407250165939,
          "388": -3.215637445449829,
          "389": 0.5338007807731628,
          "390": -0.755136251449585,
          "391": 0.23868542909622192,
          "392": -1.403658151626587,
          "393": -0.24884332716464996,
          "394": 0.20332856476306915,
          "395": 1.1297976970672607,
          "396": -0.35919567942619324,
          "397": -1.2979207038879395,
          "398": -2.256882905960083,
          "399": 1.006767749786377
        }
      },
      "inputBias": {
        "rows": 20,
        "columns": 1,
        "weights": {
          "0": -0.07023666054010391,
          "1": -0.6898610591888428,
          "2": -0.7860645651817322,
          "3": -1.5613253116607666,
          "4": -1.3799700736999512,
          "5": -0.49691149592399597,
          "6": -0.77704256772995,
          "7": -1.7523609399795532,
          "8": -1.0498908758163452,
          "9": -1.0973389148712158,
          "10": 0.01616372913122177,
          "11": -0.21598567068576813,
          "12": -0.4098970293998718,
          "13": -0.2573784589767456,
          "14": 0.38159963488578796,
          "15": -1.1626818180084229,
          "16": -0.40937677025794983,
          "17": 0.3580295741558075,
          "18": 0.1629488617181778,
          "19": 0.2938878834247589
        }
      },
      "forgetMatrix": {
        "rows": 20,
        "columns": 32,
        "weights": {
          "0": 0.2593713700771332,
          "1": -1.8090437650680542,
          "2": 2.090820789337158,
          "3": 0.19829657673835754,
          "4": 0.23356114327907562,
          "5": 3.5806939601898193,
          "6": -2.837130308151245,
          "7": -0.5732763409614563,
          "8": -2.5947771072387695,
          "9": -0.5932473540306091,
          "10": 1.020884394645691,
          "11": 2.492915153503418,
          "12": -0.7556380033493042,
          "13": 2.6155898571014404,
          "14": 1.2541227340698242,
          "15": 1.3571580648422241,
          "16": -0.9947072267532349,
          "17": 1.9340777397155762,
          "18": 4.0867767333984375,
          "19": 4.54263162612915,
          "20": 0.5299444198608398,
          "21": -1.6064398288726807,
          "22": -1.5841903686523438,
          "23": 0.6651322245597839,
          "24": -2.2062270641326904,
          "25": 0.5802735090255737,
          "26": 1.2691704034805298,
          "27": -0.4155329167842865,
          "28": 2.6462786197662354,
          "29": 0.05504081770777702,
          "30": 1.447050929069519,
          "31": 1.6213589906692505,
          "32": 3.264869451522827,
          "33": 1.8115899562835693,
          "34": 0.5041046142578125,
          "35": 0.17731571197509766,
          "36": -0.05253564938902855,
          "37": -1.5966267585754395,
          "38": -2.184868812561035,
          "39": -2.072166681289673,
          "40": 2.136263132095337,
          "41": -0.33756089210510254,
          "42": 1.1041454076766968,
          "43": 1.9019098281860352,
          "44": -1.6017727851867676,
          "45": -0.10492990165948868,
          "46": -1.9455076456069946,
          "47": -1.8106285333633423,
          "48": -0.18697316944599152,
          "49": -1.842079997062683,
          "50": 1.0696067810058594,
          "51": -0.36803138256073,
          "52": 1.1750670671463013,
          "53": 1.565159797668457,
          "54": 1.5471642017364502,
          "55": 1.0909661054611206,
          "56": 2.601045608520508,
          "57": -1.2894797325134277,
          "58": 4.089608192443848,
          "59": -1.2389987707138062,
          "60": 1.9831979274749756,
          "61": -1.0677399635314941,
          "62": 2.7086563110351562,
          "63": -1.8497618436813354,
          "64": 1.249319314956665,
          "65": 2.3936452865600586,
          "66": 0.9730491042137146,
          "67": 1.2596293687820435,
          "68": 1.57875394821167,
          "69": -0.9142798185348511,
          "70": -0.35176965594291687,
          "71": -1.3731296062469482,
          "72": 0.044991713017225266,
          "73": -3.7194747924804688,
          "74": -0.9152546525001526,
          "75": 0.7847758531570435,
          "76": -3.879594087600708,
          "77": 0.12112288177013397,
          "78": -3.679635763168335,
          "79": -4.798985958099365,
          "80": 1.4430063962936401,
          "81": -3.167956590652466,
          "82": -0.6501972675323486,
          "83": -1.1487884521484375,
          "84": 1.3064870834350586,
          "85": -0.9940869212150574,
          "86": -0.2587595582008362,
          "87": 1.37626051902771,
          "88": -0.20993855595588684,
          "89": -0.1778162568807602,
          "90": -2.0166361331939697,
          "91": 0.9340938329696655,
          "92": -0.03374585881829262,
          "93": -0.5245503783226013,
          "94": 1.4616189002990723,
          "95": -1.3345519304275513,
          "96": 0.45875629782676697,
          "97": -0.6385650634765625,
          "98": 2.777282476425171,
          "99": 0.7666764855384827,
          "100": 1.703075647354126,
          "101": 3.396510362625122,
          "102": 0.3441801071166992,
          "103": 0.9248191118240356,
          "104": 0.06568384915590286,
          "105": -0.952589213848114,
          "106": 0.23306488990783691,
          "107": -0.2109021246433258,
          "108": 5.090167045593262,
          "109": 0.06810407340526581,
          "110": 0.5378915667533875,
          "111": -2.876098155975342,
          "112": -0.9337681531906128,
          "113": 1.2943741083145142,
          "114": 0.22546005249023438,
          "115": -0.25258076190948486,
          "116": 1.6303237676620483,
          "117": -3.680814504623413,
          "118": 0.030601469799876213,
          "119": 1.5794223546981812,
          "120": -2.9136736392974854,
          "121": -3.3869593143463135,
          "122": -1.672773003578186,
          "123": 1.020257830619812,
          "124": 3.229825973510742,
          "125": 0.17407840490341187,
          "126": 0.8836492896080017,
          "127": 0.4484662711620331,
          "128": 1.9424320459365845,
          "129": 1.2053877115249634,
          "130": 3.383561849594116,
          "131": -1.017669916152954,
          "132": 2.1325082778930664,
          "133": 0.529591977596283,
          "134": -0.476103276014328,
          "135": 0.6142989993095398,
          "136": 4.152627468109131,
          "137": -1.9673173427581787,
          "138": 1.2632516622543335,
          "139": -1.4479494094848633,
          "140": -1.0277011394500732,
          "141": -0.32022786140441895,
          "142": -2.48230242729187,
          "143": 1.597975730895996,
          "144": 1.0576189756393433,
          "145": -1.5168712139129639,
          "146": 0.6121448278427124,
          "147": 1.7232215404510498,
          "148": 1.3704875707626343,
          "149": -0.114975206553936,
          "150": 0.08203359693288803,
          "151": -0.07050064206123352,
          "152": 2.4964334964752197,
          "153": -1.262427806854248,
          "154": 2.0587263107299805,
          "155": 2.719102382659912,
          "156": 1.2073078155517578,
          "157": 1.8875997066497803,
          "158": -0.06715478003025055,
          "159": -2.623443603515625,
          "160": 2.756258964538574,
          "161": -1.3585575819015503,
          "162": 1.9625582695007324,
          "163": 1.5177743434906006,
          "164": 0.8221729397773743,
          "165": -0.0012748702429234982,
          "166": 0.3326994776725769,
          "167": -0.34517478942871094,
          "168": -0.19807803630828857,
          "169": -0.6581621170043945,
          "170": 0.45962685346603394,
          "171": 3.723879814147949,
          "172": 0.40837526321411133,
          "173": 0.9530515074729919,
          "174": -0.8467071056365967,
          "175": -1.8917202949523926,
          "176": -0.40814492106437683,
          "177": -1.052712082862854,
          "178": 1.8877745866775513,
          "179": 0.10530178993940353,
          "180": 1.7386382818222046,
          "181": -0.4882550537586212,
          "182": -0.6971369385719299,
          "183": -0.9577937126159668,
          "184": -0.5766768455505371,
          "185": -2.0926733016967773,
          "186": -0.7284756302833557,
          "187": -2.6435046195983887,
          "188": 2.6033549308776855,
          "189": 1.4167003631591797,
          "190": -1.410004734992981,
          "191": -1.4991263151168823,
          "192": -1.6611371040344238,
          "193": 2.9032344818115234,
          "194": -0.5757058262825012,
          "195": -3.4988927841186523,
          "196": -2.029599666595459,
          "197": -1.5610767602920532,
          "198": -1.2409284114837646,
          "199": 3.209882974624634,
          "200": 2.7828893661499023,
          "201": 3.191480875015259,
          "202": 0.893372654914856,
          "203": -1.4737359285354614,
          "204": -2.237652540206909,
          "205": -2.5412936210632324,
          "206": -1.944595217704773,
          "207": 0.6314488649368286,
          "208": 1.1529805660247803,
          "209": -0.05879707261919975,
          "210": -1.536856770515442,
          "211": 0.44264930486679077,
          "212": -1.2138960361480713,
          "213": -0.2837499678134918,
          "214": -1.3890011310577393,
          "215": -3.885112762451172,
          "216": -1.3978278636932373,
          "217": -0.9921080470085144,
          "218": -0.3407337963581085,
          "219": 2.2589380741119385,
          "220": -1.7120217084884644,
          "221": -4.531499862670898,
          "222": 1.5285699367523193,
          "223": 0.5915858745574951,
          "224": -1.6690787076950073,
          "225": 1.2823374271392822,
          "226": -0.19970829784870148,
          "227": -0.013533535413444042,
          "228": -2.5050253868103027,
          "229": -1.2980214357376099,
          "230": 0.8549991250038147,
          "231": 0.170732781291008,
          "232": -0.4942106008529663,
          "233": 0.1953902393579483,
          "234": 0.10438714921474457,
          "235": -4.792585849761963,
          "236": 2.120218276977539,
          "237": -2.3868236541748047,
          "238": 0.20610180497169495,
          "239": -0.8134981393814087,
          "240": 2.0240776538848877,
          "241": 0.31215107440948486,
          "242": -1.9498631954193115,
          "243": -1.9594674110412598,
          "244": -0.33632221817970276,
          "245": 2.2006192207336426,
          "246": -1.6721686124801636,
          "247": -1.8803129196166992,
          "248": 1.859969139099121,
          "249": -0.5464853644371033,
          "250": -0.3040127158164978,
          "251": 4.2562479972839355,
          "252": -4.917476654052734,
          "253": 0.23849469423294067,
          "254": -1.2211557626724243,
          "255": 0.6840270161628723,
          "256": -1.1933016777038574,
          "257": -0.5247563123703003,
          "258": 0.014954165555536747,
          "259": 1.8293026685714722,
          "260": -0.0068727098405361176,
          "261": -0.3761659860610962,
          "262": -0.01079335156828165,
          "263": -0.6412280797958374,
          "264": 0.3963169455528259,
          "265": 0.6761242747306824,
          "266": 0.31386443972587585,
          "267": -0.6890992522239685,
          "268": 1.0239893198013306,
          "269": -0.5166529417037964,
          "270": -0.3563448488712311,
          "271": 2.796682119369507,
          "272": -0.8693650960922241,
          "273": 1.087441325187683,
          "274": -2.5391972064971924,
          "275": 0.5379194021224976,
          "276": -1.2854208946228027,
          "277": 0.8375763297080994,
          "278": -0.7834826111793518,
          "279": 1.7346718311309814,
          "280": -0.6874502897262573,
          "281": -0.5404219031333923,
          "282": -2.0766990184783936,
          "283": 2.1400368213653564,
          "284": -3.6053600311279297,
          "285": -0.6741026043891907,
          "286": -1.3338980674743652,
          "287": -0.787447988986969,
          "288": -1.6527670621871948,
          "289": -4.645627021789551,
          "290": -0.14381057024002075,
          "291": 1.0986464023590088,
          "292": 1.0043630599975586,
          "293": 2.966820001602173,
          "294": 0.87782222032547,
          "295": -2.88139009475708,
          "296": -0.8483681678771973,
          "297": -1.1087924242019653,
          "298": 2.120764970779419,
          "299": 1.2301360368728638,
          "300": -0.5189129114151001,
          "301": 1.9596730470657349,
          "302": -2.1812164783477783,
          "303": -3.8313100337982178,
          "304": 1.9792778491973877,
          "305": -0.5981056094169617,
          "306": -0.06510242819786072,
          "307": 2.673367977142334,
          "308": 1.09373140335083,
          "309": -1.4250820875167847,
          "310": 2.532417058944702,
          "311": 1.8022881746292114,
          "312": -1.085051417350769,
          "313": 1.4852479696273804,
          "314": 0.6673026084899902,
          "315": -0.3449445068836212,
          "316": 0.08437678962945938,
          "317": -1.8221867084503174,
          "318": 1.4967678785324097,
          "319": 3.216658115386963,
          "320": 0.3265291750431061,
          "321": 0.01851937733590603,
          "322": 0.319472074508667,
          "323": 0.49393272399902344,
          "324": -1.1620378494262695,
          "325": 0.6182629466056824,
          "326": -1.1402336359024048,
          "327": -1.4672889709472656,
          "328": 1.9122775793075562,
          "329": -0.19688454270362854,
          "330": -2.1589460372924805,
          "331": 2.6617679595947266,
          "332": -1.4666067361831665,
          "333": -1.2032400369644165,
          "334": -1.818773865699768,
          "335": -2.6860146522521973,
          "336": -0.7069737315177917,
          "337": -4.032445907592773,
          "338": -2.192131280899048,
          "339": -0.05396898090839386,
          "340": 0.38263705372810364,
          "341": 1.565955638885498,
          "342": 2.0156452655792236,
          "343": -1.3949873447418213,
          "344": 2.171327829360962,
          "345": 1.5535407066345215,
          "346": 2.2447335720062256,
          "347": 0.6871495842933655,
          "348": 1.3967351913452148,
          "349": -1.8730895519256592,
          "350": -1.1626497507095337,
          "351": -3.341367721557617,
          "352": -0.5897660255432129,
          "353": 1.3078734874725342,
          "354": -0.7629242539405823,
          "355": -0.035460904240608215,
          "356": 0.8897536993026733,
          "357": -0.5057860016822815,
          "358": -0.9064048528671265,
          "359": -0.35518595576286316,
          "360": 1.4266265630722046,
          "361": -1.679434895515442,
          "362": 0.3338947892189026,
          "363": 0.2758563458919525,
          "364": -2.1525793075561523,
          "365": -0.9948550462722778,
          "366": -0.027870701625943184,
          "367": -1.1539310216903687,
          "368": -0.3037475645542145,
          "369": -0.6559683680534363,
          "370": -0.6583442687988281,
          "371": 0.1414927840232849,
          "372": -0.9770448803901672,
          "373": 2.3557968139648438,
          "374": 1.2500513792037964,
          "375": 0.5587093830108643,
          "376": 1.60024893283844,
          "377": 1.1150521039962769,
          "378": 1.3946961164474487,
          "379": -0.6771267652511597,
          "380": 0.875948965549469,
          "381": -2.1360514163970947,
          "382": 1.4659483432769775,
          "383": -1.4740381240844727,
          "384": 0.38778769969940186,
          "385": -1.3604774475097656,
          "386": -1.8584054708480835,
          "387": 1.2527637481689453,
          "388": -0.3195599913597107,
          "389": 2.0773701667785645,
          "390": 1.4605441093444824,
          "391": -0.7338458895683289,
          "392": 0.3021196126937866,
          "393": -1.640148401260376,
          "394": -1.1954456567764282,
          "395": 1.245666265487671,
          "396": -2.524965763092041,
          "397": 1.169553518295288,
          "398": -1.3217521905899048,
          "399": -1.7314567565917969,
          "400": 2.593167781829834,
          "401": 1.0459671020507812,
          "402": -0.189724400639534,
          "403": -0.08986184746026993,
          "404": 2.256723642349243,
          "405": -0.40082380175590515,
          "406": 3.6194586753845215,
          "407": 3.1482138633728027,
          "408": -0.5417385101318359,
          "409": -0.3322853147983551,
          "410": 0.9077324867248535,
          "411": -2.0797324180603027,
          "412": 1.4682366847991943,
          "413": 1.2994627952575684,
          "414": 2.122663736343384,
          "415": -1.557072639465332,
          "416": 0.7147932648658752,
          "417": 2.08571457862854,
          "418": 0.44481730461120605,
          "419": -1.6592062711715698,
          "420": 0.3452465236186981,
          "421": 1.0293300151824951,
          "422": -1.0179040431976318,
          "423": -0.18471142649650574,
          "424": 0.9805650115013123,
          "425": -1.0509682893753052,
          "426": 3.4380340576171875,
          "427": -0.6275312304496765,
          "428": -0.7393766641616821,
          "429": 0.40110719203948975,
          "430": -2.851461172103882,
          "431": -1.2065589427947998,
          "432": 3.6838412284851074,
          "433": -2.21191668510437,
          "434": -0.9999154806137085,
          "435": 2.018665075302124,
          "436": -1.9467428922653198,
          "437": 2.5033435821533203,
          "438": -0.45221102237701416,
          "439": -1.565090537071228,
          "440": 4.046064376831055,
          "441": 0.9389183521270752,
          "442": -1.53366219997406,
          "443": 1.8265992403030396,
          "444": -0.37721481919288635,
          "445": -0.15847697854042053,
          "446": -0.33926770091056824,
          "447": -0.6645449995994568,
          "448": -0.43487295508384705,
          "449": 2.839822769165039,
          "450": 1.7254772186279297,
          "451": -3.1780033111572266,
          "452": -2.1269521713256836,
          "453": -1.9863568544387817,
          "454": 1.0464798212051392,
          "455": 0.31170639395713806,
          "456": -1.1056445837020874,
          "457": -2.368273973464966,
          "458": -0.45890647172927856,
          "459": -1.075513482093811,
          "460": 0.39679211378097534,
          "461": 0.1427481770515442,
          "462": 0.6483975052833557,
          "463": -2.0303499698638916,
          "464": 3.1600542068481445,
          "465": -2.267622470855713,
          "466": -1.2159901857376099,
          "467": -1.1243382692337036,
          "468": 0.26376229524612427,
          "469": 1.0648353099822998,
          "470": -1.5146652460098267,
          "471": -1.6656432151794434,
          "472": 0.956059992313385,
          "473": -1.3894819021224976,
          "474": -2.646322727203369,
          "475": 1.842632532119751,
          "476": -2.5278704166412354,
          "477": -1.0889347791671753,
          "478": -0.4163680076599121,
          "479": -0.12149973213672638,
          "480": -0.11613252758979797,
          "481": 2.4557363986968994,
          "482": 1.8431146144866943,
          "483": -0.6594984531402588,
          "484": -3.7219526767730713,
          "485": -2.704329490661621,
          "486": 0.16272689402103424,
          "487": 0.26908111572265625,
          "488": -1.8032090663909912,
          "489": -0.41210120916366577,
          "490": 0.9777581095695496,
          "491": -3.2347071170806885,
          "492": 1.310092568397522,
          "493": -1.1393200159072876,
          "494": 2.6481900215148926,
          "495": -2.827927827835083,
          "496": -1.132517695426941,
          "497": 2.888819932937622,
          "498": 2.5639922618865967,
          "499": -2.7644758224487305,
          "500": -2.161142110824585,
          "501": 0.03156841918826103,
          "502": -3.005631923675537,
          "503": -2.2758898735046387,
          "504": -3.597405433654785,
          "505": -1.232393503189087,
          "506": -0.9185788631439209,
          "507": 3.2585301399230957,
          "508": -3.0939900875091553,
          "509": -0.6488384008407593,
          "510": -2.2714455127716064,
          "511": 0.9885793328285217,
          "512": 0.704866886138916,
          "513": 1.2364898920059204,
          "514": 0.5810384154319763,
          "515": 1.1280467510223389,
          "516": 0.3158036768436432,
          "517": -0.7087746858596802,
          "518": -2.165790319442749,
          "519": 2.884366512298584,
          "520": 2.2945163249969482,
          "521": -1.2893168926239014,
          "522": -0.2494249939918518,
          "523": 1.3928236961364746,
          "524": -4.278556823730469,
          "525": -1.204269528388977,
          "526": -1.3868714570999146,
          "527": -0.33571216464042664,
          "528": -2.163999557495117,
          "529": -1.8788167238235474,
          "530": 0.6293913125991821,
          "531": -0.37257301807403564,
          "532": 0.6514303088188171,
          "533": 3.0888309478759766,
          "534": 2.541353225708008,
          "535": 1.605819582939148,
          "536": 0.15413004159927368,
          "537": 0.5456562042236328,
          "538": 1.7551119327545166,
          "539": -0.7266240119934082,
          "540": 0.30742722749710083,
          "541": 0.5195310711860657,
          "542": -1.2079323530197144,
          "543": -3.0876104831695557,
          "544": -0.019490301609039307,
          "545": 0.20116889476776123,
          "546": -3.1457793712615967,
          "547": 2.4159975051879883,
          "548": -0.9936152696609497,
          "549": 4.542165279388428,
          "550": 2.6725239753723145,
          "551": -2.1041054725646973,
          "552": 0.2799622118473053,
          "553": 1.002852201461792,
          "554": -0.14770908653736115,
          "555": 0.42096275091171265,
          "556": 0.3327486515045166,
          "557": 1.3665006160736084,
          "558": -1.0303488969802856,
          "559": -0.11140202730894089,
          "560": -0.6333869695663452,
          "561": -0.41718676686286926,
          "562": -0.6292548179626465,
          "563": 3.999140501022339,
          "564": -3.9949305057525635,
          "565": -0.6057125926017761,
          "566": 0.7460536956787109,
          "567": -0.4916771650314331,
          "568": -0.7708058953285217,
          "569": 3.635326862335205,
          "570": -0.9277052283287048,
          "571": 0.9060013294219971,
          "572": 0.5807084441184998,
          "573": -2.8803930282592773,
          "574": 1.2796324491500854,
          "575": -0.24677830934524536,
          "576": 2.712986469268799,
          "577": 0.3193646967411041,
          "578": 0.45980560779571533,
          "579": 2.7393927574157715,
          "580": 1.2541202306747437,
          "581": 0.36723122000694275,
          "582": -0.2674151062965393,
          "583": -2.0532257556915283,
          "584": 0.42249974608421326,
          "585": 0.2290268838405609,
          "586": 0.227427676320076,
          "587": 2.669318914413452,
          "588": 1.7682944536209106,
          "589": 0.13611780107021332,
          "590": 2.3368306159973145,
          "591": 2.3575284481048584,
          "592": -1.5993494987487793,
          "593": 1.0854036808013916,
          "594": 1.6379115581512451,
          "595": 0.8946925401687622,
          "596": -0.07614579051733017,
          "597": 0.39216744899749756,
          "598": -0.3235916197299957,
          "599": 2.182831287384033,
          "600": -0.9374447464942932,
          "601": -0.0046023475006222725,
          "602": 0.03437571972608566,
          "603": -1.5536010265350342,
          "604": 1.0160417556762695,
          "605": 0.4447055459022522,
